{"learner":{"attributes":{"best_iteration":"203","best_score":"15.337038624090535"},"feature_names":["gdd_cum_f50_c86","edd_hours_gt86f","edd_hours_gt90f","vpd_kpa_veg","vpd_kpa_silk","prcp_cum_mm","dry_spell_max_days","srad_total_veg","srad_total_silk","d0_pct","d1_pct","d2_pct","d3_pct","d4_pct","ndvi_peak","ndvi_gs_mean","ndvi_gs_integral","ndvi_silking_mean","ndvi_veg_mean","nccpi3corn","nccpi3all","aws0_100","aws0_150","soc0_30","soc0_100","rootznemc","rootznaws","droughty","pctearthmc","pwsl1pomu","irrigated_share","is_irrigated_reported","harvest_ratio","acres_planted_all","year","state_is_CO","state_is_IA","state_is_MO","state_is_NE","state_is_WI"],"feature_types":[],"gradient_booster":{"model":{"cats":{"enc":[],"feature_segments":[],"sorted_idx":[]},"gbtree_model_param":{"num_parallel_tree":"1","num_trees":"254"},"iteration_indptr":[0,1,2,3,4,5,6,7,8,9,10,11,12,13,14,15,16,17,18,19,20,21,22,23,24,25,26,27,28,29,30,31,32,33,34,35,36,37,38,39,40,41,42,43,44,45,46,47,48,49,50,51,52,53,54,55,56,57,58,59,60,61,62,63,64,65,66,67,68,69,70,71,72,73,74,75,76,77,78,79,80,81,82,83,84,85,86,87,88,89,90,91,92,93,94,95,96,97,98,99,100,101,102,103,104,105,106,107,108,109,110,111,112,113,114,115,116,117,118,119,120,121,122,123,124,125,126,127,128,129,130,131,132,133,134,135,136,137,138,139,140,141,142,143,144,145,146,147,148,149,150,151,152,153,154,155,156,157,158,159,160,161,162,163,164,165,166,167,168,169,170,171,172,173,174,175,176,177,178,179,180,181,182,183,184,185,186,187,188,189,190,191,192,193,194,195,196,197,198,199,200,201,202,203,204,205,206,207,208,209,210,211,212,213,214,215,216,217,218,219,220,221,222,223,224,225,226,227,228,229,230,231,232,233,234,235,236,237,238,239,240,241,242,243,244,245,246,247,248,249,250,251,252,253,254],"tree_info":[0,0,0,0,0,0,0,0,0,0,0,0,0,0,0,0,0,0,0,0,0,0,0,0,0,0,0,0,0,0,0,0,0,0,0,0,0,0,0,0,0,0,0,0,0,0,0,0,0,0,0,0,0,0,0,0,0,0,0,0,0,0,0,0,0,0,0,0,0,0,0,0,0,0,0,0,0,0,0,0,0,0,0,0,0,0,0,0,0,0,0,0,0,0,0,0,0,0,0,0,0,0,0,0,0,0,0,0,0,0,0,0,0,0,0,0,0,0,0,0,0,0,0,0,0,0,0,0,0,0,0,0,0,0,0,0,0,0,0,0,0,0,0,0,0,0,0,0,0,0,0,0,0,0,0,0,0,0,0,0,0,0,0,0,0,0,0,0,0,0,0,0,0,0,0,0,0,0,0,0,0,0,0,0,0,0,0,0,0,0,0,0,0,0,0,0,0,0,0,0,0,0,0,0,0,0,0,0,0,0,0,0,0,0,0,0,0,0,0,0,0,0,0,0,0,0,0,0,0,0,0,0,0,0,0,0,0,0,0,0,0,0,0,0,0,0,0,0,0,0,0,0,0,0],"trees":[{"base_weights":[1.2674399E-1,-1.6340405E1,2.294916E1,-6.3143223E1,-1.1547135E1,7.510877E0,2.8481596E1,-2.67086E1,-7.325243E1,-1.9962662E1,1.0153661E0,2.900123E0,1.7881577E1,1.8101732E1,3.8506477E1,-3.7016914E1,-5.8018713E0,-8.3945786E1,-4.810655E1,-2.399801E1,3.1495323E0,-8.012647E0,8.995543E0,-1.964473E1,4.19282E0,6.380416E0,2.5300968E1,1.2895978E1,2.349723E1,3.0979315E1,4.232672E1,-4.4866615E1,3.1991577E-1,-1.0108091E1,3.3241805E-1,-9.293052E1,-6.784657E1,5.832514E-1,-5.3281933E1,-3.1127802E1,-1.4240166E1,-8.343113E0,7.78257E0,-2.1333966E0,-2.0010542E1,-6.0537825E0,1.51741705E1,-2.3408092E1,-3.1674856E-1,-4.7272077E0,7.3158193E0,1.0179034E1,2.3514302E-1,1.0109916E1,2.7978518E1,1.1472895E1,2.2976799E1,2.0876167E1,2.7305481E1,2.8303646E1,4.7361977E1,3.0598072E1,4.3519497E1,-2.6673152E0,-1.6624454E0,-8.4794134E-1,-2.1508841E-1,-4.8295345E0,-3.0392568E0,-1.483836E0,-3.6346881E0,-2.0639982E0,-3.7610931E0,-5.500073E-1,-1.7222818E0,-1.0093287E0,-4.595316E-1,-8.1870663E-1,3.354106E-2,1.18088976E-1,7.9594797E-1,-6.817924E-1,2.065612E-1,-1.3362612E0,-1.6832538E-1,2.3633187E-1,-6.326463E-1,8.5422814E-1,-5.340233E-1,-1.5536556E0,-7.8508854E-1,-9.386627E-1,-1.1357266E-1,1.787088E-1,6.1261815E-1,1.134289E0,3.5147598E-1,-2.0009315E-1,4.5769033E-1,6.567289E-1,1.9563E-1,1.0746768E0,1.6913813E0,4.950405E-1,9.836999E-1,6.55623E-1,1.3181399E0,9.7970706E-1,1.6486567E0,1.5089036E0,1.2667114E0,6.9879335E-1,1.5389124E0,1.4592891E0,2.5371463E0,1.2552757E0,1.7653055E0,1.923995E0,2.4032423E0],"categories":[],"categories_nodes":[],"categories_segments":[],"categories_sizes":[],"default_left":[0,0,0,0,0,0,0,0,0,0,0,0,0,0,0,0,0,0,0,0,0,0,0,0,0,0,0,0,0,0,0,0,0,0,0,0,0,0,0,0,0,0,0,0,0,0,0,0,0,0,0,0,0,0,0,0,0,0,0,0,0,0,0,0,0,0,0,0,0,0,0,0,0,0,0,0,0,0,0,0,0,0,0,0,0,0,0,0,0,0,0,0,0,0,0,0,0,0,0,0,0,0,0,0,0,0,0,0,0,0,0,0,0,0,0,0,0,0,0],"id":0,"left_children":[1,3,5,7,9,11,13,15,17,19,21,23,25,27,29,31,33,35,37,39,41,43,45,47,49,51,53,55,57,59,61,63,-1,65,-1,67,69,-1,71,73,75,77,79,81,83,85,87,89,-1,91,93,95,97,99,101,103,105,107,109,111,113,115,117,-1,-1,-1,-1,-1,-1,-1,-1,-1,-1,-1,-1,-1,-1,-1,-1,-1,-1,-1,-1,-1,-1,-1,-1,-1,-1,-1,-1,-1,-1,-1,-1,-1,-1,-1,-1,-1,-1,-1,-1,-1,-1,-1,-1,-1,-1,-1,-1,-1,-1,-1,-1,-1,-1,-1,-1],"loss_changes":[1.8749658E6,6.494039E5,1.7838112E5,9.7123125E4,2.7806406E5,2.63908E4,1.594465E5,1.271602E4,5.242925E4,1.4696919E5,7.615174E4,1.1273534E4,1.4344941E4,2.0987422E4,2.1175625E4,1.3918926E4,1.1930846E3,1.48134375E4,2.0728672E4,9.2852E4,1.2577707E4,3.494447E4,5.2255992E4,9.0358936E2,1.0174619E4,1.5849675E3,3.9066484E3,5.302582E3,3.1331719E3,1.0363297E4,5.8870625E3,1.5757891E3,0E0,5.634883E2,0E0,4.835625E3,8.203609E3,0E0,1.2694203E4,5.1309E4,1.6869578E4,4.9335776E3,7.3721543E3,2.4123865E4,1.8126809E4,1.1727018E4,1.9840672E4,4.5720312E2,0E0,3.2342534E3,4.9433193E3,1.494917E3,1.05692E3,2.67271E2,2.5729453E3,4.2145586E3,1.2241484E3,2.8278516E3,7.352344E1,7.7955156E3,7.313203E2,4.324375E2,8.8250625E3,0E0,0E0,0E0,0E0,0E0,0E0,0E0,0E0,0E0,0E0,0E0,0E0,0E0,0E0,0E0,0E0,0E0,0E0,0E0,0E0,0E0,0E0,0E0,0E0,0E0,0E0,0E0,0E0,0E0,0E0,0E0,0E0,0E0,0E0,0E0,0E0,0E0,0E0,0E0,0E0,0E0,0E0,0E0,0E0,0E0,0E0,0E0,0E0,0E0,0E0,0E0,0E0,0E0,0E0,0E0,0E0],"parents":[2147483647,0,0,1,1,2,2,3,3,4,4,5,5,6,6,7,7,8,8,9,9,10,10,11,11,12,12,13,13,14,14,15,15,16,16,17,17,18,18,19,19,20,20,21,21,22,22,23,23,24,24,25,25,26,26,27,27,28,28,29,29,30,30,31,31,33,33,35,35,36,36,38,38,39,39,40,40,41,41,42,42,43,43,44,44,45,45,46,46,47,47,49,49,50,50,51,51,52,52,53,53,54,54,55,55,56,56,57,57,58,58,59,59,60,60,61,61,62,62],"right_children":[2,4,6,8,10,12,14,16,18,20,22,24,26,28,30,32,34,36,38,40,42,44,46,48,50,52,54,56,58,60,62,64,-1,66,-1,68,70,-1,72,74,76,78,80,82,84,86,88,90,-1,92,94,96,98,100,102,104,106,108,110,112,114,116,118,-1,-1,-1,-1,-1,-1,-1,-1,-1,-1,-1,-1,-1,-1,-1,-1,-1,-1,-1,-1,-1,-1,-1,-1,-1,-1,-1,-1,-1,-1,-1,-1,-1,-1,-1,-1,-1,-1,-1,-1,-1,-1,-1,-1,-1,-1,-1,-1,-1,-1,-1,-1,-1,-1,-1,-1],"split_conditions":[8.41645E-1,6.536664E-1,9.15E4,2.008E3,2.014E3,2.470453E2,2.015E3,5.57971E-1,6.18409E-1,5.718504E-1,9.464286E-1,1.02E4,2.014E3,8.6078656E-1,8.6146784E-1,2.2052754E3,4.9267575E-1,5.96E4,7.22446E-2,8.1248534E-1,6.1848813E-1,1E0,7.8672E-1,1.0795248E3,2.014E3,3.6363608E2,8.4595686E-1,7.1758664E-1,8.7205625E-1,8.086902E-1,6.459005E-1,2.4367383E2,3.1991577E-1,3.2533076E3,3.3241805E-1,1E0,2.0144403E2,5.832514E-1,5.7143074E-1,3.2533076E3,6.23E4,8.32998E-1,8.4552497E-1,1.0714734E3,4.5816788E2,3.382294E3,5.492913E2,1.2458016E2,-3.1674856E-1,2.83E4,7.660879E-1,2.9082196E2,9.880299E-1,7.34E0,1.0705296E0,2.014E3,7.1798134E-1,8E-1,1.6431941E3,1.0539655E3,6.526037E-1,1.1040934E0,6.8E0,-2.6673152E0,-1.6624454E0,-8.4794134E-1,-2.1508841E-1,-4.8295345E0,-3.0392568E0,-1.483836E0,-3.6346881E0,-2.0639982E0,-3.7610931E0,-5.500073E-1,-1.7222818E0,-1.0093287E0,-4.595316E-1,-8.1870663E-1,3.354106E-2,1.18088976E-1,7.9594797E-1,-6.817924E-1,2.065612E-1,-1.3362612E0,-1.6832538E-1,2.3633187E-1,-6.326463E-1,8.5422814E-1,-5.340233E-1,-1.5536556E0,-7.8508854E-1,-9.386627E-1,-1.1357266E-1,1.787088E-1,6.1261815E-1,1.134289E0,3.5147598E-1,-2.0009315E-1,4.5769033E-1,6.567289E-1,1.9563E-1,1.0746768E0,1.6913813E0,4.950405E-1,9.836999E-1,6.55623E-1,1.3181399E0,9.7970706E-1,1.6486567E0,1.5089036E0,1.2667114E0,6.9879335E-1,1.5389124E0,1.4592891E0,2.5371463E0,1.2552757E0,1.7653055E0,1.923995E0,2.4032423E0],"split_indices":[17,17,33,34,34,26,34,30,17,30,32,33,34,17,17,0,15,33,19,17,18,37,17,7,34,1,17,30,17,18,15,5,0,23,0,38,22,0,15,23,33,30,30,7,8,23,5,25,0,33,18,5,32,11,3,34,18,30,0,7,15,4,10,0,0,0,0,0,0,0,0,0,0,0,0,0,0,0,0,0,0,0,0,0,0,0,0,0,0,0,0,0,0,0,0,0,0,0,0,0,0,0,0,0,0,0,0,0,0,0,0,0,0,0,0,0,0,0,0],"split_type":[0,0,0,0,0,0,0,0,0,0,0,0,0,0,0,0,0,0,0,0,0,0,0,0,0,0,0,0,0,0,0,0,0,0,0,0,0,0,0,0,0,0,0,0,0,0,0,0,0,0,0,0,0,0,0,0,0,0,0,0,0,0,0,0,0,0,0,0,0,0,0,0,0,0,0,0,0,0,0,0,0,0,0,0,0,0,0,0,0,0,0,0,0,0,0,0,0,0,0,0,0,0,0,0,0,0,0,0,0,0,0,0,0,0,0,0,0,0,0],"sum_hessian":[4.987E3,2.897E3,2.09E3,2.68E2,2.629E3,5.52E2,1.538E3,5.9E1,2.09E2,1.574E3,1.055E3,3.83E2,1.69E2,7.57E2,7.81E2,3.9E1,2E1,1.45E2,6.4E1,1.34E3,2.34E2,4.95E2,5.6E2,2E1,3.63E2,6.7E1,1.02E2,3.87E2,3.7E2,2.66E2,5.15E2,3.3E1,6E0,1.5E1,5E0,9E1,5.5E1,5E0,5.9E1,7.73E2,5.67E2,6.7E1,1.67E2,3.33E2,1.62E2,1.63E2,3.97E2,1.5E1,5E0,9.4E1,2.69E2,4.1E1,2.6E1,1.6E1,8.6E1,3.41E2,4.6E1,2.23E2,1.47E2,2.31E2,3.5E1,5E1,4.65E2,1.7E1,1.6E1,6E0,9E0,7.9E1,1.1E1,7E0,4.8E1,4E1,1.9E1,1.1E2,6.63E2,2.59E2,3.08E2,3.5E1,3.2E1,1.01E2,6.6E1,1.17E2,2.16E2,1.15E2,4.7E1,6.2E1,1.01E2,3.7E2,2.7E1,6E0,9E0,1.3E1,8.1E1,1.54E2,1.15E2,7E0,3.4E1,1.8E1,8E0,1E1,6E0,4.3E1,4.3E1,2.88E2,5.3E1,1.3E1,3.3E1,2.04E2,1.9E1,5.4E1,9.3E1,3.5E1,1.96E2,7E0,2.8E1,2.6E1,2.4E1,2.25E2,2.4E2],"tree_param":{"num_deleted":"0","num_feature":"40","num_nodes":"119","size_leaf_vector":"1"}},{"base_weights":[9.5639266E-2,-1.9719624E1,1.9652098E1,-6.0661327E1,-1.4659856E1,1.0574313E1,3.2813873E1,-2.4189865E1,-7.077393E1,8.5938835E0,-1.7855246E1,1.0640777E0,1.4405932E1,2.286779E1,3.624236E1,-3.4123257E1,-5.0296164E0,-7.525421E0,-7.550359E1,-1.160534E1,1.3603903E1,-3.0606588E1,-1.0318566E1,-2.814754E0,8.655049E0,1.0230257E1,2.275199E1,-3.9256254E-1,2.3604057E1,2.3369307E1,3.9292347E1,-9.028654E0,-2.3644238E0,-1.1560942E1,3.922661E-1,-2.0471818E0,1.13868265E1,-8.6100525E1,-5.759545E1,-2.4336212E1,-3.9989738E0,9.175354E0,2.1167646E1,-2.0322815E1,-3.7942276E1,-1.3446775E1,4.9247303E0,-1.9237333E1,-1.3054132E0,6.3472676E0,2.9960756E1,4.0808945E0,1.4150813E1,7.054022E0,2.5730951E1,1.9394424E1,2.605689E1,1.31521435E1,2.8710958E1,2.3635225E1,4.202608E1,-1.226729E0,3.802927E-1,-8.297977E-1,-1.7178966E-1,1.085616E0,-4.182345E-2,-4.561293E0,-2.921198E0,-2.0427606E0,-3.6850545E0,-2.0452619E0,-6.133937E-1,5.3899974E-1,-4.0393582E-1,1.0871885E0,2.81599E-1,6.802608E-1,1.5924903E0,-7.1832216E-1,-1.7875906E0,-2.0014467E0,-7.573945E-1,-1.07069E0,-5.064394E-1,7.9595906E-1,1.056926E-2,-1.2243418E0,-6.8693155E-1,-4.2551023E-1,1.15219966E-1,4.651977E-2,7.3835975E-1,1.8699244E0,6.9053483E-1,8.4088095E-2,8.0982316E-1,7.447291E-1,-2.4438841E-2,9.1099226E-1,-1.6293935E-1,3.7307858E-1,1.3580086E0,1.0393361E0,3.119894E-1,6.633832E-1,1.3274436E0,1.7846565E-1,7.037997E-1,9.065089E-1,1.5611879E0,4.5762444E-1,1.3244351E0,1.8552989E0,2.3074393E0],"categories":[],"categories_nodes":[],"categories_segments":[],"categories_sizes":[],"default_left":[0,0,0,0,0,0,0,0,0,0,0,0,0,0,0,0,0,0,0,0,0,0,0,0,0,0,0,0,0,0,0,0,0,0,0,0,0,0,0,0,0,0,0,0,0,0,0,0,0,0,0,0,0,0,0,0,0,0,0,0,0,0,0,0,0,0,0,0,0,0,0,0,0,0,0,0,0,0,0,0,0,0,0,0,0,0,0,0,0,0,0,0,0,0,0,0,0,0,0,0,0,0,0,0,0,0,0,0,0,0,0,0,0,0,0],"id":1,"left_children":[1,3,5,7,9,11,13,15,17,19,21,23,25,27,29,31,33,35,37,39,41,43,45,47,49,51,53,-1,55,57,59,61,-1,63,-1,-1,65,67,69,71,73,75,77,79,81,83,85,87,89,91,93,95,97,99,101,103,105,107,109,111,113,-1,-1,-1,-1,-1,-1,-1,-1,-1,-1,-1,-1,-1,-1,-1,-1,-1,-1,-1,-1,-1,-1,-1,-1,-1,-1,-1,-1,-1,-1,-1,-1,-1,-1,-1,-1,-1,-1,-1,-1,-1,-1,-1,-1,-1,-1,-1,-1,-1,-1,-1,-1,-1,-1],"loss_changes":[1.9457199E6,5.1575675E5,3.0157838E5,9.934506E4,1.6518431E5,5.453475E4,3.432825E4,1.1438277E4,6.3448625E4,2.7380275E4,1.8737294E5,1.271477E4,3.6952656E4,6.224172E3,2.9117688E4,1.278809E4,1.9406882E3,1.0578437E4,3.28055E4,5.131807E3,7.041E3,5.3921812E4,5.8670117E4,7.064047E3,6.988492E3,1.7131914E4,1.6419562E4,0E0,2.189625E3,7.754297E3,2.541575E4,4.0556082E3,0E0,5.566332E2,0E0,0E0,1.4064885E3,1.2117875E4,1.7749078E4,3.4973916E3,2.1973918E3,6.0233135E3,5.948543E3,2.7424242E4,1.9465688E4,2.6746297E4,1.0878969E4,3.563545E2,6.8596997E3,6.0523467E3,1.1651787E3,8.0824126E3,4.7437656E3,6.7381333E3,7.578422E3,1.7018086E3,6.670625E2,4.1897363E2,2.0128828E3,3.6422227E3,8.9165E3,0E0,0E0,0E0,0E0,0E0,0E0,0E0,0E0,0E0,0E0,0E0,0E0,0E0,0E0,0E0,0E0,0E0,0E0,0E0,0E0,0E0,0E0,0E0,0E0,0E0,0E0,0E0,0E0,0E0,0E0,0E0,0E0,0E0,0E0,0E0,0E0,0E0,0E0,0E0,0E0,0E0,0E0,0E0,0E0,0E0,0E0,0E0,0E0,0E0,0E0,0E0,0E0,0E0,0E0],"parents":[2147483647,0,0,1,1,2,2,3,3,4,4,5,5,6,6,7,7,8,8,9,9,10,10,11,11,12,12,13,13,14,14,15,15,16,16,17,17,18,18,19,19,20,20,21,21,22,22,23,23,24,24,25,25,26,26,28,28,29,29,30,30,31,31,33,33,36,36,37,37,38,38,39,39,40,40,41,41,42,42,43,43,44,44,45,45,46,46,47,47,48,48,49,49,50,50,51,51,52,52,53,53,54,54,55,55,56,56,57,57,58,58,59,59,60,60],"right_children":[2,4,6,8,10,12,14,16,18,20,22,24,26,28,30,32,34,36,38,40,42,44,46,48,50,52,54,-1,56,58,60,62,-1,64,-1,-1,66,68,70,72,74,76,78,80,82,84,86,88,90,92,94,96,98,100,102,104,106,108,110,112,114,-1,-1,-1,-1,-1,-1,-1,-1,-1,-1,-1,-1,-1,-1,-1,-1,-1,-1,-1,-1,-1,-1,-1,-1,-1,-1,-1,-1,-1,-1,-1,-1,-1,-1,-1,-1,-1,-1,-1,-1,-1,-1,-1,-1,-1,-1,-1,-1,-1,-1,-1,-1,-1,-1],"split_conditions":[8.679836E-1,6.536664E-1,8.8920623E-1,2.008E3,3.1761816E-1,6.7E4,2.014E3,5.57971E-1,2.5499862E-1,5.346157E-1,8.431578E-1,4.5021164E2,2.016E3,5.0533265E-1,1.05E5,1.3234602E0,8.917379E-1,8.927031E1,5.9832513E-1,1.7910709E0,2.016E3,4.332271E3,1.1235161E3,9.3E3,1E0,8.779318E-1,2.0932532E2,-3.9256254E-1,8.934548E-1,1.6734116E2,6.451519E-1,4.6353256E2,-2.3644238E0,2.1782843E1,3.922661E-1,-2.0471818E0,6.7E3,1E0,2.2683165E0,1.5701571E1,1.16846176E2,5.1409334E-1,6.05028E-1,6.324211E-1,2.7265307E-1,8.530876E-1,4.391708E3,5.2E3,2.014E3,5.21E0,1.4858324E2,5.3654027E-1,1.167944E3,5.5730854E3,6.242289E0,2.1644578E0,6.2788266E-1,7.411872E-1,6.8E4,8.435193E-1,5.21E0,-1.226729E0,3.802927E-1,-8.297977E-1,-1.7178966E-1,1.085616E0,-4.182345E-2,-4.561293E0,-2.921198E0,-2.0427606E0,-3.6850545E0,-2.0452619E0,-6.133937E-1,5.3899974E-1,-4.0393582E-1,1.0871885E0,2.81599E-1,6.802608E-1,1.5924903E0,-7.1832216E-1,-1.7875906E0,-2.0014467E0,-7.573945E-1,-1.07069E0,-5.064394E-1,7.9595906E-1,1.056926E-2,-1.2243418E0,-6.8693155E-1,-4.2551023E-1,1.15219966E-1,4.651977E-2,7.3835975E-1,1.8699244E0,6.9053483E-1,8.4088095E-2,8.0982316E-1,7.447291E-1,-2.4438841E-2,9.1099226E-1,-1.6293935E-1,3.7307858E-1,1.3580086E0,1.0393361E0,3.119894E-1,6.633832E-1,1.3274436E0,1.7846565E-1,7.037997E-1,9.065089E-1,1.5611879E0,4.5762444E-1,1.3244351E0,1.8552989E0,2.3074393E0],"split_indices":[14,17,14,34,20,33,34,30,20,15,14,8,34,20,33,4,30,21,17,3,34,23,7,33,38,14,22,0,14,21,15,8,0,29,0,0,33,38,3,29,25,27,15,15,30,14,23,33,34,10,25,30,2,23,16,4,15,3,33,17,10,0,0,0,0,0,0,0,0,0,0,0,0,0,0,0,0,0,0,0,0,0,0,0,0,0,0,0,0,0,0,0,0,0,0,0,0,0,0,0,0,0,0,0,0,0,0,0,0,0,0,0,0,0,0],"split_type":[0,0,0,0,0,0,0,0,0,0,0,0,0,0,0,0,0,0,0,0,0,0,0,0,0,0,0,0,0,0,0,0,0,0,0,0,0,0,0,0,0,0,0,0,0,0,0,0,0,0,0,0,0,0,0,0,0,0,0,0,0,0,0,0,0,0,0,0,0,0,0,0,0,0,0,0,0,0,0,0,0,0,0,0,0,0,0,0,0,0,0,0,0,0,0,0,0,0,0,0,0,0,0,0,0,0,0,0,0,0,0,0,0,0,0],"sum_hessian":[5.019E3,2.493E3,2.526E3,2.73E2,2.22E3,1.496E3,1.03E3,6E1,2.13E2,2.68E2,1.952E3,4.3E2,1.066E3,2.66E2,7.64E2,3.9E1,2.1E1,1.5E1,1.98E2,5.3E1,2.15E2,7.24E2,1.228E3,2.85E2,1.45E2,7.12E2,3.54E2,6E0,2.6E2,1.48E2,6.16E2,1.4E1,2.5E1,1.4E1,7E0,5E0,1E1,1.22E2,7.6E1,1.9E1,3.4E1,1.37E2,7.8E1,3.03E2,4.21E2,1.019E3,2.09E2,2.3E1,2.62E2,1.32E2,1.3E1,2.78E2,4.34E2,5.7E1,2.97E2,9.9E1,1.61E2,5.2E1,9.6E1,9.3E1,5.23E2,7E0,7E0,8E0,6E0,5E0,5E0,1.01E2,2.1E1,3.9E1,3.7E1,7E0,1.2E1,7E0,2.7E1,2.9E1,1.08E2,4.7E1,3.1E1,2.2E2,8.3E1,3.85E2,3.6E1,2.98E2,7.21E2,6.2E1,1.47E2,1E1,1.3E1,8.7E1,1.75E2,8.1E1,5.1E1,8E0,5E0,2.33E2,4.5E1,4.13E2,2.1E1,2.7E1,3E1,2.2E1,2.75E2,8.9E1,1E1,7E0,1.54E2,5E0,4.7E1,2E1,7.6E1,1.6E1,7.7E1,2.43E2,2.8E2],"tree_param":{"num_deleted":"0","num_feature":"40","num_nodes":"115","size_leaf_vector":"1"}},{"base_weights":[1.780788E-2,-1.7390142E1,1.9743858E1,-5.652851E1,-1.2930907E1,1.1617658E1,3.181804E1,-2.2679068E1,-6.595709E1,-1.8694E1,-2.28391E0,2.125286E0,1.5001836E1,2.2504738E1,3.4735996E1,-3.2597363E1,-3.6149366E0,8.005007E-1,-6.841029E1,-2.212349E1,6.0967116E0,-7.5577445E0,5.5175457E0,-1.985676E1,3.6308558E0,1.0873874E1,2.29705E1,-3.5788128E-1,2.3334925E1,2.1996307E1,3.7505764E1,-4.127513E1,3.6365482E-1,-1.1149952E1,7.0621884E-1,-8.125755E1,-5.5402454E1,-2.9237867E1,-1.2941193E1,-7.88922E0,8.768381E0,-1.9080486E1,-2.6213274E0,-1.063693E1,1.0349051E1,-4.7920582E-1,-2.2748524E1,-6.5011015E0,6.3809137E0,4.872062E0,1.3825047E1,8.785251E0,2.511357E1,2.8377668E1,2.1260944E1,1.4114081E1,2.9314941E1,2.0958496E1,3.9874863E1,-1.2964702E0,-2.2574294E0,-7.4216276E-1,-2.1404779E-1,-4.2138042E0,-2.252972E0,-1.9817473E0,-3.55071E0,3.0959892E-1,-1.5645202E0,-5.0291586E-1,-1.1160531E0,-1.0057588E0,-5.5473547E-2,2.013642E-1,7.403273E-1,-1.3599606E0,-3.4937444E-1,-1.1657176E0,-2.1068841E-2,-3.482854E-2,-1.0407156E0,1.0822012E0,3.1101003E-1,-1.3701272E0,-6.752841E-1,9.473377E-3,-6.180043E-1,1.0813054E-1,8.05643E-1,3.1999975E-1,-6.654689E-1,3.0974355E-1,7.521281E-1,-9.860996E-2,8.6126006E-1,1.8936476E-1,1.3136567E0,1.238287E0,1.6712735E0,9.7803795E-1,1.2826442E0,5.6855285E-1,1.1249714E0,8.576625E-1,1.6885792E0,3.1626555E-1,1.193882E0,1.5582142E0,2.0910833E0],"categories":[],"categories_nodes":[],"categories_segments":[],"categories_sizes":[],"default_left":[0,0,0,0,0,0,0,0,0,0,0,0,0,0,0,0,0,0,0,0,0,0,0,0,0,0,0,0,0,0,0,0,0,0,0,0,0,0,0,0,0,0,0,0,0,0,0,0,0,0,0,0,0,0,0,0,0,0,0,0,0,0,0,0,0,0,0,0,0,0,0,0,0,0,0,0,0,0,0,0,0,0,0,0,0,0,0,0,0,0,0,0,0,0,0,0,0,0,0,0,0,0,0,0,0,0,0,0,0],"id":2,"left_children":[1,3,5,7,9,11,13,15,17,19,21,23,25,27,29,31,33,-1,35,37,39,41,43,45,47,49,51,-1,53,55,57,59,-1,61,-1,63,65,67,69,71,73,75,77,79,81,-1,83,85,87,89,91,93,95,97,99,101,103,105,107,-1,-1,-1,-1,-1,-1,-1,-1,-1,-1,-1,-1,-1,-1,-1,-1,-1,-1,-1,-1,-1,-1,-1,-1,-1,-1,-1,-1,-1,-1,-1,-1,-1,-1,-1,-1,-1,-1,-1,-1,-1,-1,-1,-1,-1,-1,-1,-1,-1,-1],"loss_changes":[1.7272521E6,4.656057E5,2.3099075E5,8.563275E4,1.472204E5,4.5294906E4,2.4980938E4,1.141627E4,4.3925688E4,1.3251012E5,3.4766887E4,1.2383624E4,3.3960344E4,5.8062266E3,2.4580938E4,1.413966E4,3.0981382E3,0E0,3.0091E4,8.898806E4,7.1686753E3,2.8618035E4,2.6725285E4,4.9492188E2,9.765834E3,1.2101047E4,1.0540953E4,0E0,1.7289141E3,7.143254E3,2.2293562E4,7.90875E2,0E0,3.4236523E2,0E0,7.3475625E3,2.3278125E4,5.6188875E4,1.5973039E4,2.5472397E3,4.5207734E3,1.4635086E4,1.6105541E4,7.9776797E3,1.2130445E4,0E0,4.042041E2,2.9423376E3,1.1254537E4,6.4190254E3,4.1801562E3,4.392004E3,7.4923594E3,3.0259766E2,7.078828E2,1.2392373E3,3.052129E3,3.0954102E3,7.429875E3,0E0,0E0,0E0,0E0,0E0,0E0,0E0,0E0,0E0,0E0,0E0,0E0,0E0,0E0,0E0,0E0,0E0,0E0,0E0,0E0,0E0,0E0,0E0,0E0,0E0,0E0,0E0,0E0,0E0,0E0,0E0,0E0,0E0,0E0,0E0,0E0,0E0,0E0,0E0,0E0,0E0,0E0,0E0,0E0,0E0,0E0,0E0,0E0,0E0,0E0],"parents":[2147483647,0,0,1,1,2,2,3,3,4,4,5,5,6,6,7,7,8,8,9,9,10,10,11,11,12,12,13,13,14,14,15,15,16,16,18,18,19,19,20,20,21,21,22,22,23,23,24,24,25,25,26,26,28,28,29,29,30,30,31,31,33,33,35,35,36,36,37,37,38,38,39,39,40,40,41,41,42,42,43,43,44,44,46,46,47,47,48,48,49,49,50,50,51,51,52,52,53,53,54,54,55,55,56,56,57,57,58,58],"right_children":[2,4,6,8,10,12,14,16,18,20,22,24,26,28,30,32,34,-1,36,38,40,42,44,46,48,50,52,-1,54,56,58,60,-1,62,-1,64,66,68,70,72,74,76,78,80,82,-1,84,86,88,90,92,94,96,98,100,102,104,106,108,-1,-1,-1,-1,-1,-1,-1,-1,-1,-1,-1,-1,-1,-1,-1,-1,-1,-1,-1,-1,-1,-1,-1,-1,-1,-1,-1,-1,-1,-1,-1,-1,-1,-1,-1,-1,-1,-1,-1,-1,-1,-1,-1,-1,-1,-1,-1,-1,-1,-1],"split_conditions":[8.701033E-1,6.536664E-1,8.8990235E-1,2.008E3,2.014E3,6.7E4,2.014E3,5.57971E-1,3.2104492E-2,7.049608E-1,1.1222804E3,9.3E3,2.016E3,5.0533265E-1,1.05E5,2.2052754E3,5.2826893E-1,8.005007E-1,5.834476E-1,8.513181E-1,5.467936E-1,8.518083E-1,5.535355E-1,8.722164E-1,2.014E3,8.779318E-1,1.0544835E3,-3.5788128E-1,1.6431941E3,2.47015E2,6.433707E-1,1.3360732E0,3.6365482E-1,2.563309E0,7.0621884E-1,2.4707793E2,2.2683165E0,2.6025802E-1,1.9800322E3,8.5910654E-1,8.6206895E-1,4.492413E2,1.3540459E3,2.960889E-1,3.1120774E-1,-4.7920582E-1,5.21E0,2.611495E2,1.0970619E0,1.9763607E3,4.207501E2,5.756058E-1,6.199478E-1,2.7767773E2,4.4E-1,1.7033495E2,6.644489E-1,8.435193E-1,1.0437173E3,-1.2964702E0,-2.2574294E0,-7.4216276E-1,-2.1404779E-1,-4.2138042E0,-2.252972E0,-1.9817473E0,-3.55071E0,3.0959892E-1,-1.5645202E0,-5.0291586E-1,-1.1160531E0,-1.0057588E0,-5.5473547E-2,2.013642E-1,7.403273E-1,-1.3599606E0,-3.4937444E-1,-1.1657176E0,-2.1068841E-2,-3.482854E-2,-1.0407156E0,1.0822012E0,3.1101003E-1,-1.3701272E0,-6.752841E-1,9.473377E-3,-6.180043E-1,1.0813054E-1,8.05643E-1,3.1999975E-1,-6.654689E-1,3.0974355E-1,7.521281E-1,-9.860996E-2,8.6126006E-1,1.8936476E-1,1.3136567E0,1.238287E0,1.6712735E0,9.7803795E-1,1.2826442E0,5.6855285E-1,1.1249714E0,8.576625E-1,1.6885792E0,3.1626555E-1,1.193882E0,1.5582142E0,2.0910833E0],"split_indices":[14,17,14,34,34,33,34,30,19,30,7,33,34,20,33,0,18,0,17,14,15,14,15,14,34,14,7,0,0,26,15,4,0,4,0,22,3,20,0,30,30,8,0,20,20,0,10,1,3,0,8,20,15,22,12,21,15,17,7,0,0,0,0,0,0,0,0,0,0,0,0,0,0,0,0,0,0,0,0,0,0,0,0,0,0,0,0,0,0,0,0,0,0,0,0,0,0,0,0,0,0,0,0,0,0,0,0,0,0],"split_type":[0,0,0,0,0,0,0,0,0,0,0,0,0,0,0,0,0,0,0,0,0,0,0,0,0,0,0,0,0,0,0,0,0,0,0,0,0,0,0,0,0,0,0,0,0,0,0,0,0,0,0,0,0,0,0,0,0,0,0,0,0,0,0,0,0,0,0,0,0,0,0,0,0,0,0,0,0,0,0,0,0,0,0,0,0,0,0,0,0,0,0,0,0,0,0,0,0,0,0,0,0,0,0,0,0,0,0,0,0],"sum_hessian":[5.028E3,2.671E3,2.357E3,2.72E2,2.399E3,1.41E3,9.47E2,6E1,2.12E2,1.556E3,8.43E2,3.71E2,1.039E3,2.28E2,7.19E2,3.9E1,2.1E1,6E0,2.06E2,1.367E3,1.89E2,5.03E2,3.4E2,2.3E1,3.48E2,6.86E2,3.53E2,6E0,2.22E2,1.3E2,5.89E2,3.2E1,7E0,1.5E1,6E0,1.01E2,1.05E2,7.69E2,5.98E2,3E1,1.59E2,1.5E2,3.53E2,7.8E1,2.62E2,6E0,1.7E1,7.4E1,2.74E2,2.27E2,4.59E2,4.7E1,3.06E2,6.1E1,1.61E2,6.4E1,6.6E1,7.5E1,5.14E2,8E0,2.4E1,9E0,6E0,9.2E1,9E0,5.4E1,5.1E1,4.2E1,7.27E2,4.59E2,1.39E2,1E1,2E1,9E1,6.9E1,8.9E1,6.1E1,3.3E1,3.2E2,4E1,3.8E1,6.9E1,1.93E2,1E1,7E0,3.5E1,3.9E1,1.92E2,8.2E1,2.1E2,1.7E1,6.4E1,3.95E2,2.1E1,2.6E1,1.6E1,2.9E2,3.9E1,2.2E1,1.2E2,4.1E1,5E1,1.4E1,1.9E1,4.7E1,1.3E1,6.2E1,9.7E1,4.17E2],"tree_param":{"num_deleted":"0","num_feature":"40","num_nodes":"109","size_leaf_vector":"1"}},{"base_weights":[-2.8281236E-1,-1.8436777E1,1.5262504E1,-5.489613E1,-1.3278178E1,4.5551424E0,2.382394E1,-2.1082659E1,-6.411992E1,-1.9914818E1,-2.0266495E0,-8.529454E-1,1.2016997E1,1.6279411E1,2.934826E1,-3.1303762E1,-6.113403E-1,-7.602226E1,-4.6408833E1,-2.4159292E1,2.8139613E0,-1.0287326E1,5.5281124E0,-5.1866164E0,7.5630584E0,5.0642433E0,2.171367E1,1.7651556E1,4.7695807E-1,1.496231E1,3.572507E1,-9.593211E0,-4.3009876E1,-8.617642E0,7.238447E-1,-6.6013275E1,-8.609553E1,-6.602369E1,-3.1019888E1,6.531432E0,-2.5349419E1,-6.521825E0,7.9235997E0,-3.489488E0,-2.050706E1,-1.18090515E1,9.495261E0,-1.1882207E1,-2.024286E0,7.565148E-1,1.4363244E1,3.304437E0,1.6244394E1,7.777728E0,2.5234312E1,1.41027155E1,2.2185005E1,-6.0669994E0,1.042599E1,8.058618E0,2.5771416E1,2.392498E1,3.728886E1,-1.1618367E0,3.4774524E-1,-1.7487406E0,-2.6586003E0,-7.626256E-1,-4.5278456E-2,-4.1035557E0,-2.6824186E0,-4.4771047E0,-2.773352E0,-1.2076329E0,-3.5657597E0,-2.1288898E0,9.345958E-2,5.449023E-1,-8.117353E-1,-1.476519E0,-8.7359256E-1,-7.1856403E-1,8.634164E-2,1.3842627E-1,7.611543E-1,-7.6405704E-1,5.4253545E-2,-1.4882362E0,-5.1475877E-1,-1.1794289E0,-3.800775E-1,5.640847E-1,-8.3237517E-1,-1.078627E0,-4.3449345E-1,-1.9390209E-2,-1.2458283E0,2.611327E-1,-4.326613E-1,8.661575E-1,-6.736416E-1,-1.0405707E-1,3.7066033E-1,3.0822536E-1,9.285863E-1,-1.9067173E-1,5.878504E-1,6.5659326E-1,1.4217747E0,5.779862E-1,1.0565573E0,1.0121483E0,1.2926891E0,-9.116212E-1,-2.5695104E-2,1.3195445E-1,6.347227E-1,-3.2794365E-1,4.7820458E-1,9.399279E-1,1.5005459E0,8.9888114E-1,1.4191055E0,1.629844E0,2.0711381E0],"categories":[],"categories_nodes":[],"categories_segments":[],"categories_sizes":[],"default_left":[0,0,0,0,0,0,0,0,0,0,0,0,0,0,0,0,0,0,0,0,0,0,0,0,0,0,0,0,0,0,0,0,0,0,0,0,0,0,0,0,0,0,0,0,0,0,0,0,0,0,0,0,0,0,0,0,0,0,0,0,0,0,0,0,0,0,0,0,0,0,0,0,0,0,0,0,0,0,0,0,0,0,0,0,0,0,0,0,0,0,0,0,0,0,0,0,0,0,0,0,0,0,0,0,0,0,0,0,0,0,0,0,0,0,0,0,0,0,0,0,0,0,0,0,0],"id":3,"left_children":[1,3,5,7,9,11,13,15,17,19,21,23,25,27,29,31,33,35,37,39,41,43,45,47,49,51,53,55,57,59,61,63,65,67,-1,69,71,73,75,77,79,81,83,85,87,89,91,93,95,97,99,101,103,105,107,109,111,113,115,117,119,121,123,-1,-1,-1,-1,-1,-1,-1,-1,-1,-1,-1,-1,-1,-1,-1,-1,-1,-1,-1,-1,-1,-1,-1,-1,-1,-1,-1,-1,-1,-1,-1,-1,-1,-1,-1,-1,-1,-1,-1,-1,-1,-1,-1,-1,-1,-1,-1,-1,-1,-1,-1,-1,-1,-1,-1,-1,-1,-1,-1,-1,-1,-1],"loss_changes":[1.4180999E6,4.3523856E5,2.4804319E5,8.8160125E4,1.5169384E5,4.8596906E4,6.22065E4,1.3162951E4,4.3902688E4,1.23358875E5,4.7174492E4,2.5533287E4,3.4003836E4,1.38255E4,7.900106E4,1.0261535E4,2.7823782E3,7.726E3,2.6024156E4,3.9503875E4,9.687579E3,2.5007863E4,2.7279879E4,9.758181E3,1.1005145E4,5.770092E3,1.0156117E4,9.131078E3,3.4487693E3,1.979121E4,1.0179625E4,3.7740034E3,3.4496094E2,7.537167E2,0E0,9.6943125E3,1.6838438E3,7.1399844E3,2.0606547E4,4.2527754E3,3.36385E4,4.6866353E3,4.8873057E3,1.1775851E4,1.33070625E4,3.4883076E3,1.5225953E4,4.3908906E3,1.1791118E4,5.088217E3,1.0038055E4,5.7023506E3,8.2388477E2,2.0743115E3,6.1352734E3,5.6896406E3,1.3006172E3,2.152415E3,3.374485E2,3.6937627E3,2.5102266E3,1.4248516E3,8.890875E3,0E0,0E0,0E0,0E0,0E0,0E0,0E0,0E0,0E0,0E0,0E0,0E0,0E0,0E0,0E0,0E0,0E0,0E0,0E0,0E0,0E0,0E0,0E0,0E0,0E0,0E0,0E0,0E0,0E0,0E0,0E0,0E0,0E0,0E0,0E0,0E0,0E0,0E0,0E0,0E0,0E0,0E0,0E0,0E0,0E0,0E0,0E0,0E0,0E0,0E0,0E0,0E0,0E0,0E0,0E0,0E0,0E0,0E0,0E0,0E0,0E0,0E0],"parents":[2147483647,0,0,1,1,2,2,3,3,4,4,5,5,6,6,7,7,8,8,9,9,10,10,11,11,12,12,13,13,14,14,15,15,16,16,17,17,18,18,19,19,20,20,21,21,22,22,23,23,24,24,25,25,26,26,27,27,28,28,29,29,30,30,31,31,32,32,33,33,35,35,36,36,37,37,38,38,39,39,40,40,41,41,42,42,43,43,44,44,45,45,46,46,47,47,48,48,49,49,50,50,51,51,52,52,53,53,54,54,55,55,56,56,57,57,58,58,59,59,60,60,61,61,62,62],"right_children":[2,4,6,8,10,12,14,16,18,20,22,24,26,28,30,32,34,36,38,40,42,44,46,48,50,52,54,56,58,60,62,64,66,68,-1,70,72,74,76,78,80,82,84,86,88,90,92,94,96,98,100,102,104,106,108,110,112,114,116,118,120,122,124,-1,-1,-1,-1,-1,-1,-1,-1,-1,-1,-1,-1,-1,-1,-1,-1,-1,-1,-1,-1,-1,-1,-1,-1,-1,-1,-1,-1,-1,-1,-1,-1,-1,-1,-1,-1,-1,-1,-1,-1,-1,-1,-1,-1,-1,-1,-1,-1,-1,-1,-1,-1,-1,-1,-1,-1,-1,-1,-1,-1,-1,-1],"split_conditions":[8.278692E-1,6.536664E-1,8.52457E-1,2.008E3,2.014E3,9.74E4,2.015E3,5.57971E-1,5.9832513E-1,5.718504E-1,9.433962E-1,4.4877234E2,2.014E3,1E0,1.075E5,1.3234602E0,8.8023514E-1,3.65E0,1.1533491E3,2.960889E-1,6.1848813E-1,1E0,7.4673086E-1,8.4375E-1,1.887E1,7.5373393E-1,1.0473665E3,8.668343E-1,5.2706045E-1,2.4160196E2,6.455318E-1,4.6353256E2,6.559719E1,4.4864625E-1,7.238447E-1,3.9371735E-1,2.4564621E2,5.458454E2,4.3146465E1,9.4855964E-1,8.0741537E-1,8.32998E-1,8.5374147E-1,1.6702594E0,4.4877234E2,7.1473114E-2,5.492913E2,2.83E4,2.146245E0,1E0,3.523E1,8.4225315E-1,7.1644074E-1,5.980889E-1,6.3339454E-1,7.9056305E-1,6.661062E-1,7.5788206E-1,4.390365E3,2.83E4,7.675634E-1,1.0878638E0,5.21E0,-1.1618367E0,3.4774524E-1,-1.7487406E0,-2.6586003E0,-7.626256E-1,-4.5278456E-2,-4.1035557E0,-2.6824186E0,-4.4771047E0,-2.773352E0,-1.2076329E0,-3.5657597E0,-2.1288898E0,9.345958E-2,5.449023E-1,-8.117353E-1,-1.476519E0,-8.7359256E-1,-7.1856403E-1,8.634164E-2,1.3842627E-1,7.611543E-1,-7.6405704E-1,5.4253545E-2,-1.4882362E0,-5.1475877E-1,-1.1794289E0,-3.800775E-1,5.640847E-1,-8.3237517E-1,-1.078627E0,-4.3449345E-1,-1.9390209E-2,-1.2458283E0,2.611327E-1,-4.326613E-1,8.661575E-1,-6.736416E-1,-1.0405707E-1,3.7066033E-1,3.0822536E-1,9.285863E-1,-1.9067173E-1,5.878504E-1,6.5659326E-1,1.4217747E0,5.779862E-1,1.0565573E0,1.0121483E0,1.2926891E0,-9.116212E-1,-2.5695104E-2,1.3195445E-1,6.347227E-1,-3.2794365E-1,4.7820458E-1,9.399279E-1,1.5005459E0,8.9888114E-1,1.4191055E0,1.629844E0,2.0711381E0],"split_indices":[17,17,17,34,34,33,34,30,17,30,32,8,34,39,33,4,30,13,7,20,18,37,17,32,9,30,7,17,19,26,15,8,29,15,0,15,26,1,29,32,17,30,30,2,8,27,5,33,4,37,11,17,18,19,15,18,15,18,23,33,18,4,10,0,0,0,0,0,0,0,0,0,0,0,0,0,0,0,0,0,0,0,0,0,0,0,0,0,0,0,0,0,0,0,0,0,0,0,0,0,0,0,0,0,0,0,0,0,0,0,0,0,0,0,0,0,0,0,0,0,0,0,0,0,0],"split_type":[0,0,0,0,0,0,0,0,0,0,0,0,0,0,0,0,0,0,0,0,0,0,0,0,0,0,0,0,0,0,0,0,0,0,0,0,0,0,0,0,0,0,0,0,0,0,0,0,0,0,0,0,0,0,0,0,0,0,0,0,0,0,0,0,0,0,0,0,0,0,0,0,0,0,0,0,0,0,0,0,0,0,0,0,0,0,0,0,0,0,0,0,0,0,0,0,0,0,0,0,0,0,0,0,0,0,0,0,0,0,0,0,0,0,0,0,0,0,0,0,0,0,0,0,0],"sum_hessian":[5.023E3,2.317E3,2.706E3,2.86E2,2.031E3,1.203E3,1.503E3,6.2E1,2.24E2,1.277E3,7.54E2,6.98E2,5.05E2,6.37E2,8.66E2,4.1E1,2.1E1,1.32E2,9.2E1,1.076E3,2.01E2,3.6E2,3.94E2,4.61E2,2.37E2,2.95E2,2.1E2,5.86E2,5.1E1,2.67E2,5.99E2,1.5E1,2.6E1,1.4E1,7E0,7E1,6.2E1,3.9E1,5.3E1,4E1,1.036E3,7.1E1,1.3E2,2.17E2,1.43E2,7.3E1,3.21E2,1.47E2,3.14E2,1.19E2,1.18E2,2.56E2,3.9E1,4.3E1,1.67E2,3.31E2,2.55E2,3.1E1,2E1,1.64E2,1.03E2,7.2E1,5.27E2,8E0,7E0,1.7E1,9E0,7E0,7E0,2.8E1,4.2E1,5.4E1,8E0,5E0,3.4E1,3.9E1,1.4E1,3.4E1,6E0,6.75E2,3.61E2,3.6E1,3.5E1,7.7E1,5.3E1,6E1,1.57E2,7.4E1,6.9E1,1.8E1,5.5E1,3.01E2,2E1,3.5E1,1.12E2,2.94E2,2E1,8.1E1,3.8E1,1.07E2,1.1E1,1.11E2,1.45E2,8E0,3.1E1,1.1E1,3.2E1,3.6E1,1.31E2,2.45E2,8.6E1,1.71E2,8.4E1,9E0,2.2E1,5E0,1.5E1,1.5E1,1.49E2,4.1E1,6.2E1,3.3E1,3.9E1,2.51E2,2.76E2],"tree_param":{"num_deleted":"0","num_feature":"40","num_nodes":"125","size_leaf_vector":"1"}},{"base_weights":[9.42167E-2,-1.8536757E1,1.5338937E1,-5.1994915E1,-1.3969531E1,5.9614015E0,2.595492E1,-1.9916199E1,-5.992239E1,6.8944645E0,-1.7012665E1,3.920432E0,1.9522404E1,8.938549E0,2.7549389E1,-6.4913783E0,-3.4640366E1,9.273538E-1,-6.2639294E1,-9.932276E0,1.1087909E1,-2.582506E1,-1.0629767E1,-4.1578332E-1,9.111128E0,2.4293669E1,1.0734173E1,5.7695794E0,1.82394E1,1.9762974E1,3.1928205E1,-1.3816754E0,2.4527373E0,-5.29745E-1,-4.4738636E1,-7.206822E1,-4.803629E1,-2.7735624E1,-4.9135175E0,1.879844E1,8.578852E0,-1.6524178E1,-3.2953243E1,-1.3679845E1,4.1178865E0,3.1567894E1,-1.0248332E0,5.8390707E-1,1.0679361E1,1.2104554E1,2.8814178E1,1.7296044E0,1.4121317E1,-5.310499E-1,7.1488767E0,2.1823254E-1,2.2656477E1,1.58937645E1,2.2285398E1,1.7893337E1,3.3878735E1,-1.932864E-1,6.0044676E-1,-2.9096067E0,-1.6581272E0,-3.860504E0,-2.2954144E0,-1.7671845E0,-3.10504E0,-7.2674483E-1,-1.8156874E0,5.6855375E-1,-3.7455648E-1,5.8950007E-1,1.418559E0,2.8839856E-1,9.6014625E-1,-6.434704E-1,-1.7666982E0,-2.1643052E0,-1.4160956E0,-8.429273E-1,-3.4015062E-1,6.090223E-1,-1.9104179E-2,7.267132E-1,2.0198567E0,-1.0637172E0,-1.5880786E-2,-3.54997E-1,2.7565482E-1,5.879595E-1,-3.971019E-2,1.0852121E0,3.9734036E-1,9.5288146E-1,1.660611E0,3.992012E-1,-2.0567344E-1,4.9303594E-1,9.347081E-1,-2.3905563E-1,4.0974593E-1,1.3272736E0,7.260828E-1,2.8987297E-1,8.410727E-1,1.0312619E0,1.3798617E0,2.3340495E-1,1.0482105E0,1.3365667E0,1.8313509E0],"categories":[],"categories_nodes":[],"categories_segments":[],"categories_sizes":[],"default_left":[0,0,0,0,0,0,0,0,0,0,0,0,0,0,0,0,0,0,0,0,0,0,0,0,0,0,0,0,0,0,0,0,0,0,0,0,0,0,0,0,0,0,0,0,0,0,0,0,0,0,0,0,0,0,0,0,0,0,0,0,0,0,0,0,0,0,0,0,0,0,0,0,0,0,0,0,0,0,0,0,0,0,0,0,0,0,0,0,0,0,0,0,0,0,0,0,0,0,0,0,0,0,0,0,0,0,0,0,0,0,0,0,0],"id":4,"left_children":[1,3,5,7,9,11,13,15,17,19,21,23,25,27,29,31,33,-1,35,37,39,41,43,45,47,49,51,53,55,57,59,-1,61,-1,63,65,67,69,71,73,75,77,79,81,83,85,87,89,91,93,95,97,99,-1,101,-1,103,105,107,109,111,-1,-1,-1,-1,-1,-1,-1,-1,-1,-1,-1,-1,-1,-1,-1,-1,-1,-1,-1,-1,-1,-1,-1,-1,-1,-1,-1,-1,-1,-1,-1,-1,-1,-1,-1,-1,-1,-1,-1,-1,-1,-1,-1,-1,-1,-1,-1,-1,-1,-1,-1,-1],"loss_changes":[1.4206881E6,3.4325106E5,2.7371206E5,6.746844E4,1.2595828E5,4.03881E4,3.475425E4,1.0646947E4,4.7211688E4,1.7962316E4,9.703559E4,2.8633936E4,7.748047E3,3.1958662E3,3.9567312E4,5.740707E3,5.839256E3,0E0,2.53155E4,4.420607E3,3.766E3,4.7588094E4,4.5262727E4,1.3551233E4,7.736539E3,6.4286484E3,2.0800605E3,1.9975635E3,1.6171162E3,3.8132344E3,2.00075E4,0E0,1.3747944E3,0E0,8.735E2,1.326925E4,1.2978922E4,7.177959E2,1.8061721E3,2.952912E3,4.518003E3,2.1337578E4,1.8394562E4,1.8094172E4,6.2813154E3,1.3679785E3,9.760034E3,3.4857805E3,6.0678047E3,1.2244785E3,3.1860156E3,7.637426E2,7.898154E2,0E0,1.025043E3,0E0,2.7887695E2,1.5134688E3,1.6883438E3,3.7197559E3,1.19853125E4,0E0,0E0,0E0,0E0,0E0,0E0,0E0,0E0,0E0,0E0,0E0,0E0,0E0,0E0,0E0,0E0,0E0,0E0,0E0,0E0,0E0,0E0,0E0,0E0,0E0,0E0,0E0,0E0,0E0,0E0,0E0,0E0,0E0,0E0,0E0,0E0,0E0,0E0,0E0,0E0,0E0,0E0,0E0,0E0,0E0,0E0,0E0,0E0,0E0,0E0,0E0,0E0],"parents":[2147483647,0,0,1,1,2,2,3,3,4,4,5,5,6,6,7,7,8,8,9,9,10,10,11,11,12,12,13,13,14,14,15,15,16,16,18,18,19,19,20,20,21,21,22,22,23,23,24,24,25,25,26,26,27,27,28,28,29,29,30,30,32,32,34,34,35,35,36,36,37,37,38,38,39,39,40,40,41,41,42,42,43,43,44,44,45,45,46,46,47,47,48,48,49,49,50,50,51,51,52,52,54,54,56,56,57,57,58,58,59,59,60,60],"right_children":[2,4,6,8,10,12,14,16,18,20,22,24,26,28,30,32,34,-1,36,38,40,42,44,46,48,50,52,54,56,58,60,-1,62,-1,64,66,68,70,72,74,76,78,80,82,84,86,88,90,92,94,96,98,100,-1,102,-1,104,106,108,110,112,-1,-1,-1,-1,-1,-1,-1,-1,-1,-1,-1,-1,-1,-1,-1,-1,-1,-1,-1,-1,-1,-1,-1,-1,-1,-1,-1,-1,-1,-1,-1,-1,-1,-1,-1,-1,-1,-1,-1,-1,-1,-1,-1,-1,-1,-1,-1,-1,-1,-1,-1,-1],"split_conditions":[8.64575E-1,6.536664E-1,8.856298E-1,2.008E3,3.1761816E-1,1.1301196E3,6.98E4,5.690259E-1,3.2104492E-2,5.346157E-1,8.431578E-1,8.7630934E-1,1.882104E3,2.3904735E2,2.015E3,1.9652556E-1,1.3234602E0,9.273538E-1,5.9832513E-1,1.21258286E2,5.1145846E-1,4.332271E3,1.1235161E3,2.4554014E-1,5.111745E-1,9.5108694E-1,4.5109204E2,8.418413E-1,7.650219E-1,8.9055765E-1,6.4250916E-1,-1.3816754E0,5.2826893E-1,-5.29745E-1,2.0533414E2,1E0,2.2683165E0,1.2245356E3,1.1553974E2,3.8210785E-1,8.7104934E-1,5.1145846E-1,8.242819E-1,2.014E3,4.486529E3,2.3374583E2,7.4892616E-1,1.0348601E3,1.1368539E3,4.391708E3,2.015E3,1.1635206E0,2.6418E2,-5.310499E-1,2.012E3,2.1823254E-1,1.8597699E3,9.008547E-1,4.5228506E2,8.435193E-1,1.225E5,-1.932864E-1,6.0044676E-1,-2.9096067E0,-1.6581272E0,-3.860504E0,-2.2954144E0,-1.7671845E0,-3.10504E0,-7.2674483E-1,-1.8156874E0,5.6855375E-1,-3.7455648E-1,5.8950007E-1,1.418559E0,2.8839856E-1,9.6014625E-1,-6.434704E-1,-1.7666982E0,-2.1643052E0,-1.4160956E0,-8.429273E-1,-3.4015062E-1,6.090223E-1,-1.9104179E-2,7.267132E-1,2.0198567E0,-1.0637172E0,-1.5880786E-2,-3.54997E-1,2.7565482E-1,5.879595E-1,-3.971019E-2,1.0852121E0,3.9734036E-1,9.5288146E-1,1.660611E0,3.992012E-1,-2.0567344E-1,4.9303594E-1,9.347081E-1,-2.3905563E-1,4.0974593E-1,1.3272736E0,7.260828E-1,2.8987297E-1,8.410727E-1,1.0312619E0,1.3798617E0,2.3340495E-1,1.0482105E0,1.3365667E0,1.8313509E0],"split_indices":[14,17,14,34,20,7,33,15,19,15,14,14,0,22,34,27,4,0,17,22,27,23,7,19,20,32,1,17,18,14,15,0,18,0,5,38,3,0,25,27,27,27,14,34,23,1,17,7,1,23,34,3,22,0,34,0,0,32,8,17,33,0,0,0,0,0,0,0,0,0,0,0,0,0,0,0,0,0,0,0,0,0,0,0,0,0,0,0,0,0,0,0,0,0,0,0,0,0,0,0,0,0,0,0,0,0,0,0,0,0,0,0,0],"split_type":[0,0,0,0,0,0,0,0,0,0,0,0,0,0,0,0,0,0,0,0,0,0,0,0,0,0,0,0,0,0,0,0,0,0,0,0,0,0,0,0,0,0,0,0,0,0,0,0,0,0,0,0,0,0,0,0,0,0,0,0,0,0,0,0,0,0,0,0,0,0,0,0,0,0,0,0,0,0,0,0,0,0,0,0,0,0,0,0,0,0,0,0,0,0,0,0,0,0,0,0,0,0,0,0,0,0,0,0,0,0,0,0,0],"sum_hessian":[5E3,2.25E3,2.75E3,2.69E2,1.981E3,1.461E3,1.289E3,5.4E1,2.15E2,2.52E2,1.729E3,1.271E3,1.9E2,1.11E2,1.178E3,2.9E1,2.5E1,7E0,2.08E2,5E1,2.02E2,7.25E2,1.004E3,6.93E2,5.78E2,1.22E2,6.8E1,8.4E1,2.7E1,4.26E2,7.52E2,8E0,2.1E1,8E0,1.7E1,1.24E2,8.4E1,1E1,4E1,4.8E1,1.54E2,3.16E2,4.09E2,8.32E2,1.72E2,1.2E1,6.81E2,9E1,4.88E2,3.4E1,8.8E1,1.9E1,4.9E1,6E0,7.8E1,7E0,2E1,1.71E2,2.55E2,9.3E1,6.59E2,1.3E1,8E0,6E0,1.1E1,1.02E2,2.2E1,4.6E1,3.8E1,5E0,5E0,5E0,3.5E1,2.9E1,1.9E1,1.23E2,3.1E1,2.66E2,5E1,1.24E2,2.85E2,5.68E2,2.64E2,6.1E1,1.11E2,5E0,7E0,2.2E1,6.59E2,3.5E1,5.5E1,4.46E2,4.2E1,9E0,2.5E1,2.9E1,5.9E1,9E0,1E1,2.7E1,2.2E1,6E0,7.2E1,1.2E1,8E0,1.5E1,1.56E2,1.98E2,5.7E1,1.8E1,7.5E1,1.86E2,4.73E2],"tree_param":{"num_deleted":"0","num_feature":"40","num_nodes":"113","size_leaf_vector":"1"}},{"base_weights":[1.4778905E-1,-1.7614758E1,1.4520533E1,-4.7872677E1,-1.343232E1,5.487691E0,2.4744268E1,-1.8210312E1,-5.6361748E1,5.034318E0,-1.649124E1,3.3636386E0,1.981293E1,1.8278524E1,2.8801971E1,-2.8341589E1,-9.882231E-1,-6.9172597E0,-5.9840458E1,-1.2276525E1,9.690247E0,-2.6444542E1,-1.0100131E1,-6.314178E-1,8.138298E0,2.3824335E1,1.1348283E1,5.6207714E0,2.007403E1,1.97186E1,3.1515543E1,-3.6178574E1,3.2745266E-1,-8.552607E0,6.284687E-1,-1.7067711E0,5.052682E-1,-6.947205E1,-4.7372097E1,-3.0496357E1,-6.5881376E0,6.9167337E0,1.7235432E1,-2.8957708E1,-4.812552E0,-1.3306255E1,4.1780944E0,1.5640613E0,-1.1863093E0,2.5533237E0,1.0216837E1,1.1851985E1,2.7858393E1,1.7306968E0,1.48649845E1,2.5369606E0,1.7523647E1,1.4708883E1,2.4076694E1,6.258161E0,2.0693903E1,1.2359424E1,3.269134E1,-2.2311664E0,-1.3565682E0,-6.462664E-1,4.447416E-2,-3.6728723E0,-2.3363853E0,-1.7867359E0,-3.2152958E0,-4.9318883E-1,-2.0431464E0,4.071459E-1,-4.6848226E-1,2.0931792E-1,7.7802974E-1,1.221774E0,4.9719596E-1,-1.2935523E0,-2.1275492E0,-5.2548087E-1,1.3468714E-1,-8.0732244E-1,-3.6259392E-1,-8.22294E-2,5.1991963E-1,-5.41434E-1,3.3213846E-2,-6.1914414E-2,5.009525E-1,5.931341E-1,-1.1096703E-2,-1.5621129E-1,7.9252094E-1,1.2260131E0,2.0866082E0,-2.3291521E-1,3.1099534E-1,4.990178E-1,9.463356E-1,-5.2516794E-1,2.2331028E-1,4.4794556E-1,1.0878372E0,7.872513E-1,3.5995498E-1,8.8633263E-1,1.4117106E0,-2.7994114E-1,1.1500305E0,5.7626027E-1,1.0745703E0,3.935071E-1,8.588991E-1,1.2736686E0,1.8320574E0],"categories":[],"categories_nodes":[],"categories_segments":[],"categories_sizes":[],"default_left":[0,0,0,0,0,0,0,0,0,0,0,0,0,0,0,0,0,0,0,0,0,0,0,0,0,0,0,0,0,0,0,0,0,0,0,0,0,0,0,0,0,0,0,0,0,0,0,0,0,0,0,0,0,0,0,0,0,0,0,0,0,0,0,0,0,0,0,0,0,0,0,0,0,0,0,0,0,0,0,0,0,0,0,0,0,0,0,0,0,0,0,0,0,0,0,0,0,0,0,0,0,0,0,0,0,0,0,0,0,0,0,0,0,0,0,0,0],"id":5,"left_children":[1,3,5,7,9,11,13,15,17,19,21,23,25,27,29,31,33,35,37,39,41,43,45,47,49,51,53,55,57,59,61,63,-1,65,-1,-1,-1,67,69,71,73,75,77,79,81,83,85,-1,87,89,91,93,95,97,99,101,103,105,107,109,111,113,115,-1,-1,-1,-1,-1,-1,-1,-1,-1,-1,-1,-1,-1,-1,-1,-1,-1,-1,-1,-1,-1,-1,-1,-1,-1,-1,-1,-1,-1,-1,-1,-1,-1,-1,-1,-1,-1,-1,-1,-1,-1,-1,-1,-1,-1,-1,-1,-1,-1,-1,-1,-1,-1,-1],"loss_changes":[1.2803126E6,2.832128E5,2.5585669E5,6.7464875E4,1.1147731E5,4.4753145E4,3.3580438E4,1.0789859E4,3.587875E4,2.2767016E4,1.0736544E5,2.449748E4,6.1811094E3,1.1341594E4,1.9023375E4,1.0900998E4,2.5688179E3,7.29482E3,2.036675E4,6.0175723E3,4.526506E3,3.579578E4,4.7298258E4,1.2432749E4,6.7649414E3,5.8518516E3,2.1050703E3,2.3047412E3,9.116281E3,2.3123047E3,1.33804375E4,1.2341562E3,0E0,6.720989E2,0E0,0E0,0E0,6.4478125E3,1.5240828E4,2.5913848E3,2.0020996E3,3.8054194E3,2.8544707E3,2.3738219E4,3.0217793E3,1.4378781E4,6.8986772E3,0E0,1.2301736E4,4.541548E3,7.3215625E3,2.0854868E3,3.3763984E3,5.452425E2,7.237461E2,1.3551248E3,2.7640308E2,1.3728594E3,6.126E3,2.9079858E3,1.0172969E3,6.6518555E2,1.54881875E4,0E0,0E0,0E0,0E0,0E0,0E0,0E0,0E0,0E0,0E0,0E0,0E0,0E0,0E0,0E0,0E0,0E0,0E0,0E0,0E0,0E0,0E0,0E0,0E0,0E0,0E0,0E0,0E0,0E0,0E0,0E0,0E0,0E0,0E0,0E0,0E0,0E0,0E0,0E0,0E0,0E0,0E0,0E0,0E0,0E0,0E0,0E0,0E0,0E0,0E0,0E0,0E0,0E0,0E0],"parents":[2147483647,0,0,1,1,2,2,3,3,4,4,5,5,6,6,7,7,8,8,9,9,10,10,11,11,12,12,13,13,14,14,15,15,16,16,17,17,18,18,19,19,20,20,21,21,22,22,23,23,24,24,25,25,26,26,27,27,28,28,29,29,30,30,31,31,33,33,37,37,38,38,39,39,40,40,41,41,42,42,43,43,44,44,45,45,46,46,48,48,49,49,50,50,51,51,52,52,53,53,54,54,55,55,56,56,57,57,58,58,59,59,60,60,61,61,62,62],"right_children":[2,4,6,8,10,12,14,16,18,20,22,24,26,28,30,32,34,36,38,40,42,44,46,48,50,52,54,56,58,60,62,64,-1,66,-1,-1,-1,68,70,72,74,76,78,80,82,84,86,-1,88,90,92,94,96,98,100,102,104,106,108,110,112,114,116,-1,-1,-1,-1,-1,-1,-1,-1,-1,-1,-1,-1,-1,-1,-1,-1,-1,-1,-1,-1,-1,-1,-1,-1,-1,-1,-1,-1,-1,-1,-1,-1,-1,-1,-1,-1,-1,-1,-1,-1,-1,-1,-1,-1,-1,-1,-1,-1,-1,-1,-1,-1,-1,-1],"split_conditions":[8.64575E-1,6.536664E-1,8.856298E-1,2.008E3,3.239724E-1,1.1301196E3,8.9248955E-1,5.57971E-1,2.5499862E-1,5.346157E0,8.417889E-1,8.7630934E-1,1.895075E3,7.4E4,6.5260367E0,2.2052754E3,8.917379E-1,1.7852268E0,5.834476E-1,1.0643981E2,2.017E3,5.235602E-1,1.1222804E3,2.4554014E-1,2.2309322E2,9.5108694E-1,4.827112E2,2.4020526E2,2.014E3,8.435193E-1,6.8E4,2.0589033E3,3.2745266E-1,1.4556552E2,6.284687E-1,-1.7067711E0,5.052682E-1,1E0,5.7132635E0,5.8035713E-1,1.16846176E2,1.133E5,1.5053223E2,2.0249753E0,5.609292E0,2.014E3,2.016E3,1.5640613E0,4.5735317E-1,9.4710326E-1,3.077845E2,8.499549E1,2.021E3,2.4020526E2,2.6420654E2,6.610849E0,1.0259027E0,2.126804E0,1.0718223E3,3.0331317E2,1.3333427E1,1.0435001E0,2.016E3,-2.2311664E0,-1.3565682E0,-6.462664E-1,4.447416E-2,-3.6728723E0,-2.3363853E0,-1.7867359E0,-3.2152958E0,-4.9318883E-1,-2.0431464E0,4.071459E-1,-4.6848226E-1,2.0931792E-1,7.7802974E-1,1.221774E0,4.9719596E-1,-1.2935523E0,-2.1275492E0,-5.2548087E-1,1.3468714E-1,-8.0732244E-1,-3.6259392E-1,-8.22294E-2,5.1991963E-1,-5.41434E-1,3.3213846E-2,-6.1914414E-2,5.009525E-1,5.931341E-1,-1.1096703E-2,-1.5621129E-1,7.9252094E-1,1.2260131E0,2.0866082E0,-2.3291521E-1,3.1099534E-1,4.990178E-1,9.463356E-1,-5.2516794E-1,2.2331028E-1,4.4794556E-1,1.0878372E0,7.872513E-1,3.5995498E-1,8.8633263E-1,1.4117106E0,-2.7994114E-1,1.1500305E0,5.7626027E-1,1.0745703E0,3.935071E-1,8.588991E-1,1.2736686E0,1.8320574E0],"split_indices":[14,17,14,34,20,7,14,30,20,16,14,14,0,33,16,0,30,4,17,25,34,30,7,19,26,32,1,22,34,17,33,0,0,25,0,0,0,38,16,32,25,33,22,4,16,34,34,0,20,32,2,28,34,22,26,16,4,4,7,1,2,3,34,0,0,0,0,0,0,0,0,0,0,0,0,0,0,0,0,0,0,0,0,0,0,0,0,0,0,0,0,0,0,0,0,0,0,0,0,0,0,0,0,0,0,0,0,0,0,0,0,0,0,0,0,0,0],"split_type":[0,0,0,0,0,0,0,0,0,0,0,0,0,0,0,0,0,0,0,0,0,0,0,0,0,0,0,0,0,0,0,0,0,0,0,0,0,0,0,0,0,0,0,0,0,0,0,0,0,0,0,0,0,0,0,0,0,0,0,0,0,0,0,0,0,0,0,0,0,0,0,0,0,0,0,0,0,0,0,0,0,0,0,0,0,0,0,0,0,0,0,0,0,0,0,0,0,0,0,0,0,0,0,0,0,0,0,0,0,0,0,0,0,0,0,0,0],"sum_hessian":[5.013E3,2.242E3,2.771E3,2.71E2,1.971E3,1.472E3,1.299E3,6.1E1,2.1E2,2.8E2,1.691E3,1.283E3,1.89E2,5.03E2,7.96E2,3.8E1,2.3E1,1.4E1,1.96E2,5.9E1,2.21E2,6.6E2,1.031E3,6.99E2,5.84E2,1.27E2,6.2E1,6.3E1,4.4E2,1.85E2,6.11E2,3.1E1,7E0,1.5E1,8E0,5E0,9E0,1.08E2,8.8E1,1.3E1,4.6E1,1.63E2,5.8E1,5.91E2,6.9E1,8.42E2,1.89E2,1.1E1,6.88E2,1.59E2,4.25E2,3.3E1,9.4E1,1.7E1,4.5E1,5.1E1,1.2E1,1.9E2,2.5E2,1.3E1,1.72E2,3.6E1,5.75E2,1.4E1,1.7E1,1E1,5E0,9E1,1.8E1,5.4E1,3.4E1,5E0,8E0,7E0,3.9E1,1.25E2,3.8E1,2.8E1,3E1,4.84E2,1.07E2,3.9E1,3E1,5.72E2,2.7E2,9.8E1,9.1E1,1.1E2,5.78E2,1.06E2,5.3E1,3.67E2,5.8E1,7E0,2.6E1,7.8E1,1.6E1,7E0,1E1,2.2E1,2.3E1,6E0,4.5E1,5E0,7E0,1.66E2,2.4E1,1.01E2,1.49E2,8E0,5E0,1.5E1,1.57E2,2E1,1.6E1,2.06E2,3.69E2],"tree_param":{"num_deleted":"0","num_feature":"40","num_nodes":"117","size_leaf_vector":"1"}},{"base_weights":[-1.00995235E-1,-1.6792418E1,1.373151E1,-4.6781643E1,-1.2557831E1,5.3229074E0,2.3443789E1,-3.7257496E1,-6.830488E1,5.184237E0,-1.52211075E1,3.1580024E0,1.6590837E1,1.7494478E1,2.7022823E1,-7.149986E1,-2.751763E1,-7.128788E1,-8.5736895E-1,-1.0666478E1,9.56622E0,-2.374189E1,-9.647814E0,-5.680414E-1,7.8523574E0,2.010642E1,7.177639E0,1.3060125E1,2.2276924E1,1.6941704E1,2.9046993E1,-3.9211369E0,-2.2115626E0,3.5220376E-1,-2.9696394E1,-7.834558E1,-5.1555523E1,-2.6679832E1,-5.328901E0,6.4847193E0,1.4604498E1,-1.4687958E1,-3.0351896E1,-1.2565546E1,4.3365626E0,-2.3679473E0,9.596504E0,-1.6311902E0,9.409515E0,1.0402418E1,2.5081057E1,-1.184604E0,9.251106E0,4.2376842E0,1.5559202E1,1.9309654E1,2.9512152E1,2.2767417E0,1.8096687E1,1.141574E1,3.0289854E1,-1.5539979E0,3.8833925E-1,-4.1172404E0,-2.5657384E0,-1.4261765E0,-2.8057668E0,-1.8413779E-1,-1.9523395E0,3.4522387E-1,-4.565013E-1,-6.496237E-2,5.335085E-1,8.4334785E-1,-2.5180817E-2,-5.45512E-1,-1.3700618E0,-9.813675E-1,-1.7237211E0,-5.9309626E-1,-1.7922648E0,6.864119E-1,1.8577354E-2,-5.9772994E-2,-8.7769526E-1,1.0175102E0,1.8020512E-1,-1.0786996E0,1.6517438E-2,5.0423723E-1,-5.190194E-1,2.0491934E-1,6.972134E-1,1.3670827E0,3.571214E-1,9.4286606E-2,-2.7963373E-1,1.1803698E-1,5.715729E-1,-3.9213434E-1,3.3330715E-1,5.642335E-1,9.504595E-1,1.901732E-1,1.0356417E0,1.5957217E0,5.5092853E-1,5.615359E-1,-3.5283458E-1,3.7961563E-1,9.472046E-1,3.3298156E-1,8.786797E-1,1.2155936E0,1.6452582E0],"categories":[],"categories_nodes":[],"categories_segments":[],"categories_sizes":[],"default_left":[0,0,0,0,0,0,0,0,0,0,0,0,0,0,0,0,0,0,0,0,0,0,0,0,0,0,0,0,0,0,0,0,0,0,0,0,0,0,0,0,0,0,0,0,0,0,0,0,0,0,0,0,0,0,0,0,0,0,0,0,0,0,0,0,0,0,0,0,0,0,0,0,0,0,0,0,0,0,0,0,0,0,0,0,0,0,0,0,0,0,0,0,0,0,0,0,0,0,0,0,0,0,0,0,0,0,0,0,0,0,0,0,0,0,0],"id":6,"left_children":[1,3,5,7,9,11,13,15,17,19,21,23,25,27,29,31,33,35,-1,37,39,41,43,45,47,49,51,53,55,57,59,-1,-1,-1,61,63,65,67,69,71,73,75,77,79,81,83,85,87,89,91,93,95,97,99,101,103,105,107,109,111,113,-1,-1,-1,-1,-1,-1,-1,-1,-1,-1,-1,-1,-1,-1,-1,-1,-1,-1,-1,-1,-1,-1,-1,-1,-1,-1,-1,-1,-1,-1,-1,-1,-1,-1,-1,-1,-1,-1,-1,-1,-1,-1,-1,-1,-1,-1,-1,-1,-1,-1,-1,-1,-1,-1],"loss_changes":[1.1585765E6,2.881923E5,2.239686E5,5.50575E4,9.429947E4,3.585557E4,2.6633062E4,6.3735156E4,1.17488125E4,1.8230463E4,8.211653E4,2.16238E4,7.6986953E3,9.909641E3,1.56896875E4,4.6486875E3,1.1880953E4,7.1020938E3,0E0,4.7297607E3,3.0880117E3,4.0549125E4,4.2897297E4,1.2646431E4,8.0931055E3,8.042203E3,1.1553223E3,5.4901523E3,4.3679766E3,2.2454023E3,1.40950625E4,0E0,0E0,0E0,7.8089688E3,1.9363125E3,9.1990625E2,3.8378545E3,2.1090642E3,4.216606E3,2.6404688E3,1.3676945E4,1.6787156E4,1.3809109E4,6.772241E3,1.0430752E4,6.628466E3,3.0583765E3,6.3851562E3,1.2825264E3,4.3870938E3,2.0002588E2,7.692544E2,1.7244714E3,2.675914E3,3.533043E3,2.5360898E3,9.9853644E2,9.6884766E2,1.2009009E3,8.8150625E3,0E0,0E0,0E0,0E0,0E0,0E0,0E0,0E0,0E0,0E0,0E0,0E0,0E0,0E0,0E0,0E0,0E0,0E0,0E0,0E0,0E0,0E0,0E0,0E0,0E0,0E0,0E0,0E0,0E0,0E0,0E0,0E0,0E0,0E0,0E0,0E0,0E0,0E0,0E0,0E0,0E0,0E0,0E0,0E0,0E0,0E0,0E0,0E0,0E0,0E0,0E0,0E0,0E0,0E0],"parents":[2147483647,0,0,1,1,2,2,3,3,4,4,5,5,6,6,7,7,8,8,9,9,10,10,11,11,12,12,13,13,14,14,15,15,16,16,17,17,19,19,20,20,21,21,22,22,23,23,24,24,25,25,26,26,27,27,28,28,29,29,30,30,34,34,35,35,36,36,37,37,38,38,39,39,40,40,41,41,42,42,43,43,44,44,45,45,46,46,47,47,48,48,49,49,50,50,51,51,52,52,53,53,54,54,55,55,56,56,57,57,58,58,59,59,60,60],"right_children":[2,4,6,8,10,12,14,16,18,20,22,24,26,28,30,32,34,36,-1,38,40,42,44,46,48,50,52,54,56,58,60,-1,-1,-1,62,64,66,68,70,72,74,76,78,80,82,84,86,88,90,92,94,96,98,100,102,104,106,108,110,112,114,-1,-1,-1,-1,-1,-1,-1,-1,-1,-1,-1,-1,-1,-1,-1,-1,-1,-1,-1,-1,-1,-1,-1,-1,-1,-1,-1,-1,-1,-1,-1,-1,-1,-1,-1,-1,-1,-1,-1,-1,-1,-1,-1,-1,-1,-1,-1,-1,-1,-1,-1,-1,-1,-1],"split_conditions":[8.64575E-1,6.536664E-1,8.856298E-1,3.019312E3,3.1761816E-1,1.1229711E3,8.92213E-1,3.9371735E-1,9.673913E-1,5.346157E-1,8.417889E-1,8.7653995E-1,1.910813E3,1.0714734E3,6.459005E-1,1.2933333E-1,2.1572016E-1,7.956556E-1,-8.5736895E-1,1.0643981E2,1.6206292E0,4.332271E3,1.1247305E3,1E0,4.9311706E-1,1.1635206E0,8.592511E1,5.756058E-1,3.229E1,8.4225315E-1,6.98E4,-3.9211369E0,-2.2115626E0,3.5220376E-1,1.4992052E2,1E0,4.329184E3,5.8035713E-1,1.2015668E2,5.74869E0,7.4242896E2,6.324211E-1,3.6824974E1,9.836374E3,4.391708E3,1.4081118E0,4.565993E3,8.3E3,3.058246E0,4.476923E2,9.5704974E2,1.1281629E0,8.6827E-1,8.350104E1,6.6246E-1,6.98E4,1.7399791E0,7.444609E-1,1.3333427E1,1.0435001E0,1.0487272E3,-1.5539979E0,3.8833925E-1,-4.1172404E0,-2.5657384E0,-1.4261765E0,-2.8057668E0,-1.8413779E-1,-1.9523395E0,3.4522387E-1,-4.565013E-1,-6.496237E-2,5.335085E-1,8.4334785E-1,-2.5180817E-2,-5.45512E-1,-1.3700618E0,-9.813675E-1,-1.7237211E0,-5.9309626E-1,-1.7922648E0,6.864119E-1,1.8577354E-2,-5.9772994E-2,-8.7769526E-1,1.0175102E0,1.8020512E-1,-1.0786996E0,1.6517438E-2,5.0423723E-1,-5.190194E-1,2.0491934E-1,6.972134E-1,1.3670827E0,3.571214E-1,9.4286606E-2,-2.7963373E-1,1.1803698E-1,5.715729E-1,-3.9213434E-1,3.3330715E-1,5.642335E-1,9.504595E-1,1.901732E-1,1.0356417E0,1.5957217E0,5.5092853E-1,5.615359E-1,-3.5283458E-1,3.7961563E-1,9.472046E-1,3.3298156E-1,8.786797E-1,1.2155936E0,1.6452582E0],"split_indices":[14,17,14,1,20,7,14,15,32,15,14,14,0,7,15,19,20,14,0,25,3,23,7,38,20,3,2,20,10,17,33,0,0,0,25,31,23,32,5,16,2,15,29,23,23,3,23,33,4,8,1,4,14,28,15,33,4,19,2,3,7,0,0,0,0,0,0,0,0,0,0,0,0,0,0,0,0,0,0,0,0,0,0,0,0,0,0,0,0,0,0,0,0,0,0,0,0,0,0,0,0,0,0,0,0,0,0,0,0,0,0,0,0,0,0],"split_type":[0,0,0,0,0,0,0,0,0,0,0,0,0,0,0,0,0,0,0,0,0,0,0,0,0,0,0,0,0,0,0,0,0,0,0,0,0,0,0,0,0,0,0,0,0,0,0,0,0,0,0,0,0,0,0,0,0,0,0,0,0,0,0,0,0,0,0,0,0,0,0,0,0,0,0,0,0,0,0,0,0,0,0,0,0,0,0,0,0,0,0,0,0,0,0,0,0,0,0,0,0,0,0,0,0,0,0,0,0,0,0,0,0,0,0],"sum_hessian":[5.016E3,2.273E3,2.743E3,2.8E2,1.993E3,1.471E3,1.272E3,1.96E2,8.4E1,2.6E2,1.733E3,1.235E3,2.36E2,4.8E2,7.92E2,4.2E1,1.54E2,7.9E1,5E0,5.6E1,2.04E2,6.84E2,1.049E3,6.89E2,5.46E2,1.71E2,6.5E1,2.51E2,2.29E2,1.34E2,6.58E2,3.2E1,1E1,9E0,1.45E2,5.6E1,2.3E1,1.3E1,4.3E1,1.28E2,7.6E1,2.9E2,3.94E2,8.68E2,1.81E2,5.86E2,1.03E2,7.7E1,4.69E2,5.9E1,1.12E2,1.3E1,5.2E1,5.6E1,1.95E2,1.65E2,6.4E1,1E1,1.24E2,4.4E1,6.14E2,1.4E2,5E0,4.7E1,9E0,5E0,1.8E1,5E0,8E0,1E1,3.3E1,4.5E1,8.3E1,6.6E1,1E1,2.25E2,6.5E1,1.11E2,2.83E2,8.44E2,2.4E1,5.3E1,1.28E2,5.45E2,4.1E1,3.6E1,6.7E1,6E0,7.1E1,4.54E2,1.5E1,2.2E1,3.7E1,9.9E1,1.3E1,8E0,5E0,1.3E1,3.9E1,9E0,4.7E1,8.9E1,1.06E2,1.4E1,1.51E2,5.6E1,8E0,5E0,5E0,1E1,1.14E2,2.6E1,1.8E1,1.9E2,4.24E2],"tree_param":{"num_deleted":"0","num_feature":"40","num_nodes":"115","size_leaf_vector":"1"}},{"base_weights":[-2.2807434E-2,-1.6302706E1,1.3242952E1,-4.086124E1,-1.1346014E1,5.026687E0,2.2476156E1,-3.1932028E1,-6.17559E1,6.9067817E0,-1.3865146E1,2.9919975E0,1.5545177E1,1.6654236E1,2.5937677E1,-6.825457E1,-2.5661417E1,-7.1213E1,-4.198569E1,-5.0733423E0,1.0262779E1,-2.0907236E1,-8.539238E0,-6.860058E-1,7.1658115E0,1.0726809E1,2.2022486E1,1.2353006E1,2.119272E1,1.5496422E1,2.7826067E1,-3.7345204E0,-2.2541196E0,-1.3960668E0,-3.0282148E1,-3.832124E0,-4.2081528E1,-4.9712326E1,-2.9154763E-1,-1.4755262E0,-5.149151E-1,2.0302652E1,7.9548154E0,-2.4693756E1,-7.511014E0,-1.0967732E1,5.208351E0,-2.444484E0,9.652199E0,1.0572063E0,9.237192E0,1.8667812E1,7.214063E0,8.013446E0,2.6525282E1,3.5002246E0,1.4883857E1,1.3512753E1,2.3648617E1,-1.9588979E-1,1.6973442E1,2.007612E1,3.030205E1,-1.1121931E0,4.540763E-1,-1.6341486E0,2.7327498E-2,-2.402475E0,-1.305799E0,-2.7014928E0,-1.3287016E0,1.096889E-1,-9.0178007E-1,1.1239604E0,4.5034942E-1,1.455599E-1,7.6518005E-1,-5.640082E-1,-1.4079099E0,-5.435948E-1,9.0419225E-2,-4.5085415E-1,-9.4553965E-1,6.6581213E-1,8.524545E-2,-6.950554E-2,-8.111009E-1,9.5736295E-1,1.1129656E-1,-4.7099363E-2,7.7740794E-1,5.058555E-1,-3.4440812E-1,1.038133E0,2.6137403E-1,4.3505493E-1,-7.97136E-2,1.0418708E0,1.5621923E-1,1.471774E0,7.756341E-1,-3.020698E-1,3.4845972E-1,5.642964E-1,9.767105E-1,2.745285E-1,7.4103874E-1,1.3927544E0,8.7221235E-1,5.3813845E-1,-4.780521E-1,3.236296E-1,8.8423824E-1,9.536773E-1,1.4298233E0,1.5637608E0,6.9083506E-1],"categories":[],"categories_nodes":[],"categories_segments":[],"categories_sizes":[],"default_left":[0,0,0,0,0,0,0,0,0,0,0,0,0,0,0,0,0,0,0,0,0,0,0,0,0,0,0,0,0,0,0,0,0,0,0,0,0,0,0,0,0,0,0,0,0,0,0,0,0,0,0,0,0,0,0,0,0,0,0,0,0,0,0,0,0,0,0,0,0,0,0,0,0,0,0,0,0,0,0,0,0,0,0,0,0,0,0,0,0,0,0,0,0,0,0,0,0,0,0,0,0,0,0,0,0,0,0,0,0,0,0,0,0,0,0,0,0],"id":7,"left_children":[1,3,5,7,9,11,13,15,17,19,21,23,25,27,29,31,33,35,37,39,41,43,45,47,49,51,53,55,57,59,61,-1,-1,63,65,-1,67,69,-1,-1,71,73,75,77,79,81,83,85,87,89,91,93,95,97,99,101,103,105,107,109,111,113,115,-1,-1,-1,-1,-1,-1,-1,-1,-1,-1,-1,-1,-1,-1,-1,-1,-1,-1,-1,-1,-1,-1,-1,-1,-1,-1,-1,-1,-1,-1,-1,-1,-1,-1,-1,-1,-1,-1,-1,-1,-1,-1,-1,-1,-1,-1,-1,-1,-1,-1,-1,-1,-1,-1],"loss_changes":[1.092352E6,2.7598312E5,2.1131566E5,6.911231E4,8.70462E4,3.154264E4,2.6008375E4,5.9517125E4,1.81375E4,9.299278E3,6.2155625E4,1.900983E4,7.2229766E3,9.342578E3,1.57565625E4,2.4489531E3,2.5858297E4,8.6374375E3,1.0604953E4,5.665956E3,4.0093945E3,3.608297E4,3.1706992E4,1.200389E4,7.329115E3,3.7426953E3,6.158508E3,5.6611914E3,4.1693984E3,2.9700918E3,1.27086875E4,0E0,0E0,8.502526E3,1.4376625E4,0E0,7.908594E1,1.7610234E3,0E0,0E0,2.127725E3,6.0885645E2,5.4409883E3,2.55665E4,4.9997617E3,1.2317734E4,4.039287E3,8.1704863E3,6.726615E3,4.3022383E3,6.2135195E3,1.0739922E3,1.2975059E3,1.5650223E3,1.9790859E3,1.9618805E3,3.0924062E3,5.482168E2,4.1857266E3,1.3344573E3,7.5946484E2,9.1528906E2,7.9744062E3,0E0,0E0,0E0,0E0,0E0,0E0,0E0,0E0,0E0,0E0,0E0,0E0,0E0,0E0,0E0,0E0,0E0,0E0,0E0,0E0,0E0,0E0,0E0,0E0,0E0,0E0,0E0,0E0,0E0,0E0,0E0,0E0,0E0,0E0,0E0,0E0,0E0,0E0,0E0,0E0,0E0,0E0,0E0,0E0,0E0,0E0,0E0,0E0,0E0,0E0,0E0,0E0,0E0,0E0],"parents":[2147483647,0,0,1,1,2,2,3,3,4,4,5,5,6,6,7,7,8,8,9,9,10,10,11,11,12,12,13,13,14,14,15,15,16,16,17,17,18,18,19,19,20,20,21,21,22,22,23,23,24,24,25,25,26,26,27,27,28,28,29,29,30,30,33,33,34,34,36,36,37,37,40,40,41,41,42,42,43,43,44,44,45,45,46,46,47,47,48,48,49,49,50,50,51,51,52,52,53,53,54,54,55,55,56,56,57,57,58,58,59,59,60,60,61,61,62,62],"right_children":[2,4,6,8,10,12,14,16,18,20,22,24,26,28,30,32,34,36,38,40,42,44,46,48,50,52,54,56,58,60,62,-1,-1,64,66,-1,68,70,-1,-1,72,74,76,78,80,82,84,86,88,90,92,94,96,98,100,102,104,106,108,110,112,114,116,-1,-1,-1,-1,-1,-1,-1,-1,-1,-1,-1,-1,-1,-1,-1,-1,-1,-1,-1,-1,-1,-1,-1,-1,-1,-1,-1,-1,-1,-1,-1,-1,-1,-1,-1,-1,-1,-1,-1,-1,-1,-1,-1,-1,-1,-1,-1,-1,-1,-1,-1,-1,-1,-1],"split_conditions":[8.64575E-1,6.834672E-1,8.856298E-1,3.019312E3,3.1761816E-1,1.1229711E3,8.92213E-1,3.9371735E-1,9.4580644E-1,5.584334E-1,8.4513026E-1,8.76086E-1,5.774E1,1.0714734E3,6.455318E-1,1.2933333E-1,2.5499862E-1,1.6460905E-2,4.9198663E2,7.5440955E-1,5.1145846E-1,1.15384616E-1,1.1286475E3,1E0,5.488538E-1,4.486529E3,4.366981E2,5.756058E-1,2.013E3,8.4225315E-1,2.015E3,-3.7345204E0,-2.2541196E0,1.8205614E0,6.8943745E-1,-3.832124E0,8.705036E-1,7.822291E-1,-2.9154763E-1,-1.4755262E0,1.0885539E-1,2.0480188E2,8.3535576E-1,3.963693E3,7.049608E-1,3.1174213E2,4.391708E3,1.3606818E0,4.789019E3,9.4710326E-1,2.0314061E3,5.4017043E-1,6.7847407E-1,4.22426E-1,1.8861587E3,8.404176E1,6.6884226E-1,7.1390486E-1,1.8416387E3,7.444609E-1,1.3333427E1,7.640604E-1,1E0,-1.1121931E0,4.540763E-1,-1.6341486E0,2.7327498E-2,-2.402475E0,-1.305799E0,-2.7014928E0,-1.3287016E0,1.096889E-1,-9.0178007E-1,1.1239604E0,4.5034942E-1,1.455599E-1,7.6518005E-1,-5.640082E-1,-1.4079099E0,-5.435948E-1,9.0419225E-2,-4.5085415E-1,-9.4553965E-1,6.6581213E-1,8.524545E-2,-6.950554E-2,-8.111009E-1,9.5736295E-1,1.1129656E-1,-4.7099363E-2,7.7740794E-1,5.058555E-1,-3.4440812E-1,1.038133E0,2.6137403E-1,4.3505493E-1,-7.97136E-2,1.0418708E0,1.5621923E-1,1.471774E0,7.756341E-1,-3.020698E-1,3.4845972E-1,5.642964E-1,9.767105E-1,2.745285E-1,7.4103874E-1,1.3927544E0,8.7221235E-1,5.3813845E-1,-4.780521E-1,3.236296E-1,8.8423824E-1,9.536773E-1,1.4298233E0,1.5637608E0,6.9083506E-1],"split_indices":[14,17,14,1,20,7,14,15,32,18,14,14,9,7,15,19,20,30,8,14,27,30,7,38,20,23,8,20,34,17,34,0,0,4,30,0,32,18,0,0,19,29,14,23,30,2,23,3,23,32,1,19,20,19,0,28,15,18,0,19,2,30,37,0,0,0,0,0,0,0,0,0,0,0,0,0,0,0,0,0,0,0,0,0,0,0,0,0,0,0,0,0,0,0,0,0,0,0,0,0,0,0,0,0,0,0,0,0,0,0,0,0,0,0,0,0,0],"split_type":[0,0,0,0,0,0,0,0,0,0,0,0,0,0,0,0,0,0,0,0,0,0,0,0,0,0,0,0,0,0,0,0,0,0,0,0,0,0,0,0,0,0,0,0,0,0,0,0,0,0,0,0,0,0,0,0,0,0,0,0,0,0,0,0,0,0,0,0,0,0,0,0,0,0,0,0,0,0,0,0,0,0,0,0,0,0,0,0,0,0,0,0,0,0,0,0,0,0,0,0,0,0,0,0,0,0,0,0,0,0,0,0,0,0,0,0,0],"sum_hessian":[5.056E3,2.27E3,2.786E3,3.8E2,1.89E3,1.475E3,1.311E3,2.68E2,1.12E2,2.29E2,1.661E3,1.237E3,2.38E2,4.91E2,8.2E2,3.8E1,2.3E2,7.4E1,3.8E1,5E1,1.79E2,7.14E2,9.47E2,6.58E2,5.79E2,1.38E2,1E2,2.54E2,2.37E2,1.27E2,6.93E2,2.8E1,1E1,3.7E1,1.93E2,6.1E1,1.3E1,3.1E1,7E0,7E0,4.3E1,3.2E1,1.47E2,5.56E2,1.58E2,8.05E2,1.42E2,5.63E2,9.5E1,1.47E2,4.32E2,4.1E1,9.7E1,2.5E1,7.5E1,5.7E1,1.97E2,5.9E1,1.78E2,1.1E1,1.16E2,1.7E2,5.23E2,1.2E1,2.5E1,1.79E2,1.4E1,8E0,5E0,2.5E1,6E0,3.8E1,5E0,2.6E1,6E0,8.8E1,5.9E1,1.15E2,4.41E2,1.16E2,4.2E1,6.48E2,1.57E2,4.2E1,1E2,5.24E2,3.9E1,4.1E1,5.4E1,1.3E2,1.7E1,4.1E2,2.2E1,3.5E1,6E0,8.3E1,1.4E1,6E0,1.9E1,5.8E1,1.7E1,1.5E1,4.2E1,1.13E2,8.4E1,9E0,5E1,1.04E2,7.4E1,5E0,6E0,8E0,1.08E2,1.55E2,1.5E1,4.93E2,3E1],"tree_param":{"num_deleted":"0","num_feature":"40","num_nodes":"117","size_leaf_vector":"1"}},{"base_weights":[-2.122632E-2,-1.3166257E1,1.4497992E1,-3.800482E1,-9.3109255E0,8.025566E0,2.3253279E1,-3.0741257E1,-5.9776356E1,-1.3266573E1,2.9436386E-1,1.2418989E0,1.0477157E1,1.6335852E1,2.5383976E1,-6.3091526E1,-2.4981464E1,-6.918619E1,-4.024259E1,-2.0137472E1,-7.1905456E0,-5.6545467E0,6.349578E0,-2.2469718E0,7.801086E0,1.161117E1,1.2305026E0,4.885915E0,1.7230131E1,1.42952385E1,2.7525257E1,-6.8141304E1,-1.1559621E0,-1.6474975E0,-2.9020788E1,-3.6378293E0,-1.6389741E0,-2.1760437E0,-9.664804E-1,3.0396792E-1,-2.4297173E1,-9.4514065E0,-9.380769E-2,7.442003E-1,-1.1244305E1,1.6579544E1,-1.2494047E0,-8.485065E-1,-1.5465098E1,5.8922606E0,2.5762045E1,9.300975E0,1.9296722E1,-4.4500937E0,6.789851E0,-4.0396234E-1,1.3122196E1,1.4952582E0,1.6563555E1,4.6070356E0,1.8334623E1,2.3682518E1,3.2025753E1,-3.5726821E0,-2.011135E0,-1.1084071E0,3.7237433E-1,-3.2350355E-1,-1.5917423E0,4.1898724E-1,-7.568247E-1,-1.9947983E0,-1.0633227E0,-9.3136424E-1,-3.9608023E-1,2.2342682E-1,-5.057859E-1,-5.029604E-1,1.719619E-1,-7.585961E-1,-6.045117E-2,1.2498419E0,5.485473E-1,-2.07165E-1,5.104905E-1,5.0111315E-3,-1.0343484E0,-9.051531E-1,-2.4868469E-1,-4.6948513E-1,3.9463958E-1,1.5724803E0,8.60335E-1,3.2787883E-1,6.303536E-1,1.1591626E0,6.641737E-1,-3.358983E-1,3.3269584E-1,1.20888524E-1,5.322066E-1,1.0643662E0,2.1244584E-1,8.992287E-1,5.214093E-1,-2.6975656E-1,3.8937616E-1,5.4747605E-1,1.0662934E0,1.1185466E0,1.5289557E0,1.6712639E0,8.396272E-1],"categories":[],"categories_nodes":[],"categories_segments":[],"categories_sizes":[],"default_left":[0,0,0,0,0,0,0,0,0,0,0,0,0,0,0,0,0,0,0,0,0,0,0,0,0,0,0,0,0,0,0,0,0,0,0,0,0,0,0,0,0,0,0,0,0,0,0,0,0,0,0,0,0,0,0,0,0,0,0,0,0,0,0,0,0,0,0,0,0,0,0,0,0,0,0,0,0,0,0,0,0,0,0,0,0,0,0,0,0,0,0,0,0,0,0,0,0,0,0,0,0,0,0,0,0,0,0,0,0,0,0,0,0],"id":8,"left_children":[1,3,5,7,9,11,13,15,17,19,21,23,25,27,29,31,33,35,37,39,41,43,45,47,49,51,53,55,57,59,61,63,-1,65,67,-1,-1,-1,-1,69,71,73,75,77,79,81,83,85,87,89,91,93,95,97,99,-1,101,-1,103,105,107,109,111,-1,-1,-1,-1,-1,-1,-1,-1,-1,-1,-1,-1,-1,-1,-1,-1,-1,-1,-1,-1,-1,-1,-1,-1,-1,-1,-1,-1,-1,-1,-1,-1,-1,-1,-1,-1,-1,-1,-1,-1,-1,-1,-1,-1,-1,-1,-1,-1,-1,-1],"loss_changes":[9.643932E5,2.536041E5,1.3587316E5,5.4459844E4,8.727875E4,2.2970727E4,1.4619E4,4.8546875E4,1.3390969E4,6.777881E4,2.420662E4,8.438897E3,1.062882E4,2.403996E3,1.8079406E4,6.498672E3,2.1630484E4,5.1542812E3,1.2840742E3,6.488547E4,1.3877805E4,1.2133533E4,2.5907246E4,4.441784E3,4.2365986E3,1.5871164E4,3.5672222E3,2.1349272E3,1.4056641E3,4.9247305E3,1.0500094E4,3.6260938E2,0E0,6.69732E3,1.2232E4,0E0,0E0,0E0,0E0,1.6337025E4,2.912425E4,9.060895E3,9.647118E3,4.6639756E3,7.1157266E3,6.4294688E3,6.409362E3,4.1239443E3,5.465073E2,3.6510393E3,4.276465E1,6.239082E3,4.5531484E3,1.4549197E3,9.3478467E2,0E0,7.7896924E2,0E0,1.6956484E3,1.2826736E3,1.7546504E3,2.5270625E3,5.7705312E3,0E0,0E0,0E0,0E0,0E0,0E0,0E0,0E0,0E0,0E0,0E0,0E0,0E0,0E0,0E0,0E0,0E0,0E0,0E0,0E0,0E0,0E0,0E0,0E0,0E0,0E0,0E0,0E0,0E0,0E0,0E0,0E0,0E0,0E0,0E0,0E0,0E0,0E0,0E0,0E0,0E0,0E0,0E0,0E0,0E0,0E0,0E0,0E0,0E0,0E0],"parents":[2147483647,0,0,1,1,2,2,3,3,4,4,5,5,6,6,7,7,8,8,9,9,10,10,11,11,12,12,13,13,14,14,15,15,16,16,17,17,18,18,19,19,20,20,21,21,22,22,23,23,24,24,25,25,26,26,27,27,28,28,29,29,30,30,31,31,33,33,34,34,39,39,40,40,41,41,42,42,43,43,44,44,45,45,46,46,47,47,48,48,49,49,50,50,51,51,52,52,53,53,54,54,56,56,58,58,59,59,60,60,61,61,62,62],"right_children":[2,4,6,8,10,12,14,16,18,20,22,24,26,28,30,32,34,36,38,40,42,44,46,48,50,52,54,56,58,60,62,64,-1,66,68,-1,-1,-1,-1,70,72,74,76,78,80,82,84,86,88,90,92,94,96,98,100,-1,102,-1,104,106,108,110,112,-1,-1,-1,-1,-1,-1,-1,-1,-1,-1,-1,-1,-1,-1,-1,-1,-1,-1,-1,-1,-1,-1,-1,-1,-1,-1,-1,-1,-1,-1,-1,-1,-1,-1,-1,-1,-1,-1,-1,-1,-1,-1,-1,-1,-1,-1,-1,-1,-1,-1],"split_conditions":[8.6989677E-1,6.8018186E-1,8.8920623E-1,2.1011558E3,1E0,6.49E4,6.5230805E-1,3.9371735E-1,2.470453E2,8.513181E-1,8.417889E-1,4.5021164E2,1.89669E0,8.4225315E-1,9.64E4,1.3108462E-1,2.5666898E-1,4.943163E2,3.4700486E-1,6.0942894E-1,4.5538376E2,3.380249E-1,4.391708E3,9.323499E3,1E0,1.1635206E0,8.447198E-1,9.441624E-1,1.07163925E1,2.3067084E2,5.21E0,7.0457354E-2,-1.1559621E0,1.8205614E0,1.3234602E0,-3.6378293E0,-1.6389741E0,-2.1760437E0,-9.664804E-1,3.2533076E3,8.242819E-1,1.49E4,1.7227321E2,5.346157E-1,5.235602E-1,1.6816546E-1,5.911111E-1,1.4332525E0,3.995E1,7.252204E-1,2.4554014E-1,8.8182586E-1,5.458454E2,2.9650092E-1,1.35E5,-4.0396234E-1,2.7118152E2,1.4952582E0,2.4952017E2,6.96373E-1,7.6709235E-1,9.06702E-1,7.036E1,-3.5726821E0,-2.011135E0,-1.1084071E0,3.7237433E-1,-3.2350355E-1,-1.5917423E0,4.1898724E-1,-7.568247E-1,-1.9947983E0,-1.0633227E0,-9.3136424E-1,-3.9608023E-1,2.2342682E-1,-5.057859E-1,-5.029604E-1,1.719619E-1,-7.585961E-1,-6.045117E-2,1.2498419E0,5.485473E-1,-2.07165E-1,5.104905E-1,5.0111315E-3,-1.0343484E0,-9.051531E-1,-2.4868469E-1,-4.6948513E-1,3.9463958E-1,1.5724803E0,8.60335E-1,3.2787883E-1,6.303536E-1,1.1591626E0,6.641737E-1,-3.358983E-1,3.3269584E-1,1.20888524E-1,5.322066E-1,1.0643662E0,2.1244584E-1,8.992287E-1,5.214093E-1,-2.6975656E-1,3.8937616E-1,5.4747605E-1,1.0662934E0,1.1185466E0,1.5289557E0,1.6712639E0,8.396272E-1],"split_indices":[14,17,14,2,38,33,15,15,26,14,14,8,4,17,33,19,20,8,30,15,8,20,23,23,38,3,17,32,29,26,10,30,0,4,4,0,0,0,0,23,14,33,2,15,30,30,30,3,9,18,19,14,1,30,33,0,22,0,2,15,18,14,9,0,0,0,0,0,0,0,0,0,0,0,0,0,0,0,0,0,0,0,0,0,0,0,0,0,0,0,0,0,0,0,0,0,0,0,0,0,0,0,0,0,0,0,0,0,0,0,0,0,0],"split_type":[0,0,0,0,0,0,0,0,0,0,0,0,0,0,0,0,0,0,0,0,0,0,0,0,0,0,0,0,0,0,0,0,0,0,0,0,0,0,0,0,0,0,0,0,0,0,0,0,0,0,0,0,0,0,0,0,0,0,0,0,0,0,0,0,0,0,0,0,0,0,0,0,0,0,0,0,0,0,0,0,0,0,0,0,0,0,0,0,0,0,0,0,0,0,0,0,0,0,0,0,0,0,0,0,0,0,0,0,0,0,0,0,0],"sum_hessian":[5.051E3,2.651E3,2.4E3,3.55E2,2.296E3,1.381E3,1.019E3,2.68E2,8.7E1,1.626E3,6.7E2,3.67E2,1.014E3,2.42E2,7.77E2,3.9E1,2.29E2,5.7E1,3E1,7.62E2,8.64E2,3.38E2,3.32E2,2.4E2,1.27E2,9.03E2,1.11E2,1.8E1,2.24E2,1.27E2,6.5E2,3.4E1,5E0,3.4E1,1.95E2,5.1E1,6E0,2.5E1,5E0,1.29E2,6.33E2,6.55E2,2.09E2,1.58E2,1.8E2,1.41E2,1.91E2,2.18E2,2.2E1,1.16E2,1.1E1,6.96E2,2.07E2,5.5E1,5.6E1,7E0,1.1E1,9E0,2.15E2,3.8E1,8.9E1,3.54E2,2.96E2,2.9E1,5E0,1E1,2.4E1,2.2E1,1.73E2,8.5E1,4.4E1,1.01E2,5.32E2,9.2E1,5.63E2,1.44E2,6.5E1,3.1E1,1.27E2,1.29E2,5.1E1,5.5E1,8.6E1,1.53E2,3.8E1,2.09E2,9E0,1.7E1,5E0,1.3E1,1.03E2,5E0,6E0,3.82E2,3.14E2,1.24E2,8.3E1,4.6E1,9E0,2.7E1,2.9E1,5E0,6E0,1.73E2,4.2E1,9E0,2.9E1,2.7E1,6.2E1,3.01E2,5.3E1,2.7E2,2.6E1],"tree_param":{"num_deleted":"0","num_feature":"40","num_nodes":"113","size_leaf_vector":"1"}},{"base_weights":[-7.2169565E-2,-1.2716327E1,1.3818997E1,-3.541086E1,-8.723628E0,6.0705867E0,2.0252588E1,-2.868932E1,-5.678475E1,-1.3054689E1,-7.116371E-1,4.4492855E0,1.6572771E1,1.3793638E1,2.2914907E1,-5.383841E1,-2.2335457E1,-6.5343834E1,-3.7558727E1,-1.6404335E1,1.6700706E0,-9.442688E0,2.9171119E0,-5.8365097E0,5.690024E0,1.2225986E1,2.4587143E1,1.4505247E1,1.9938129E0,1.1412111E1,2.5530691E1,-6.0817207E1,-2.884753E1,-7.534476E0,-2.8559786E1,-3.45074E0,-1.782484E0,-2.0693305E0,-7.3557353E-1,-2.2206533E1,-9.640462E0,-3.9633918E0,7.167982E0,-3.34746E1,-6.880094E0,-6.236913E0,5.5318513E0,-1.2476922E1,2.5187078E0,6.3547707E0,-7.1231203E0,1.6805658E1,5.394302E0,3.0836962E1,1.9392698E1,1.2938894E1,1.8771324E1,-3.1832151E0,6.221005E0,6.842534E0,1.9282127E1,1.3795054E1,2.7186245E1,-3.2080944E0,-1.6508296E0,-6.412374E-1,-2.0632188E0,-1.3126326E0,1.0846893E-1,-1.814144E0,-9.6021444E-1,-2.6446736E-1,-1.2368039E0,-1.1082819E0,-4.1552922E-1,-7.649332E-1,-4.1242093E-2,1.5907823E-1,7.366928E-1,-2.0038664E0,-8.455084E-1,-2.1553281E-1,-8.527606E-1,5.0761353E-2,-5.415286E-1,5.2454716E-1,-4.3289077E-2,3.670886E-1,-7.2618765E-1,-6.8932253E-1,2.6545712E-1,1.13327704E-1,4.479284E-1,-2.2776976E-1,-1.088512E0,9.9809504E-1,5.983595E-1,-1.0158699E-1,3.9686868E-1,1.7487423E0,8.7823915E-1,1.1932081E0,7.284785E-1,4.9496356E-1,7.480201E-1,9.993516E-1,3.219551E-1,1.617152E-2,-3.0796623E-1,3.9634666E-1,1.4547996E-1,-8.7288044E-2,4.10132E-1,7.698745E-1,1.2476552E0,-1.8067425E-2,8.123151E-1,8.9037097E-1,1.4457374E0],"categories":[],"categories_nodes":[],"categories_segments":[],"categories_sizes":[],"default_left":[0,0,0,0,0,0,0,0,0,0,0,0,0,0,0,0,0,0,0,0,0,0,0,0,0,0,0,0,0,0,0,0,0,0,0,0,0,0,0,0,0,0,0,0,0,0,0,0,0,0,0,0,0,0,0,0,0,0,0,0,0,0,0,0,0,0,0,0,0,0,0,0,0,0,0,0,0,0,0,0,0,0,0,0,0,0,0,0,0,0,0,0,0,0,0,0,0,0,0,0,0,0,0,0,0,0,0,0,0,0,0,0,0,0,0,0,0,0,0],"id":9,"left_children":[1,3,5,7,9,11,13,15,17,19,21,23,25,27,29,31,33,35,37,39,41,43,45,47,49,51,53,55,57,59,61,63,65,67,69,-1,-1,-1,-1,71,73,75,77,79,81,83,85,87,89,91,93,95,97,99,101,103,105,107,109,111,113,115,117,-1,-1,-1,-1,-1,-1,-1,-1,-1,-1,-1,-1,-1,-1,-1,-1,-1,-1,-1,-1,-1,-1,-1,-1,-1,-1,-1,-1,-1,-1,-1,-1,-1,-1,-1,-1,-1,-1,-1,-1,-1,-1,-1,-1,-1,-1,-1,-1,-1,-1,-1,-1,-1,-1,-1,-1],"loss_changes":[8.8207475E5,2.3791112E5,1.1916834E5,5.4831438E4,7.761555E4,1.8434836E4,2.2158812E4,4.6895453E4,1.28495625E4,7.1644016E4,2.4930219E4,1.206776E4,4.7507305E3,3.1954688E3,2.7510688E4,8.709953E3,2.207936E4,4.4070625E3,2.102293E3,4.6213156E4,8.390925E3,1.3995604E4,1.3342578E4,5.6905986E3,7.216998E3,2.9128857E3,1.0252012E3,2.1760703E3,5.231415E2,6.0895996E3,1.42355625E4,2.158875E3,2.45508E3,1.3316559E4,1.1586281E4,0E0,0E0,0E0,0E0,2.7085344E4,8.943801E3,4.754608E3,4.0851426E3,1.7284355E3,5.416791E3,4.1419136E3,1.3746635E4,2.4188652E3,2.1661245E3,8.506248E3,1.4804385E3,6.3158105E2,7.71525E2,5.3896875E2,2.993037E2,1.4986602E3,1.2955742E3,1.1678988E2,5.0373108E1,1.3109092E3,1.0036543E3,3.3024512E3,1.01521875E4,0E0,0E0,0E0,0E0,0E0,0E0,0E0,0E0,0E0,0E0,0E0,0E0,0E0,0E0,0E0,0E0,0E0,0E0,0E0,0E0,0E0,0E0,0E0,0E0,0E0,0E0,0E0,0E0,0E0,0E0,0E0,0E0,0E0,0E0,0E0,0E0,0E0,0E0,0E0,0E0,0E0,0E0,0E0,0E0,0E0,0E0,0E0,0E0,0E0,0E0,0E0,0E0,0E0,0E0,0E0,0E0],"parents":[2147483647,0,0,1,1,2,2,3,3,4,4,5,5,6,6,7,7,8,8,9,9,10,10,11,11,12,12,13,13,14,14,15,15,16,16,17,17,18,18,19,19,20,20,21,21,22,22,23,23,24,24,25,25,26,26,27,27,28,28,29,29,30,30,31,31,32,32,33,33,34,34,39,39,40,40,41,41,42,42,43,43,44,44,45,45,46,46,47,47,48,48,49,49,50,50,51,51,52,52,53,53,54,54,55,55,56,56,57,57,58,58,59,59,60,60,61,61,62,62],"right_children":[2,4,6,8,10,12,14,16,18,20,22,24,26,28,30,32,34,36,38,40,42,44,46,48,50,52,54,56,58,60,62,64,66,68,70,-1,-1,-1,-1,72,74,76,78,80,82,84,86,88,90,92,94,96,98,100,102,104,106,108,110,112,114,116,118,-1,-1,-1,-1,-1,-1,-1,-1,-1,-1,-1,-1,-1,-1,-1,-1,-1,-1,-1,-1,-1,-1,-1,-1,-1,-1,-1,-1,-1,-1,-1,-1,-1,-1,-1,-1,-1,-1,-1,-1,-1,-1,-1,-1,-1,-1,-1,-1,-1,-1,-1,-1,-1,-1,-1,-1],"split_conditions":[8.6989677E-1,6.8814564E-1,8.856298E-1,2.1011558E3,2.014E3,1.1278938E3,2.014E3,4.2192033E-1,2.470453E2,4.457143E-1,2.04E0,3.04E4,5.852E1,1E0,9.1E4,1.3108462E-1,3.239724E-1,9.490909E-1,3.4700486E-1,8.513181E-1,7.8066915E-1,9.977651E2,7.4673086E-1,9.3612564E-1,1.7351859E3,5.3053164E3,6.996E1,2.7947272E2,5.2706045E-1,2.47015E2,6.4250916E-1,2.18107E-1,1.1840033E3,6.586874E2,9.3670887E-1,-3.45074E0,-1.782484E0,-2.0693305E0,-7.3557353E-1,3.2533076E3,1.54E4,7.416431E-1,1.575E5,4.469215E2,5.250393E2,1.43525E-1,6.610849E-1,8.706715E-1,2.012E3,4.343741E2,1E0,3.0500881E1,1.5892908E2,1.4087485E0,2.605741E1,8.668343E-1,1.1253816E3,1.1182408E0,6.996129E-1,6.682051E-1,4.5484103E2,8.4225315E-1,4.37E0,-3.2080944E0,-1.6508296E0,-6.412374E-1,-2.0632188E0,-1.3126326E0,1.0846893E-1,-1.814144E0,-9.6021444E-1,-2.6446736E-1,-1.2368039E0,-1.1082819E0,-4.1552922E-1,-7.649332E-1,-4.1242093E-2,1.5907823E-1,7.366928E-1,-2.0038664E0,-8.455084E-1,-2.1553281E-1,-8.527606E-1,5.0761353E-2,-5.415286E-1,5.2454716E-1,-4.3289077E-2,3.670886E-1,-7.2618765E-1,-6.8932253E-1,2.6545712E-1,1.13327704E-1,4.479284E-1,-2.2776976E-1,-1.088512E0,9.9809504E-1,5.983595E-1,-1.0158699E-1,3.9686868E-1,1.7487423E0,8.7823915E-1,1.1932081E0,7.284785E-1,4.9496356E-1,7.480201E-1,9.993516E-1,3.219551E-1,1.617152E-2,-3.0796623E-1,3.9634666E-1,1.4547996E-1,-8.7288044E-2,4.10132E-1,7.698745E-1,1.2476552E0,-1.8067425E-2,8.123151E-1,8.9037097E-1,1.4457374E0],"split_indices":[14,17,14,2,34,7,34,15,26,30,9,33,9,39,33,19,20,32,30,14,30,7,17,32,1,23,9,22,19,26,15,30,7,1,32,0,0,0,0,23,33,17,33,8,5,19,15,14,34,8,37,29,21,4,29,17,2,4,15,15,8,17,9,0,0,0,0,0,0,0,0,0,0,0,0,0,0,0,0,0,0,0,0,0,0,0,0,0,0,0,0,0,0,0,0,0,0,0,0,0,0,0,0,0,0,0,0,0,0,0,0,0,0,0,0,0,0,0,0],"split_type":[0,0,0,0,0,0,0,0,0,0,0,0,0,0,0,0,0,0,0,0,0,0,0,0,0,0,0,0,0,0,0,0,0,0,0,0,0,0,0,0,0,0,0,0,0,0,0,0,0,0,0,0,0,0,0,0,0,0,0,0,0,0,0,0,0,0,0,0,0,0,0,0,0,0,0,0,0,0,0,0,0,0,0,0,0,0,0,0,0,0,0,0,0,0,0,0,0,0,0,0,0,0,0,0,0,0,0,0,0,0,0,0,0,0,0,0,0,0,0],"sum_hessian":[5.02E3,2.628E3,2.392E3,3.92E2,2.236E3,1.086E3,1.306E3,3E2,9.2E1,1.451E3,7.85E2,9.42E2,1.44E2,3.83E2,9.23E2,5.9E1,2.41E2,6.2E1,3E1,1.182E3,2.69E2,2.3E2,5.55E2,1.01E2,8.41E2,9.5E1,4.9E1,3.61E2,2.2E1,1.72E2,7.51E2,4.5E1,1.4E1,7.2E1,1.69E2,5.4E1,8E0,2.5E1,5E0,6.35E2,5.47E2,1.33E2,1.36E2,2.1E1,2.09E2,1.23E2,4.32E2,5.6E1,4.5E1,8E2,4.1E1,5.6E1,3.9E1,2E1,2.9E1,2.67E2,9.4E1,1E1,1.2E1,1.1E2,6.2E1,9.4E1,6.57E2,3.9E1,6E0,7E0,7E0,2.4E1,4.8E1,9.1E1,7.8E1,8.3E1,5.52E2,5.1E1,4.96E2,2.8E1,1.05E2,9E1,4.6E1,1.4E1,7E0,1.68E2,4.1E1,4.8E1,7.5E1,2.43E2,1.89E2,5E0,5.1E1,6E0,3.9E1,3.12E2,4.88E2,3.6E1,5E0,3.2E1,2.4E1,1E1,2.9E1,1.4E1,6E0,1.3E1,1.6E1,1.09E2,1.58E2,8.5E1,9E0,5E0,5E0,7E0,5E0,1.5E1,9.5E1,3.9E1,2.3E1,1.4E1,8E1,1.04E2,5.53E2],"tree_param":{"num_deleted":"0","num_feature":"40","num_nodes":"119","size_leaf_vector":"1"}},{"base_weights":[-1.294261E-1,-1.221658E1,1.3076869E1,-3.496597E1,-8.128098E0,7.780358E0,2.1913458E1,-2.7730421E1,-5.2905483E1,-1.2348529E1,-4.2513248E-1,7.562028E-1,1.0356689E1,1.5279745E1,2.3877506E1,-5.843893E1,-2.2032467E1,-6.176342E1,-3.5843662E1,-1.5049433E1,3.40124E0,-2.8203926E1,6.410185E-1,-9.323957E0,2.9465814E0,6.444955E0,1.4638968E1,1.4317719E1,2.5189579E1,8.511081E0,2.5068432E1,-6.2677628E1,-1.0573792E0,-5.2071185E0,-2.5539753E1,-6.7106476E1,-3.662984E1,-4.0285492E1,-1.6093661E-1,-2.0391268E1,-8.901935E0,-3.9521403E0,6.5084143E0,-3.184238E1,-7.3363423E-1,3.8955693E0,-5.806541E0,-1.3844754E1,-7.931343E-1,2.7781675E1,1.8439466E0,7.2435575E0,-8.251208E0,5.4083056E0,1.7153458E1,1.5064865E1,5.784291E0,1.403252E0,7.620196E-1,4.859418E0,1.3103754E1,1.453488E1,2.6771872E1,-3.2713463E0,-1.8325989E0,-9.787286E-1,1.2019391E-1,-1.4154671E0,-9.222348E-2,-1.9470152E0,-3.478019E0,-2.2035987E0,-1.0914276E0,-2.3178596E0,-1.113594E0,-2.0387606E-1,-1.1381894E0,-3.620459E-1,-8.044408E-1,6.778638E-1,-3.3727303E-1,1.6661958E-1,5.9090954E-1,-1.9038986E0,-8.0851746E-1,-7.1908426E-1,2.81768E-1,-5.004157E-1,2.476805E-1,-1.0289816E0,-4.0468732E-1,-7.33159E-1,1.6037522E-1,1.5889205E0,8.578148E-1,-4.811668E-2,3.7729257E-1,3.2208034E-1,9.029178E-1,-1.7631611E-1,-8.674175E-1,5.803882E-2,5.9005E-1,1.0366062E0,6.6917866E-1,9.950813E-2,7.75864E-1,-8.838273E-3,4.9873534E-1,3.3179662E-1,-1.6763154E-1,7.853866E-1,3.2916632E-1,1.5062831E-2,8.3465683E-1,1.2028173E0,1.5744041E0],"categories":[],"categories_nodes":[],"categories_segments":[],"categories_sizes":[],"default_left":[0,0,0,0,0,0,0,0,0,0,0,0,0,0,0,0,0,0,0,0,0,0,0,0,0,0,0,0,0,0,0,0,0,0,0,0,0,0,0,0,0,0,0,0,0,0,0,0,0,0,0,0,0,0,0,0,0,0,0,0,0,0,0,0,0,0,0,0,0,0,0,0,0,0,0,0,0,0,0,0,0,0,0,0,0,0,0,0,0,0,0,0,0,0,0,0,0,0,0,0,0,0,0,0,0,0,0,0,0,0,0,0,0,0,0,0,0],"id":10,"left_children":[1,3,5,7,9,11,13,15,17,19,21,23,25,27,29,31,33,35,37,39,41,43,45,47,49,51,53,55,57,59,61,63,-1,65,67,69,71,73,-1,75,77,79,81,83,-1,85,87,89,91,93,95,97,99,101,103,105,107,-1,-1,109,111,113,115,-1,-1,-1,-1,-1,-1,-1,-1,-1,-1,-1,-1,-1,-1,-1,-1,-1,-1,-1,-1,-1,-1,-1,-1,-1,-1,-1,-1,-1,-1,-1,-1,-1,-1,-1,-1,-1,-1,-1,-1,-1,-1,-1,-1,-1,-1,-1,-1,-1,-1,-1,-1,-1,-1],"loss_changes":[7.973346E5,2.4228712E5,1.115485E5,5.0064375E4,7.1906516E4,2.7028422E4,1.1283031E4,4.858053E4,1.4864156E4,6.0838875E4,2.3237326E4,8.903379E3,1.8214648E4,1.6127812E3,1.23771875E4,5.629453E3,1.4147758E4,7.3450938E3,5.8118203E3,3.988197E4,4.8238506E3,9.605371E2,1.5886456E4,2.7657798E3,9.01289E3,6.7847207E3,1.1999852E4,1.1306211E3,5.862207E1,7.9163916E2,1.10586875E4,3.9251562E2,0E0,4.7491323E3,1.3073016E4,1.3691875E3,6.902715E2,2.9049766E3,0E0,2.5142625E4,6.675957E3,3.1727422E3,2.4564844E3,1.5342012E3,0E0,1.6075738E4,1.1533351E4,1.6538525E3,1.4897473E3,4.9335938E1,5.095625E3,4.601754E3,1.2283127E3,3.054608E3,5.2404062E3,1.00427734E3,4.2641144E2,0E0,0E0,4.5991272E2,2.7012988E2,2.7904727E3,6.26075E3,0E0,0E0,0E0,0E0,0E0,0E0,0E0,0E0,0E0,0E0,0E0,0E0,0E0,0E0,0E0,0E0,0E0,0E0,0E0,0E0,0E0,0E0,0E0,0E0,0E0,0E0,0E0,0E0,0E0,0E0,0E0,0E0,0E0,0E0,0E0,0E0,0E0,0E0,0E0,0E0,0E0,0E0,0E0,0E0,0E0,0E0,0E0,0E0,0E0,0E0,0E0,0E0,0E0,0E0],"parents":[2147483647,0,0,1,1,2,2,3,3,4,4,5,5,6,6,7,7,8,8,9,9,10,10,11,11,12,12,13,13,14,14,15,15,16,16,17,17,18,18,19,19,20,20,21,21,22,22,23,23,24,24,25,25,26,26,27,27,28,28,29,29,30,30,31,31,33,33,34,34,35,35,36,36,37,37,39,39,40,40,41,41,42,42,43,43,45,45,46,46,47,47,48,48,49,49,50,50,51,51,52,52,53,53,54,54,55,55,56,56,59,59,60,60,61,61,62,62],"right_children":[2,4,6,8,10,12,14,16,18,20,22,24,26,28,30,32,34,36,38,40,42,44,46,48,50,52,54,56,58,60,62,64,-1,66,68,70,72,74,-1,76,78,80,82,84,-1,86,88,90,92,94,96,98,100,102,104,106,108,-1,-1,110,112,114,116,-1,-1,-1,-1,-1,-1,-1,-1,-1,-1,-1,-1,-1,-1,-1,-1,-1,-1,-1,-1,-1,-1,-1,-1,-1,-1,-1,-1,-1,-1,-1,-1,-1,-1,-1,-1,-1,-1,-1,-1,-1,-1,-1,-1,-1,-1,-1,-1,-1,-1,-1,-1,-1,-1],"split_conditions":[8.6989677E-1,6.8814564E-1,8.908018E-1,1.7498029E3,2.014E3,6.7E4,2.014E3,3.9371735E-1,9.433962E-1,5.718504E-1,1.0017542E3,1.76E4,2.014E3,7.640604E-1,6.7E4,1.3108462E-1,2.5666898E-1,1E0,4.9198663E2,8.513181E-1,6.2960005E-1,9.977651E2,1E0,9.3473685E-1,3.482176E3,1.9947528E3,1.5630754E3,1.8348169E3,1.8786077E0,1.0435001E0,6.459005E-1,7.0457354E-2,-1.0573792E0,1.8205614E0,6.5591395E-1,1.0816381E2,5.383591E-1,7.822291E-1,-1.6093661E-1,3.3088503E3,1.9993949E3,8.404176E1,8.6206895E-1,4.469215E2,-7.3363423E-1,1.3193545E3,4.6127515E2,8.127629E1,2.014E3,2.1186094E3,4.5124014E2,8.489209E-1,2.0485562E3,2.346524E2,1.8072427E3,9.1E4,8.952547E-1,1.403252E0,7.620196E-1,8.89843E1,1.07097685E-1,8.435193E-1,1.17E0,-3.2713463E0,-1.8325989E0,-9.787286E-1,1.2019391E-1,-1.4154671E0,-9.222348E-2,-1.9470152E0,-3.478019E0,-2.2035987E0,-1.0914276E0,-2.3178596E0,-1.113594E0,-2.0387606E-1,-1.1381894E0,-3.620459E-1,-8.044408E-1,6.778638E-1,-3.3727303E-1,1.6661958E-1,5.9090954E-1,-1.9038986E0,-8.0851746E-1,-7.1908426E-1,2.81768E-1,-5.004157E-1,2.476805E-1,-1.0289816E0,-4.0468732E-1,-7.33159E-1,1.6037522E-1,1.5889205E0,8.578148E-1,-4.811668E-2,3.7729257E-1,3.2208034E-1,9.029178E-1,-1.7631611E-1,-8.674175E-1,5.803882E-2,5.9005E-1,1.0366062E0,6.6917866E-1,9.950813E-2,7.75864E-1,-8.838273E-3,4.9873534E-1,3.3179662E-1,-1.6763154E-1,7.853866E-1,3.2916632E-1,1.5062831E-2,8.3465683E-1,1.2028173E0,1.5744041E0],"split_indices":[14,17,14,2,34,33,34,15,32,30,7,33,34,30,33,19,20,38,8,14,18,7,37,32,23,0,0,0,4,3,15,30,0,4,30,25,15,18,0,23,0,28,30,8,0,0,8,29,34,0,8,30,0,26,0,33,14,0,0,28,27,17,11,0,0,0,0,0,0,0,0,0,0,0,0,0,0,0,0,0,0,0,0,0,0,0,0,0,0,0,0,0,0,0,0,0,0,0,0,0,0,0,0,0,0,0,0,0,0,0,0,0,0,0,0,0,0],"split_type":[0,0,0,0,0,0,0,0,0,0,0,0,0,0,0,0,0,0,0,0,0,0,0,0,0,0,0,0,0,0,0,0,0,0,0,0,0,0,0,0,0,0,0,0,0,0,0,0,0,0,0,0,0,0,0,0,0,0,0,0,0,0,0,0,0,0,0,0,0,0,0,0,0,0,0,0,0,0,0,0,0,0,0,0,0,0,0,0,0,0,0,0,0,0,0,0,0,0,0,0,0,0,0,0,0,0,0,0,0,0,0,0,0,0,0,0,0],"sum_hessian":[4.993E3,2.607E3,2.386E3,3.96E2,2.211E3,1.493E3,8.93E2,2.84E2,1.12E2,1.428E3,7.83E2,4.01E2,1.092E3,2.06E2,6.87E2,4.3E1,2.41E2,7.2E1,4E1,1.219E3,2.09E2,2.8E1,7.55E2,7.1E1,3.3E2,5.72E2,5.2E2,1.9E2,1.6E1,5E1,6.37E2,3.8E1,5E0,4.2E1,1.99E2,5.8E1,1.4E1,3.5E1,5E0,6.51E2,5.68E2,6.2E1,1.47E2,2.1E1,7E0,5.02E2,2.53E2,4.6E1,2.5E1,1.3E1,3.17E2,5.43E2,2.9E1,1.12E2,4.08E2,1.74E2,1.6E1,1.1E1,5E0,2.9E1,2.1E1,9E1,5.47E2,3.3E1,5E0,1.4E1,2.8E1,1.78E2,2.1E1,6E0,5.2E1,8E0,6E0,2.5E1,1E1,8.3E1,5.68E2,4.63E2,1.05E2,8E0,5.4E1,9.3E1,5.4E1,1.4E1,7E0,4.3E1,4.59E2,1.82E2,7.1E1,2E1,2.6E1,5E0,2E1,8E0,5E0,2.13E2,1.04E2,5.07E2,3.6E1,2E1,9E0,6.8E1,4.4E1,2.07E2,2.01E2,6E0,1.68E2,7E0,9E0,2.4E1,5E0,1.4E1,7E0,1.2E1,7.8E1,3.51E2,1.96E2],"tree_param":{"num_deleted":"0","num_feature":"40","num_nodes":"117","size_leaf_vector":"1"}},{"base_weights":[-1.2419191E-1,-9.665865E0,1.3205005E1,-3.215499E1,-6.1054893E0,4.9531465E0,1.6735716E1,-2.5342684E1,-4.9601852E1,-1.1253766E1,1.5924362E0,5.659756E-1,1.0619178E1,1.0503891E1,2.3231388E1,-5.4662586E1,-2.041313E1,-5.776163E1,-3.1721167E1,-1.4420739E1,1.4828508E0,-4.4139185E0,7.607514E0,1.2150654E0,1.870949E-2,3.670665E0,1.4718467E1,8.274993E0,1.4688775E1,1.663506E1,2.484856E1,-5.887687E1,-1.013322E0,-8.83035E0,-2.6047607E1,-3.137288E0,-3.706602E1,-1.6270655E1,-3.941225E1,-1.9035559E1,-8.821383E0,-2.485393E0,8.236884E0,-9.3699465E0,4.799021E0,-1.0913674E0,1.1037353E1,-2.1361996E1,7.1447587E-1,9.5932255E0,1.1053222E0,1.2187066E1,2.1191616E1,2.0731426E1,7.590441E0,1.3260972E1,1.7556635E1,1.7257643E0,1.5187375E1,2.0557352E1,2.9023691E1,-3.0787394E0,-1.7562407E0,-3.0480105E-1,-2.1452448E0,-1.3928761E0,4.4108635E-1,-2.1194522E0,-1.0121151E0,-1.3719152E0,-3.5088518E-1,-2.3025253E0,-1.3690315E0,-1.3820319E-1,-1.0445257E0,-6.136076E-1,-2.814223E-1,-6.0916275E-1,2.9356046E-2,1.79952E-1,7.53107E-1,-1.3919867E0,-4.012311E-1,1.2021675E0,1.6315126E-1,-1.0077804E0,4.7718167E-2,7.02588E-1,-2.6544586E-2,-6.7425233E-1,-1.2839307E0,-2.6077834E-1,1.317158E-1,7.141038E-1,4.8951976E-2,4.084598E-1,-5.9247334E-2,4.421691E-1,9.217747E-1,8.2449764E-1,1.3113744E0,1.1472571E0,5.8805704E-1,2.4462537E-1,5.127969E-1,5.546814E-1,7.9976445E-1,9.6671975E-1,6.0391873E-1,9.250804E-1,5.7210845E-1,7.654788E-1,1.2156467E0,1.219427E0,1.5571938E0],"categories":[],"categories_nodes":[],"categories_segments":[],"categories_sizes":[],"default_left":[0,0,0,0,0,0,0,0,0,0,0,0,0,0,0,0,0,0,0,0,0,0,0,0,0,0,0,0,0,0,0,0,0,0,0,0,0,0,0,0,0,0,0,0,0,0,0,0,0,0,0,0,0,0,0,0,0,0,0,0,0,0,0,0,0,0,0,0,0,0,0,0,0,0,0,0,0,0,0,0,0,0,0,0,0,0,0,0,0,0,0,0,0,0,0,0,0,0,0,0,0,0,0,0,0,0,0,0,0,0,0,0,0,0,0],"id":11,"left_children":[1,3,5,7,9,11,13,15,17,19,21,23,25,27,29,31,33,35,37,39,41,43,45,-1,47,49,51,53,55,57,59,61,-1,63,65,-1,67,69,71,73,75,77,79,81,83,85,87,89,91,93,95,97,99,101,103,105,107,-1,109,111,113,-1,-1,-1,-1,-1,-1,-1,-1,-1,-1,-1,-1,-1,-1,-1,-1,-1,-1,-1,-1,-1,-1,-1,-1,-1,-1,-1,-1,-1,-1,-1,-1,-1,-1,-1,-1,-1,-1,-1,-1,-1,-1,-1,-1,-1,-1,-1,-1,-1,-1,-1,-1,-1,-1],"loss_changes":[6.374408E5,2.3368734E5,6.083825E4,4.616547E4,1.00007055E5,1.560472E4,5.901853E4,4.0654484E4,1.4362906E4,6.1010203E4,3.6595812E4,4.6108325E3,7.75058E3,6.864883E3,7.2245312E3,4.7499297E3,1.6020461E4,5.4104844E3,3.7554922E3,3.112436E4,8.1145703E3,2.3194377E4,1.5108941E4,0E0,5.1921025E3,1.5543164E3,2.5601484E3,4.0294336E3,8.2771875E2,3.2032305E3,9.669406E3,1.44125E2,0E0,7.4716455E3,1.0785203E4,0E0,6.643496E2,1.2541179E3,6.5596094E2,1.99535E4,5.9798516E3,5.698345E3,3.4910918E3,7.9763906E3,5.183085E3,5.6352793E3,1.2665777E4,2.7742676E1,3.8617795E3,1.2381265E3,1.1906865E3,2.469457E3,6.803281E2,2.2658105E2,3.3081738E3,8.714922E2,5.7481055E2,0E0,1.4639883E3,5.2643984E3,2.07075E3,0E0,0E0,0E0,0E0,0E0,0E0,0E0,0E0,0E0,0E0,0E0,0E0,0E0,0E0,0E0,0E0,0E0,0E0,0E0,0E0,0E0,0E0,0E0,0E0,0E0,0E0,0E0,0E0,0E0,0E0,0E0,0E0,0E0,0E0,0E0,0E0,0E0,0E0,0E0,0E0,0E0,0E0,0E0,0E0,0E0,0E0,0E0,0E0,0E0,0E0,0E0,0E0,0E0,0E0],"parents":[2147483647,0,0,1,1,2,2,3,3,4,4,5,5,6,6,7,7,8,8,9,9,10,10,11,11,12,12,13,13,14,14,15,15,16,16,17,17,18,18,19,19,20,20,21,21,22,22,24,24,25,25,26,26,27,27,28,28,29,29,30,30,31,31,33,33,34,34,36,36,37,37,38,38,39,39,40,40,41,41,42,42,43,43,44,44,45,45,46,46,47,47,48,48,49,49,50,50,51,51,52,52,53,53,54,54,55,55,56,56,58,58,59,59,60,60],"right_children":[2,4,6,8,10,12,14,16,18,20,22,24,26,28,30,32,34,36,38,40,42,44,46,-1,48,50,52,54,56,58,60,62,-1,64,66,-1,68,70,72,74,76,78,80,82,84,86,88,90,92,94,96,98,100,102,104,106,108,-1,110,112,114,-1,-1,-1,-1,-1,-1,-1,-1,-1,-1,-1,-1,-1,-1,-1,-1,-1,-1,-1,-1,-1,-1,-1,-1,-1,-1,-1,-1,-1,-1,-1,-1,-1,-1,-1,-1,-1,-1,-1,-1,-1,-1,-1,-1,-1,-1,-1,-1,-1,-1,-1,-1,-1,-1],"split_conditions":[8.41645E-1,6.8814564E-1,1.015E5,1.7498029E3,2.014E3,2.4160196E2,2.015E3,3.9371735E-1,7.33E4,3.6312848E-1,9.504348E-1,2.4554014E-1,2.014E3,8.6646736E-1,6.50822E-1,1.3108462E-1,1.7674532E2,9.4580644E-1,5.8686024E-1,8.1248534E-1,8.32998E-1,1.1097998E3,7.8672E-1,1.2150654E0,1.22393326E2,1.6957001E3,8.0069166E-1,1.1165998E1,6.661062E-1,8.731151E3,6.8E0,7.0457354E-2,-1.013322E0,2.6382875E-1,1.4992052E2,-3.137288E0,4.8923935E2,5.383591E-1,7.7015406E-1,5.9733325E-1,6.23E4,6.25915E-1,1.575E5,9.977651E2,1.3458665E2,4.9E-1,4.4365802E2,4.2720453E2,2.014E3,3.2989874E2,4.3071888E1,1.1359605E0,3.994E1,1.8394762E3,6.5379786E-1,8.749465E-1,8.00326E-1,1.7257643E0,3.2109503E2,1.44E5,6.619717E-1,-3.0787394E0,-1.7562407E0,-3.0480105E-1,-2.1452448E0,-1.3928761E0,4.4108635E-1,-2.1194522E0,-1.0121151E0,-1.3719152E0,-3.5088518E-1,-2.3025253E0,-1.3690315E0,-1.3820319E-1,-1.0445257E0,-6.136076E-1,-2.814223E-1,-6.0916275E-1,2.9356046E-2,1.79952E-1,7.53107E-1,-1.3919867E0,-4.012311E-1,1.2021675E0,1.6315126E-1,-1.0077804E0,4.7718167E-2,7.02588E-1,-2.6544586E-2,-6.7425233E-1,-1.2839307E0,-2.6077834E-1,1.317158E-1,7.141038E-1,4.8951976E-2,4.084598E-1,-5.9247334E-2,4.421691E-1,9.217747E-1,8.2449764E-1,1.3113744E0,1.1472571E0,5.8805704E-1,2.4462537E-1,5.127969E-1,5.546814E-1,7.9976445E-1,9.6671975E-1,6.0391873E-1,9.250804E-1,5.7210845E-1,7.654788E-1,1.2156467E0,1.219427E0,1.5571938E0],"split_indices":[17,17,33,2,34,26,34,15,33,30,32,19,34,17,15,19,5,32,19,17,30,7,17,0,21,0,18,29,15,24,10,30,0,19,25,0,8,15,18,15,33,18,33,7,22,9,5,8,34,5,2,3,9,0,15,17,19,0,5,33,15,0,0,0,0,0,0,0,0,0,0,0,0,0,0,0,0,0,0,0,0,0,0,0,0,0,0,0,0,0,0,0,0,0,0,0,0,0,0,0,0,0,0,0,0,0,0,0,0,0,0,0,0,0,0],"split_type":[0,0,0,0,0,0,0,0,0,0,0,0,0,0,0,0,0,0,0,0,0,0,0,0,0,0,0,0,0,0,0,0,0,0,0,0,0,0,0,0,0,0,0,0,0,0,0,0,0,0,0,0,0,0,0,0,0,0,0,0,0,0,0,0,0,0,0,0,0,0,0,0,0,0,0,0,0,0,0,0,0,0,0,0,0,0,0,0,0,0,0,0,0,0,0,0,0,0,0,0,0,0,0,0,0,0,0,0,0,0,0,0,0,0,0],"sum_hessian":[5.01E3,2.92E3,2.09E3,3.98E2,2.522E3,6.27E2,1.463E3,2.88E2,1.1E2,1.511E3,1.011E3,3.54E2,2.73E2,7.48E2,7.15E2,4E1,2.48E2,7.4E1,3.6E1,1.21E3,3.01E2,5.06E2,5.05E2,7E0,3.47E2,1.02E2,1.71E2,4.9E2,2.58E2,1.43E2,5.72E2,3.5E1,5E0,8.2E1,1.66E2,5.8E1,1.6E1,1.3E1,2.3E1,6.62E2,5.48E2,1.9E2,1.11E2,3.29E2,1.77E2,1.43E2,3.62E2,1E1,3.37E2,3E1,7.2E1,1.25E2,4.6E1,2.4E1,4.66E2,1.76E2,8.2E1,9E0,1.34E2,2.85E2,2.87E2,3E1,5E0,7.7E1,5E0,1.58E2,8E0,1.1E1,5E0,5E0,8E0,1.3E1,1E1,6.8E1,5.94E2,2.62E2,2.86E2,4.5E1,1.45E2,6.7E1,4.4E1,2.1E1,3.08E2,1.2E1,1.65E2,1.3E1,1.3E2,2.87E2,7.5E1,5E0,5E0,8.2E1,2.55E2,1.9E1,1.1E1,1.7E1,5.5E1,8.3E1,4.2E1,2.6E1,2E1,1.8E1,6E0,2.33E2,2.33E2,1.01E2,7.5E1,6E1,2.2E1,6.9E1,6.5E1,1.21E2,1.64E2,9.4E1,1.93E2],"tree_param":{"num_deleted":"0","num_feature":"40","num_nodes":"115","size_leaf_vector":"1"}},{"base_weights":[-1.5507929E-2,-1.0656399E1,1.180622E1,-3.034356E1,-7.255529E0,6.430516E0,1.8949978E1,-2.3727552E1,-4.6908455E1,-1.0531954E1,7.813024E-1,4.8286232E-1,8.738611E0,1.3218761E1,2.1511875E1,-4.5701508E1,-1.7780746E1,-5.4118835E1,-3.1822506E1,-1.4506179E1,-2.9669113E0,-4.505949E0,5.9860764E0,-1.6658691E1,1.6306679E0,5.996801E0,1.3850863E1,1.3687214E1,-3.3223316E-1,1.1725451E1,2.3645586E1,-5.2045807E1,-2.3621841E1,1.5365311E0,-2.1161736E1,-5.988958E1,-3.3158794E1,-3.7278435E1,1.7444281E-1,-1.8319126E1,-6.204929E0,-7.0284057E0,4.7675877E0,5.2474374E-1,-8.983977E0,1.4701093E1,-1.0089964E0,-1.9680742E1,-2.1562068E-1,1.3989629E1,4.5762393E-1,4.7998667E0,1.2972351E1,1.3760297E-1,1.5570224E1,1.5026283E1,1.0066778E1,8.690425E0,1.6946793E1,1.1968482E1,2.5182077E1,-2.8024867E0,-1.6213547E0,-1.5811993E0,-6.333484E-1,1.2636108E0,-2.2261332E-1,-1.1758463E0,2.0252962E-1,-1.8862593E0,-3.0897403E0,-1.9787391E0,-1.009598E0,-2.1519904E0,-9.8616487E-1,3.0047557E-1,-9.9569476E-1,-1.9966428E-1,-9.1561747E-1,-5.5642307E-1,-2.4703685E-2,1.09156184E-1,9.564829E-1,-2.6342678E-1,2.0890668E-1,-5.593812E-1,1.6323915E-1,4.3156886E-1,1.1679162E0,-1.7792353E-1,4.4399983E-1,-1.1996039E0,-5.3768224E-1,2.8270913E-2,1.0672337E0,5.94575E-2,-6.497475E-1,-4.312426E-2,3.19659E-1,7.4404216E-1,1.7824626E-1,-2.2032721E-1,4.283452E-1,-1.12334065E-1,8.3850557E-1,6.650206E-1,9.5349807E-1,2.533855E-1,6.441593E-1,2.528316E-1,5.898182E-1,6.465513E-1,1.1518286E0,3.8567964E-2,7.402317E-1,1.071905E0,1.3608999E0],"categories":[],"categories_nodes":[],"categories_segments":[],"categories_sizes":[],"default_left":[0,0,0,0,0,0,0,0,0,0,0,0,0,0,0,0,0,0,0,0,0,0,0,0,0,0,0,0,0,0,0,0,0,0,0,0,0,0,0,0,0,0,0,0,0,0,0,0,0,0,0,0,0,0,0,0,0,0,0,0,0,0,0,0,0,0,0,0,0,0,0,0,0,0,0,0,0,0,0,0,0,0,0,0,0,0,0,0,0,0,0,0,0,0,0,0,0,0,0,0,0,0,0,0,0,0,0,0,0,0,0,0,0,0,0,0,0],"id":12,"left_children":[1,3,5,7,9,11,13,15,17,19,21,23,25,27,29,31,33,35,37,39,41,43,45,47,49,51,53,55,-1,57,59,61,63,65,67,69,71,73,-1,75,77,79,81,83,85,87,89,91,-1,93,95,97,99,101,103,105,107,109,111,113,115,-1,-1,-1,-1,-1,-1,-1,-1,-1,-1,-1,-1,-1,-1,-1,-1,-1,-1,-1,-1,-1,-1,-1,-1,-1,-1,-1,-1,-1,-1,-1,-1,-1,-1,-1,-1,-1,-1,-1,-1,-1,-1,-1,-1,-1,-1,-1,-1,-1,-1,-1,-1,-1,-1,-1,-1],"loss_changes":[6.317361E5,1.7673784E5,9.123822E4,4.1518844E4,5.9387047E4,1.8651797E4,1.470675E4,3.577636E4,1.0243109E4,4.8121375E4,1.8024367E4,7.523405E3,1.3639414E4,3.049957E3,1.4423281E4,7.0353125E3,1.4531664E4,6.843828E3,7.450996E3,3.312117E4,1.7405242E4,7.3261787E3,2.0132352E4,8.105947E2,5.1837407E3,5.272922E3,8.0379727E3,1.3564688E3,0E0,1.8811289E3,1.0050969E4,1.7172969E3,9.1435645E2,4.945558E3,1.1318047E4,3.3578125E1,6.984199E2,2.488789E3,0E0,2.8015797E4,8.816937E3,9.71968E3,7.047824E3,3.281439E3,4.6791396E3,7.5227812E3,4.6705576E3,4.7326416E2,0E0,3.0487363E3,3.2432705E3,4.940495E3,1.6166719E3,1.531606E3,6.515297E3,1.3166016E3,1.1596211E3,8.771162E2,8.270508E2,2.179795E3,3.2963438E3,0E0,0E0,0E0,0E0,0E0,0E0,0E0,0E0,0E0,0E0,0E0,0E0,0E0,0E0,0E0,0E0,0E0,0E0,0E0,0E0,0E0,0E0,0E0,0E0,0E0,0E0,0E0,0E0,0E0,0E0,0E0,0E0,0E0,0E0,0E0,0E0,0E0,0E0,0E0,0E0,0E0,0E0,0E0,0E0,0E0,0E0,0E0,0E0,0E0,0E0,0E0,0E0,0E0,0E0,0E0,0E0],"parents":[2147483647,0,0,1,1,2,2,3,3,4,4,5,5,6,6,7,7,8,8,9,9,10,10,11,11,12,12,13,13,14,14,15,15,16,16,17,17,18,18,19,19,20,20,21,21,22,22,23,23,24,24,25,25,26,26,27,27,29,29,30,30,31,31,32,32,33,33,34,34,35,35,36,36,37,37,39,39,40,40,41,41,42,42,43,43,44,44,45,45,46,46,47,47,49,49,50,50,51,51,52,52,53,53,54,54,55,55,56,56,57,57,58,58,59,59,60,60],"right_children":[2,4,6,8,10,12,14,16,18,20,22,24,26,28,30,32,34,36,38,40,42,44,46,48,50,52,54,56,-1,58,60,62,64,66,68,70,72,74,-1,76,78,80,82,84,86,88,90,92,-1,94,96,98,100,102,104,106,108,110,112,114,116,-1,-1,-1,-1,-1,-1,-1,-1,-1,-1,-1,-1,-1,-1,-1,-1,-1,-1,-1,-1,-1,-1,-1,-1,-1,-1,-1,-1,-1,-1,-1,-1,-1,-1,-1,-1,-1,-1,-1,-1,-1,-1,-1,-1,-1,-1,-1,-1,-1,-1,-1,-1,-1,-1,-1,-1],"split_conditions":[8.701033E-1,6.8814564E-1,8.8920623E-1,1.7498029E3,1E0,6.7E4,2.015E3,4.2192033E-1,9.4580644E-1,2.014E3,8.417889E-1,9.3E3,2.016E3,1.5436081E2,1.05E5,1.3108462E-1,1.0451618E-1,1E0,4.943163E2,8.57858E-1,4.5816788E2,3.380249E-1,4.391708E3,4.3731836E2,3.9767463E3,5.1209104E-1,1.499293E3,1.2462474E2,-3.3223316E-1,4.784866E1,6.4250916E-1,1.6816546E-1,2.2177434E0,2.217282E3,6.8943745E-1,1.0643981E2,5.383591E-1,1.8585461E2,1.7444281E-1,5.929679E-1,2.013429E3,9.433962E-1,9.75E-1,5.507538E-1,6.9649124E-1,2.015E3,5.911111E-1,6.8E0,-2.1562068E-1,1.76E4,1.5650154E0,8.754756E-1,2.1891437E0,1.4077853E4,6.242289E0,1.1807017E0,8.9409924E-1,1.02760635E2,1.2710626E4,3.0184376E1,6.9E-1,-2.8024867E0,-1.6213547E0,-1.5811993E0,-6.333484E-1,1.2636108E0,-2.2261332E-1,-1.1758463E0,2.0252962E-1,-1.8862593E0,-3.0897403E0,-1.9787391E0,-1.009598E0,-2.1519904E0,-9.8616487E-1,3.0047557E-1,-9.9569476E-1,-1.9966428E-1,-9.1561747E-1,-5.5642307E-1,-2.4703685E-2,1.09156184E-1,9.564829E-1,-2.6342678E-1,2.0890668E-1,-5.593812E-1,1.6323915E-1,4.3156886E-1,1.1679162E0,-1.7792353E-1,4.4399983E-1,-1.1996039E0,-5.3768224E-1,2.8270913E-2,1.0672337E0,5.94575E-2,-6.497475E-1,-4.312426E-2,3.19659E-1,7.4404216E-1,1.7824626E-1,-2.2032721E-1,4.283452E-1,-1.12334065E-1,8.3850557E-1,6.650206E-1,9.5349807E-1,2.533855E-1,6.441593E-1,2.528316E-1,5.898182E-1,6.465513E-1,1.1518286E0,3.8567964E-2,7.402317E-1,1.071905E0,1.3608999E0],"split_indices":[14,17,14,2,38,33,34,15,32,34,14,33,34,29,33,19,19,38,8,14,8,20,23,5,23,30,0,2,0,2,15,30,4,23,30,25,15,5,0,15,0,32,32,15,30,34,30,10,0,33,4,14,4,24,16,4,14,29,24,2,10,0,0,0,0,0,0,0,0,0,0,0,0,0,0,0,0,0,0,0,0,0,0,0,0,0,0,0,0,0,0,0,0,0,0,0,0,0,0,0,0,0,0,0,0,0,0,0,0,0,0,0,0,0,0,0,0],"split_type":[0,0,0,0,0,0,0,0,0,0,0,0,0,0,0,0,0,0,0,0,0,0,0,0,0,0,0,0,0,0,0,0,0,0,0,0,0,0,0,0,0,0,0,0,0,0,0,0,0,0,0,0,0,0,0,0,0,0,0,0,0,0,0,0,0,0,0,0,0,0,0,0,0,0,0,0,0,0,0,0,0,0,0,0,0,0,0,0,0,0,0,0,0,0,0,0,0,0,0,0,0,0,0,0,0,0,0,0,0,0,0,0,0,0,0,0,0],"sum_hessian":[5.02E3,2.642E3,2.378E3,3.88E2,2.254E3,1.358E3,1.02E3,2.79E2,1.09E2,1.601E3,6.53E2,3.8E2,9.78E2,3.17E2,7.03E2,5.8E1,2.21E2,7.2E1,3.7E1,1.049E3,5.52E2,3.24E2,3.29E2,2.3E1,3.57E2,6.38E2,3.4E2,3.1E2,7E0,1.27E2,5.76E2,4.4E1,1.4E1,3.3E1,1.88E2,5.5E1,1.7E1,3.2E1,5E0,7.18E2,3.31E2,3.62E2,1.9E2,1.53E2,1.71E2,1.46E2,1.83E2,1.8E1,5E0,3E1,3.27E2,5.46E2,9.2E1,3.8E1,3.02E2,2.24E2,8.6E1,8.2E1,4.5E1,6.8E1,5.08E2,3.5E1,9E0,7E0,7E0,6E0,2.7E1,1.72E2,1.6E1,6E0,4.9E1,1E1,7E0,2.3E1,9E0,4.4E1,6.74E2,2.81E2,5E1,2.22E2,1.4E2,1.62E2,2.8E1,5.9E1,9.4E1,1.45E2,2.6E1,8.7E1,5.9E1,1.46E2,3.7E1,1.1E1,7E0,1.1E1,1.9E1,3.11E2,1.6E1,1.2E2,4.26E2,7.6E1,1.6E1,2.5E1,1.3E1,1.9E1,2.83E2,1.6E2,6.4E1,3.2E1,5.4E1,3.9E1,4.3E1,2.9E1,1.6E1,1.4E1,5.4E1,1.83E2,3.25E2],"tree_param":{"num_deleted":"0","num_feature":"40","num_nodes":"117","size_leaf_vector":"1"}},{"base_weights":[-8.859219E-2,-1.2308148E1,9.7712965E0,-2.9619331E1,-8.8927965E0,3.6812015E0,1.6640196E1,-3.8452766E1,-1.8289206E1,-1.253357E1,-1.4436862E0,2.335767E0,1.3249044E1,1.2212071E1,1.9524591E1,-3.1412E1,-5.0682632E1,-2.4695145E1,4.3661814E0,-2.015936E1,-8.7193775E0,-5.7418165E0,4.1540437E0,2.9606473E-2,6.171415E0,1.1360129E1,2.367207E1,3.2902849E0,1.3641777E1,1.3054425E1,2.138207E1,-4.509211E1,-2.5728949E1,-5.583921E1,-3.5009403E1,-3.7193596E1,-1.4137321E1,-1.3613595E1,1.35410185E1,-5.6488495E0,-2.360981E1,-1.0058999E1,-2.3692821E-1,2.4782221E0,-1.2757184E1,8.555907E0,3.306849E-1,-1.8955286E1,5.582622E-1,1.0850204E0,7.9627676E0,1.3612276E1,6.00921E0,1.0985946E1,3.0488264E1,-6.1543894E-1,4.8709292E0,9.614662E0,1.6501223E1,6.240085E0,1.4908134E1,1.6440414E1,2.3897827E1,-2.5626295E0,-1.723362E0,-1.4340494E0,-2.100858E-3,-2.9639912E0,-1.7386264E0,-2.0827398E0,-1.2590669E0,-1.332603E0,-2.5508468E0,-9.7182053E-1,1.919198E-1,-6.0732528E-3,-1.1015497E0,1.8009182E0,2.273603E-1,-2.9242119E-2,-8.93125E-1,-1.844055E0,-1.0071826E0,-8.414251E-1,-4.165946E-1,3.0078647E-1,-4.4546252E-1,-2.6894566E-1,3.339953E-1,-4.5529285E-1,-1.0633242E0,4.7732392E-1,-6.340746E-1,-1.5764348E-1,2.882059E-1,-6.0715604E-1,-1.1810082E0,-1.3670255E-1,1.8633237E-1,-2.1095426E-1,2.1073996E-1,-1.7776498E-1,4.47244E-1,1.18790604E-1,7.8313774E-1,9.460366E-2,7.0626146E-1,1.945619E-1,8.1248313E-1,1.7713292E0,7.7651256E-1,8.935403E-2,5.7704633E-1,5.809395E-1,3.287352E-1,5.5388695E-1,9.7275764E-1,-1.00410365E-1,5.9113115E-1,5.926699E-1,8.493425E-1,7.54825E-1,1.0972937E0,5.476853E-1,1.2826812E0],"categories":[],"categories_nodes":[],"categories_segments":[],"categories_sizes":[],"default_left":[0,0,0,0,0,0,0,0,0,0,0,0,0,0,0,0,0,0,0,0,0,0,0,0,0,0,0,0,0,0,0,0,0,0,0,0,0,0,0,0,0,0,0,0,0,0,0,0,0,0,0,0,0,0,0,0,0,0,0,0,0,0,0,0,0,0,0,0,0,0,0,0,0,0,0,0,0,0,0,0,0,0,0,0,0,0,0,0,0,0,0,0,0,0,0,0,0,0,0,0,0,0,0,0,0,0,0,0,0,0,0,0,0,0,0,0,0,0,0,0,0,0,0,0,0],"id":13,"left_children":[1,3,5,7,9,11,13,15,17,19,21,23,25,27,29,31,33,35,37,39,41,43,45,47,49,51,53,55,57,59,61,63,65,67,69,71,73,75,77,79,81,83,85,87,89,91,93,95,97,99,101,103,105,107,109,-1,111,113,115,117,119,121,123,-1,-1,-1,-1,-1,-1,-1,-1,-1,-1,-1,-1,-1,-1,-1,-1,-1,-1,-1,-1,-1,-1,-1,-1,-1,-1,-1,-1,-1,-1,-1,-1,-1,-1,-1,-1,-1,-1,-1,-1,-1,-1,-1,-1,-1,-1,-1,-1,-1,-1,-1,-1,-1,-1,-1,-1,-1,-1,-1,-1,-1,-1],"loss_changes":[6.065135E5,1.3264688E5,1.16483375E5,3.632778E4,5.0941375E4,1.8995209E4,1.648075E4,1.6232219E4,2.3908984E4,3.6531047E4,1.4892791E4,1.1472586E4,3.314336E3,6.5752344E3,9.227219E3,9.257625E3,4.0257969E3,1.6364602E4,6.287918E3,2.0895094E4,9.576859E3,2.0214924E4,4.524416E3,8.1501616E3,4.428676E3,1.798166E3,1.9997773E3,1.8598848E3,4.9886953E3,2.1680645E3,7.2279375E3,7.207344E2,7.3541836E3,1.8527344E3,3.2261523E2,7.0920156E3,6.837704E3,1.4737166E3,4.8901416E3,5.0612534E3,1.4851219E4,8.371305E3,6.343703E3,5.3840684E3,5.678623E3,2.750707E3,2.762684E3,4.122915E2,8.250929E3,2.142669E3,4.104133E3,2.474164E3,1.5771824E3,3.4755847E2,7.055615E2,0E0,1.3575159E3,1.0689922E3,3.949836E3,1.8655984E3,6.876387E2,1.2224531E3,8.9008125E3,0E0,0E0,0E0,0E0,0E0,0E0,0E0,0E0,0E0,0E0,0E0,0E0,0E0,0E0,0E0,0E0,0E0,0E0,0E0,0E0,0E0,0E0,0E0,0E0,0E0,0E0,0E0,0E0,0E0,0E0,0E0,0E0,0E0,0E0,0E0,0E0,0E0,0E0,0E0,0E0,0E0,0E0,0E0,0E0,0E0,0E0,0E0,0E0,0E0,0E0,0E0,0E0,0E0,0E0,0E0,0E0,0E0,0E0,0E0,0E0,0E0,0E0],"parents":[2147483647,0,0,1,1,2,2,3,3,4,4,5,5,6,6,7,7,8,8,9,9,10,10,11,11,12,12,13,13,14,14,15,15,16,16,17,17,18,18,19,19,20,20,21,21,22,22,23,23,24,24,25,25,26,26,27,27,28,28,29,29,30,30,31,31,32,32,33,33,34,34,35,35,36,36,37,37,38,38,39,39,40,40,41,41,42,42,43,43,44,44,45,45,46,46,47,47,48,48,49,49,50,50,51,51,52,52,53,53,54,54,56,56,57,57,58,58,59,59,60,60,61,61,62,62],"right_children":[2,4,6,8,10,12,14,16,18,20,22,24,26,28,30,32,34,36,38,40,42,44,46,48,50,52,54,56,58,60,62,64,66,68,70,72,74,76,78,80,82,84,86,88,90,92,94,96,98,100,102,104,106,108,110,-1,112,114,116,118,120,122,124,-1,-1,-1,-1,-1,-1,-1,-1,-1,-1,-1,-1,-1,-1,-1,-1,-1,-1,-1,-1,-1,-1,-1,-1,-1,-1,-1,-1,-1,-1,-1,-1,-1,-1,-1,-1,-1,-1,-1,-1,-1,-1,-1,-1,-1,-1,-1,-1,-1,-1,-1,-1,-1,-1,-1,-1,-1,-1,-1,-1,-1,-1],"split_conditions":[8.64575E-1,6.834672E-1,8.856298E-1,2.4069183E-1,1.1215262E3,1.13076E3,8.9248955E-1,2.82E0,1E0,8.417889E-1,8.3407545E-1,8.779318E-1,2.021E3,7.4E4,6.5230805E-1,1.3108462E-1,8.49E4,1.1769562E2,1.8205614E0,6.109355E-1,4.6083286E2,6.885761E3,8.843358E3,7.4892616E-1,2.2309322E2,1.910813E3,9.5412844E-1,6.593754E-1,2.014E3,8.5860074E-1,2.016E3,9.2628866E-1,9.765625E-1,7.956556E-1,1.168729E3,2.0931333E3,1.4742453E2,5.8035713E-1,1.642283E2,8.636872E3,8.242819E-1,1.76E4,1.1625525E2,5.6483644E-1,1.199924E3,6.6246E-1,2.017E3,6.601932E1,4.4062598E2,8.116129E-1,6.2569904E-1,8.9162564E-1,1.9842913E3,1.1404268E3,1.28E5,-6.1543894E-1,7.9940915E-1,2.01E3,1.0635276E3,2.8271832E2,2.012E3,9.06702E-1,8.61E4,-2.5626295E0,-1.723362E0,-1.4340494E0,-2.100858E-3,-2.9639912E0,-1.7386264E0,-2.0827398E0,-1.2590669E0,-1.332603E0,-2.5508468E0,-9.7182053E-1,1.919198E-1,-6.0732528E-3,-1.1015497E0,1.8009182E0,2.273603E-1,-2.9242119E-2,-8.93125E-1,-1.844055E0,-1.0071826E0,-8.414251E-1,-4.165946E-1,3.0078647E-1,-4.4546252E-1,-2.6894566E-1,3.339953E-1,-4.5529285E-1,-1.0633242E0,4.7732392E-1,-6.340746E-1,-1.5764348E-1,2.882059E-1,-6.0715604E-1,-1.1810082E0,-1.3670255E-1,1.8633237E-1,-2.1095426E-1,2.1073996E-1,-1.7776498E-1,4.47244E-1,1.18790604E-1,7.8313774E-1,9.460366E-2,7.0626146E-1,1.945619E-1,8.1248313E-1,1.7713292E0,7.7651256E-1,8.935403E-2,5.7704633E-1,5.809395E-1,3.287352E-1,5.5388695E-1,9.7275764E-1,-1.00410365E-1,5.9113115E-1,5.926699E-1,8.493425E-1,7.54825E-1,1.0972937E0,5.476853E-1,1.2826812E0],"split_indices":[14,17,14,27,7,7,14,13,35,14,14,14,34,33,15,19,33,25,4,15,8,24,24,17,26,0,32,15,34,17,34,32,32,14,7,0,25,32,26,24,14,33,2,18,1,15,34,29,8,32,15,32,0,7,33,0,18,34,7,1,34,14,33,0,0,0,0,0,0,0,0,0,0,0,0,0,0,0,0,0,0,0,0,0,0,0,0,0,0,0,0,0,0,0,0,0,0,0,0,0,0,0,0,0,0,0,0,0,0,0,0,0,0,0,0,0,0,0,0,0,0,0,0,0,0],"split_type":[0,0,0,0,0,0,0,0,0,0,0,0,0,0,0,0,0,0,0,0,0,0,0,0,0,0,0,0,0,0,0,0,0,0,0,0,0,0,0,0,0,0,0,0,0,0,0,0,0,0,0,0,0,0,0,0,0,0,0,0,0,0,0,0,0,0,0,0,0,0,0,0,0,0,0,0,0,0,0,0,0,0,0,0,0,0,0,0,0,0,0,0,0,0,0,0,0,0,0,0,0,0,0,0,0,0,0,0,0,0,0,0,0,0,0,0,0,0,0,0,0,0,0,0,0],"sum_hessian":[5.032E3,2.247E3,2.785E3,3.69E2,1.878E3,1.477E3,1.308E3,2.06E2,1.63E2,1.261E3,6.17E2,1.296E3,1.81E2,5.18E2,7.9E2,1.33E2,7.3E1,1.27E2,3.6E1,4.19E2,8.42E2,3.49E2,2.68E2,8.1E2,4.86E2,1.55E2,2.6E1,7.2E1,4.46E2,1.78E2,6.12E2,3.7E1,9.6E1,5.3E1,2E1,5.7E1,7E1,1.2E1,2.4E1,8.1E1,3.38E2,7.27E2,1.15E2,1.61E2,1.88E2,1.24E2,1.44E2,2.1E1,7.89E2,1.27E2,3.59E2,1.08E2,4.7E1,1E1,1.6E1,6E0,6.6E1,1.87E2,2.59E2,3.9E1,1.39E2,2.09E2,4.03E2,2.1E1,1.6E1,8.6E1,1E1,4.4E1,9E0,1E1,1E1,3.4E1,2.3E1,5.4E1,1.6E1,5E0,7E0,6E0,1.8E1,5.8E1,2.3E1,6.8E1,2.7E2,1.46E2,5.81E2,6.7E1,4.8E1,5.6E1,1.05E2,1.33E2,5.5E1,1.19E2,5E0,8.8E1,5.6E1,1E1,1.1E1,3.87E2,4.02E2,4.7E1,8E1,2.8E1,3.31E2,1.7E1,9.1E1,3.2E1,1.5E1,5E0,5E0,1.1E1,5E0,4.6E1,2E1,1.11E2,7.6E1,9.3E1,1.66E2,1.6E1,2.3E1,5.9E1,8E1,1.71E2,3.8E1,4.9E1,3.54E2],"tree_param":{"num_deleted":"0","num_feature":"40","num_nodes":"125","size_leaf_vector":"1"}},{"base_weights":[-1.5263377E-1,-1.103429E1,9.018704E0,-3.3037643E1,-7.9479046E0,1.3995485E0,1.312683E1,-1.1291475E1,-3.9114784E1,-1.2493385E1,-5.259031E-1,-4.429282E0,4.809462E0,7.626256E0,1.890571E1,-4.974594E0,-2.368835E1,-4.413851E1,-2.6456072E1,-1.5000861E1,1.4747319E0,-5.713011E0,4.48965E0,-1.5631331E0,-1.05826645E1,1.1379482E0,1.1288337E1,2.3868613E0,9.410471E0,8.605683E0,2.0110247E1,-8.563983E0,5.8997405E-1,-1.751741E0,-7.005462E-1,-4.9130505E1,-3.3510105E1,-2.9680689E1,5.099718E-1,-3.4092E0,-1.6619276E1,-4.7857337E0,5.8384666E0,-8.0633205E-1,-1.3470795E1,-1.2404734E1,6.4021444E0,-1.5853815E1,-4.1293135E-1,-8.951916E0,-1.3160558E0,-9.921078E0,3.1237547E0,1.683343E1,5.98685E0,1.045712E1,8.999772E-1,8.803649E0,1.9111721E1,1.2698603E0,6.4789257E0,1.5509275E1,2.3323078E1,-1.1420969E0,2.4964623E-2,-1.0186387E0,-2.534165E0,-8.397834E-2,-1.8395398E0,-1.0989684E0,-2.199218E0,3.1773123E-1,-1.0212435E0,-1.115448E0,-6.3202125E-1,-5.403461E-1,1.3532165E-1,1.15252756E-1,5.563311E-1,-5.160319E-1,1.1041997E-1,4.5639205E-1,-7.599788E-1,-4.3747623E-2,-8.6574095E-1,3.9069295E-1,-6.579024E-1,-2.8021565E-1,-1.0933372E0,8.480292E-2,-4.1125828E-1,-1.1364769E0,-3.5287657E-1,-8.0329174E-1,-1.452821E-2,3.0228699E-2,4.1249108E-1,7.2269595E-1,1.2395965E0,5.6751597E-1,1.3875043E-1,1.6770692E-1,6.530015E-1,-6.292709E-2,2.6513967E-1,3.4667215E-1,5.881616E-1,1.0608263E0,6.6350347E-1,-2.3612659E-1,4.127925E-1,3.3612007E-1,9.132964E-1,1.0750577E0,1.4207511E0],"categories":[],"categories_nodes":[],"categories_segments":[],"categories_sizes":[],"default_left":[0,0,0,0,0,0,0,0,0,0,0,0,0,0,0,0,0,0,0,0,0,0,0,0,0,0,0,0,0,0,0,0,0,0,0,0,0,0,0,0,0,0,0,0,0,0,0,0,0,0,0,0,0,0,0,0,0,0,0,0,0,0,0,0,0,0,0,0,0,0,0,0,0,0,0,0,0,0,0,0,0,0,0,0,0,0,0,0,0,0,0,0,0,0,0,0,0,0,0,0,0,0,0,0,0,0,0,0,0,0,0,0,0,0,0],"id":14,"left_children":[1,3,5,7,9,11,13,15,17,19,21,23,25,27,29,31,33,35,37,39,41,43,45,47,49,51,53,55,57,59,61,63,-1,-1,-1,65,67,69,-1,71,73,75,77,79,81,83,85,87,89,91,-1,93,95,97,99,101,103,105,107,-1,109,111,113,-1,-1,-1,-1,-1,-1,-1,-1,-1,-1,-1,-1,-1,-1,-1,-1,-1,-1,-1,-1,-1,-1,-1,-1,-1,-1,-1,-1,-1,-1,-1,-1,-1,-1,-1,-1,-1,-1,-1,-1,-1,-1,-1,-1,-1,-1,-1,-1,-1,-1,-1,-1],"loss_changes":[5.0079288E5,1.5559278E5,8.5212734E4,3.6825938E4,6.793887E4,1.90027E4,5.6087312E4,4.815664E3,1.28229375E4,4.3768E4,1.9954068E4,6.2091465E3,1.4330883E4,8.465711E3,1.0521531E4,2.6900237E3,1.8150273E3,6.6305E3,7.9857227E3,1.9810297E4,5.245872E3,1.4339626E4,1.268048E4,3.9712476E3,2.6389072E3,8.507971E3,6.3078203E3,2.774482E3,3.8171992E3,3.120912E3,1.1035344E4,4.6699863E3,0E0,0E0,0E0,3.6115312E3,5.472793E3,5.642676E3,0E0,2.189387E4,2.0749094E4,3.5930752E3,2.0857832E3,6.677265E3,5.8426816E3,2.2493389E3,9.795123E3,9.867837E2,3.7210327E3,2.5278965E3,0E0,3.4867842E3,4.230637E3,1.6490137E3,1.9151094E3,6.217783E2,1.8788754E3,3.4553242E3,1.9798145E2,0E0,1.6910322E3,7.628367E3,3.5822969E3,0E0,0E0,0E0,0E0,0E0,0E0,0E0,0E0,0E0,0E0,0E0,0E0,0E0,0E0,0E0,0E0,0E0,0E0,0E0,0E0,0E0,0E0,0E0,0E0,0E0,0E0,0E0,0E0,0E0,0E0,0E0,0E0,0E0,0E0,0E0,0E0,0E0,0E0,0E0,0E0,0E0,0E0,0E0,0E0,0E0,0E0,0E0,0E0,0E0,0E0,0E0,0E0],"parents":[2147483647,0,0,1,1,2,2,3,3,4,4,5,5,6,6,7,7,8,8,9,9,10,10,11,11,12,12,13,13,14,14,15,15,16,16,17,17,18,18,19,19,20,20,21,21,22,22,23,23,24,24,25,25,26,26,27,27,28,28,29,29,30,30,31,31,35,35,36,36,37,37,39,39,40,40,41,41,42,42,43,43,44,44,45,45,46,46,47,47,48,48,49,49,51,51,52,52,53,53,54,54,55,55,56,56,57,57,58,58,60,60,61,61,62,62],"right_children":[2,4,6,8,10,12,14,16,18,20,22,24,26,28,30,32,34,36,38,40,42,44,46,48,50,52,54,56,58,60,62,64,-1,-1,-1,66,68,70,-1,72,74,76,78,80,82,84,86,88,90,92,-1,94,96,98,100,102,104,106,108,-1,110,112,114,-1,-1,-1,-1,-1,-1,-1,-1,-1,-1,-1,-1,-1,-1,-1,-1,-1,-1,-1,-1,-1,-1,-1,-1,-1,-1,-1,-1,-1,-1,-1,-1,-1,-1,-1,-1,-1,-1,-1,-1,-1,-1,-1,-1,-1,-1,-1,-1,-1,-1,-1,-1],"split_conditions":[8.278692E-1,6.536664E-1,9.15E4,2.008E3,2.014E3,2.014E3,2.015E3,4.1831416E3,6.18409E-1,5.718504E-1,9.464286E-1,2.011E3,1.0542588E0,8.471901E-1,6.355299E-1,2.1822068E3,2.0589033E3,6.23E4,2.3637898E3,3.2533076E3,6.2960005E-1,1E0,7.2470963E-1,6.9266057E-1,2.0444083E3,2.65E4,1.9036989E3,8.843358E3,8.550633E-1,1.07163925E1,1.43E5,5.57971E-1,5.8997405E-1,-1.751741E0,-7.005462E-1,9.4305626E1,6.0465115E-1,1E0,5.099718E-1,6.324211E-1,7.877041E-1,8.32998E-1,8.6206895E-1,1.8331594E1,8.030049E1,1.3837004E2,5.492913E2,2.083088E2,1E0,1.5023475E3,-1.3160558E0,9.0679246E-1,1.6652669E2,1.2721697E0,8.684602E1,4.9E-1,4.494697E2,8.6646736E-1,1.8440107E3,1.2698603E0,6.1431074E-1,1.6817424E2,1.8658006E2,-1.1420969E0,2.4964623E-2,-1.0186387E0,-2.534165E0,-8.397834E-2,-1.8395398E0,-1.0989684E0,-2.199218E0,3.1773123E-1,-1.0212435E0,-1.115448E0,-6.3202125E-1,-5.403461E-1,1.3532165E-1,1.15252756E-1,5.563311E-1,-5.160319E-1,1.1041997E-1,4.5639205E-1,-7.599788E-1,-4.3747623E-2,-8.6574095E-1,3.9069295E-1,-6.579024E-1,-2.8021565E-1,-1.0933372E0,8.480292E-2,-4.1125828E-1,-1.1364769E0,-3.5287657E-1,-8.0329174E-1,