{"learner":{"attributes":{"best_iteration":"486","best_score":"19.6099888278316"},"feature_names":["gdd_cum_f50_c86","edd_hours_gt86f","edd_hours_gt90f","vpd_kpa_veg","vpd_kpa_silk","prcp_cum_mm","dry_spell_max_days","srad_total_veg","srad_total_silk","vpd_kpa_grain","srad_total_grain","d0_pct","d1_pct","d2_pct","d3_pct","d4_pct","nccpi3corn","nccpi3all","aws0_100","aws0_150","soc0_30","soc0_100","rootznemc","rootznaws","droughty","pctearthmc","pwsl1pomu","irrigated_share","is_irrigated_reported","harvest_ratio","acres_planted_all","year","state_is_CO","state_is_IA","state_is_MO","state_is_NE","state_is_WI"],"feature_types":[],"gradient_booster":{"model":{"cats":{"enc":[],"feature_segments":[],"sorted_idx":[]},"gbtree_model_param":{"num_parallel_tree":"1","num_trees":"537"},"iteration_indptr":[0,1,2,3,4,5,6,7,8,9,10,11,12,13,14,15,16,17,18,19,20,21,22,23,24,25,26,27,28,29,30,31,32,33,34,35,36,37,38,39,40,41,42,43,44,45,46,47,48,49,50,51,52,53,54,55,56,57,58,59,60,61,62,63,64,65,66,67,68,69,70,71,72,73,74,75,76,77,78,79,80,81,82,83,84,85,86,87,88,89,90,91,92,93,94,95,96,97,98,99,100,101,102,103,104,105,106,107,108,109,110,111,112,113,114,115,116,117,118,119,120,121,122,123,124,125,126,127,128,129,130,131,132,133,134,135,136,137,138,139,140,141,142,143,144,145,146,147,148,149,150,151,152,153,154,155,156,157,158,159,160,161,162,163,164,165,166,167,168,169,170,171,172,173,174,175,176,177,178,179,180,181,182,183,184,185,186,187,188,189,190,191,192,193,194,195,196,197,198,199,200,201,202,203,204,205,206,207,208,209,210,211,212,213,214,215,216,217,218,219,220,221,222,223,224,225,226,227,228,229,230,231,232,233,234,235,236,237,238,239,240,241,242,243,244,245,246,247,248,249,250,251,252,253,254,255,256,257,258,259,260,261,262,263,264,265,266,267,268,269,270,271,272,273,274,275,276,277,278,279,280,281,282,283,284,285,286,287,288,289,290,291,292,293,294,295,296,297,298,299,300,301,302,303,304,305,306,307,308,309,310,311,312,313,314,315,316,317,318,319,320,321,322,323,324,325,326,327,328,329,330,331,332,333,334,335,336,337,338,339,340,341,342,343,344,345,346,347,348,349,350,351,352,353,354,355,356,357,358,359,360,361,362,363,364,365,366,367,368,369,370,371,372,373,374,375,376,377,378,379,380,381,382,383,384,385,386,387,388,389,390,391,392,393,394,395,396,397,398,399,400,401,402,403,404,405,406,407,408,409,410,411,412,413,414,415,416,417,418,419,420,421,422,423,424,425,426,427,428,429,430,431,432,433,434,435,436,437,438,439,440,441,442,443,444,445,446,447,448,449,450,451,452,453,454,455,456,457,458,459,460,461,462,463,464,465,466,467,468,469,470,471,472,473,474,475,476,477,478,479,480,481,482,483,484,485,486,487,488,489,490,491,492,493,494,495,496,497,498,499,500,501,502,503,504,505,506,507,508,509,510,511,512,513,514,515,516,517,518,519,520,521,522,523,524,525,526,527,528,529,530,531,532,533,534,535,536,537],"tree_info":[0,0,0,0,0,0,0,0,0,0,0,0,0,0,0,0,0,0,0,0,0,0,0,0,0,0,0,0,0,0,0,0,0,0,0,0,0,0,0,0,0,0,0,0,0,0,0,0,0,0,0,0,0,0,0,0,0,0,0,0,0,0,0,0,0,0,0,0,0,0,0,0,0,0,0,0,0,0,0,0,0,0,0,0,0,0,0,0,0,0,0,0,0,0,0,0,0,0,0,0,0,0,0,0,0,0,0,0,0,0,0,0,0,0,0,0,0,0,0,0,0,0,0,0,0,0,0,0,0,0,0,0,0,0,0,0,0,0,0,0,0,0,0,0,0,0,0,0,0,0,0,0,0,0,0,0,0,0,0,0,0,0,0,0,0,0,0,0,0,0,0,0,0,0,0,0,0,0,0,0,0,0,0,0,0,0,0,0,0,0,0,0,0,0,0,0,0,0,0,0,0,0,0,0,0,0,0,0,0,0,0,0,0,0,0,0,0,0,0,0,0,0,0,0,0,0,0,0,0,0,0,0,0,0,0,0,0,0,0,0,0,0,0,0,0,0,0,0,0,0,0,0,0,0,0,0,0,0,0,0,0,0,0,0,0,0,0,0,0,0,0,0,0,0,0,0,0,0,0,0,0,0,0,0,0,0,0,0,0,0,0,0,0,0,0,0,0,0,0,0,0,0,0,0,0,0,0,0,0,0,0,0,0,0,0,0,0,0,0,0,0,0,0,0,0,0,0,0,0,0,0,0,0,0,0,0,0,0,0,0,0,0,0,0,0,0,0,0,0,0,0,0,0,0,0,0,0,0,0,0,0,0,0,0,0,0,0,0,0,0,0,0,0,0,0,0,0,0,0,0,0,0,0,0,0,0,0,0,0,0,0,0,0,0,0,0,0,0,0,0,0,0,0,0,0,0,0,0,0,0,0,0,0,0,0,0,0,0,0,0,0,0,0,0,0,0,0,0,0,0,0,0,0,0,0,0,0,0,0,0,0,0,0,0,0,0,0,0,0,0,0,0,0,0,0,0,0,0,0,0,0,0,0,0,0,0,0,0,0,0,0,0,0,0,0,0,0,0,0,0,0,0,0,0,0,0,0,0,0,0,0,0,0,0,0,0,0,0,0,0,0,0,0,0,0,0,0,0,0,0,0,0,0,0,0,0,0,0,0,0,0,0,0,0,0,0,0,0,0,0,0,0,0,0,0,0,0],"trees":[{"base_weights":[1.2674399E-1,-1.3363107E1,1.8159487E1,-1.0587637E1,-7.33702E1,2.672162E1,-2.1081038E0,-2.1027248E1,4.7405434E-1,-9.113622E1,-5.0265087E1,1.4550807E1,3.6920708E1,4.155858E0,-2.2389286E1,-2.6808992E1,-9.33179E0,-5.224871E0,1.5157879E1,-1.946336E0,-9.63194E1,-2.888359E-1,-5.6377926E1,7.9416556E0,1.7780647E1,2.9236958E1,3.970794E1,-3.614536E1,6.144591E0,-3.3172035E1,1.5374563E1,9.821931E-1,-2.8774824E1,-1.6323072E1,-1.1644567E0,-1.6441771E0,-2.6988617E1,1.8976166E1,-8.630773E0,-5.0198336E0,-2.4679415E0,-6.592615E1,-3.5740746E1,2.0195386E0,1.4564408E1,1.5735576E1,2.4629784E1,-1.4654236E0,3.0698992E1,4.2095524E1,3.293867E1,-5.33268E1,-1.59518E1,-2.7108848E0,1.434991E1,-2.193351E1,-4.3129803E1,2.914988E-1,2.5918133E1,-1.5911594E-1,8.6221707E-1,-4.67902E0,-1.3845716E0,-2.0042245E0,-6.9326377E-1,5.1447827E-1,-2.1621536E-1,-9.744243E-1,4.6960287E-2,-3.6080685E0,-4.9166295E-1,4.8308054E-1,1.214853E0,-2.2095371E-2,-1.2037039E0,-4.1187587E0,-2.4735143E0,-2.1050909E0,-8.000819E-1,5.754037E-1,-2.2988856E-1,1.0428199E0,7.879335E-2,8.0569744E-1,-4.5424858E-1,6.4365476E-1,1.4723004E0,7.6408476E-1,-8.9841527E-1,1.1469815E0,1.8031952E0,1.8209089E0,2.251293E0,1.0426005E0,2.167903E0,-3.247582E0,-1.787227E0,-1.0336556E0,-3.892484E-1,-8.223177E-1,-4.013078E-3,1.3416384E0,5.553168E-1,-1.6558079E0,-7.4969023E-1,-2.5286514E-1,-2.4390588E0,-5.4258597E-1,5.69914E-1,7.48664E-1,1.5329863E0],"categories":[],"categories_nodes":[],"categories_segments":[],"categories_sizes":[],"default_left":[0,0,0,0,0,0,0,0,0,0,0,0,0,0,0,0,0,0,0,0,0,0,0,0,0,0,0,0,0,0,0,0,0,0,0,0,0,0,0,0,0,0,0,0,0,0,0,0,0,0,0,0,0,0,0,0,0,0,0,0,0,0,0,0,0,0,0,0,0,0,0,0,0,0,0,0,0,0,0,0,0,0,0,0,0,0,0,0,0,0,0,0,0,0,0,0,0,0,0,0,0,0,0,0,0,0,0,0,0,0,0],"id":0,"left_children":[1,3,5,7,9,11,13,15,17,19,21,23,25,27,29,31,33,35,37,-1,39,-1,41,43,45,47,49,51,53,55,57,59,61,63,65,67,69,71,73,-1,-1,75,77,79,81,83,85,87,89,91,93,95,97,99,101,103,105,107,109,-1,-1,-1,-1,-1,-1,-1,-1,-1,-1,-1,-1,-1,-1,-1,-1,-1,-1,-1,-1,-1,-1,-1,-1,-1,-1,-1,-1,-1,-1,-1,-1,-1,-1,-1,-1,-1,-1,-1,-1,-1,-1,-1,-1,-1,-1,-1,-1,-1,-1,-1,-1],"loss_changes":[1.2136186E6,4.7455088E5,3.70551E5,3.1515422E5,4.7140312E4,1.8578362E5,8.076379E4,9.468856E4,1.11041555E5,1.51933125E4,1.5175484E4,1.45025E4,1.6314875E4,3.9174203E4,6.158972E4,5.13285E4,2.6589664E4,7.4456055E4,3.3862414E4,0E0,7.10725E3,0E0,7.496172E3,8.873686E3,6.0556406E3,9.965219E3,8.2460625E3,7.129293E3,3.375407E4,1.21475625E4,5.3994424E3,4.321483E3,5.898275E4,1.4102797E4,7.862182E3,3.7911414E4,1.0390932E5,1.5625016E4,6.5654453E3,0E0,0E0,4.8574062E3,1.5864141E3,7.650329E3,8.711576E3,3.4991406E3,5.5097227E3,3.3147188E3,7.9562656E3,5.6304375E3,1.924561E4,1.3102344E2,3.0175806E2,8.092437E3,9.459852E3,3.9269062E3,1.2878172E4,1.98017E3,5.788447E2,0E0,0E0,0E0,0E0,0E0,0E0,0E0,0E0,0E0,0E0,0E0,0E0,0E0,0E0,0E0,0E0,0E0,0E0,0E0,0E0,0E0,0E0,0E0,0E0,0E0,0E0,0E0,0E0,0E0,0E0,0E0,0E0,0E0,0E0,0E0,0E0,0E0,0E0,0E0,0E0,0E0,0E0,0E0,0E0,0E0,0E0,0E0,0E0,0E0,0E0,0E0,0E0],"parents":[2147483647,0,0,1,1,2,2,3,3,4,4,5,5,6,6,7,7,8,8,9,9,10,10,11,11,12,12,13,13,14,14,15,15,16,16,17,17,18,18,20,20,22,22,23,23,24,24,25,25,26,26,27,27,28,28,29,29,30,30,31,31,32,32,33,33,34,34,35,35,36,36,37,37,38,38,41,41,42,42,43,43,44,44,45,45,46,46,47,47,48,48,49,49,50,50,51,51,52,52,53,53,54,54,55,55,56,56,57,57,58,58],"right_children":[2,4,6,8,10,12,14,16,18,20,22,24,26,28,30,32,34,36,38,-1,40,-1,42,44,46,48,50,52,54,56,58,60,62,64,66,68,70,72,74,-1,-1,76,78,80,82,84,86,88,90,92,94,96,98,100,102,104,106,108,110,-1,-1,-1,-1,-1,-1,-1,-1,-1,-1,-1,-1,-1,-1,-1,-1,-1,-1,-1,-1,-1,-1,-1,-1,-1,-1,-1,-1,-1,-1,-1,-1,-1,-1,-1,-1,-1,-1,-1,-1,-1,-1,-1,-1,-1,-1,-1,-1,-1,-1,-1,-1],"split_conditions":[1.015E5,2.2898362E3,3.0251965E2,2.014E3,9.3235296E-1,2.015E3,1.9442087E0,6.4E4,2.4160196E2,2.6919772E2,3.482176E3,1.365E5,6.537167E-1,5.8637743E0,6.425993E-1,2.6025802E-1,9.652174E-1,1.5653325E0,1.0127718E3,-1.946336E0,2.45362E2,-2.888359E-1,9.694657E-1,7.6175684E-1,2.798895E2,2.2079176E-1,4.352E1,1.4769427E-1,1.47E5,8.7884924E2,8.379447E-1,8.1209165E-1,1.0152106E-1,1.2392794E1,3.0635186E3,9.3E3,2.4069183E-1,6.89E4,9.0229965E1,-5.0198336E0,-2.4679415E0,2.4628003E2,1.4902396E2,7.93E0,3.1290898E3,7.481E1,2.008E3,3.0053352E3,1.42E5,1.43E5,6.719E1,1.6460905E-2,5.235602E-1,3.3088708E-3,1.2237071E1,1.5497437E0,3.1120774E-1,9.2753625E-1,5.199478E-1,-1.5911594E-1,8.6221707E-1,-4.67902E0,-1.3845716E0,-2.0042245E0,-6.9326377E-1,5.1447827E-1,-2.1621536E-1,-9.744243E-1,4.6960287E-2,-3.6080685E0,-4.9166295E-1,4.8308054E-1,1.214853E0,-2.2095371E-2,-1.2037039E0,-4.1187587E0,-2.4735143E0,-2.1050909E0,-8.000819E-1,5.754037E-1,-2.2988856E-1,1.0428199E0,7.879335E-2,8.0569744E-1,-4.5424858E-1,6.4365476E-1,1.4723004E0,7.6408476E-1,-8.9841527E-1,1.1469815E0,1.8031952E0,1.8209089E0,2.251293E0,1.0426005E0,2.167903E0,-3.247582E0,-1.787227E0,-1.0336556E0,-3.892484E-1,-8.223177E-1,-4.013078E-3,1.3416384E0,5.553168E-1,-1.6558079E0,-7.4969023E-1,-2.5286514E-1,-2.4390588E0,-5.4258597E-1,5.69914E-1,7.48664E-1,1.5329863E0],"split_indices":[30,2,2,31,29,31,3,30,23,5,20,30,17,26,27,17,29,4,1,0,19,0,29,17,19,16,11,16,30,10,27,24,16,26,0,30,24,30,25,0,0,23,22,11,0,11,31,20,30,30,11,27,27,24,26,9,17,29,17,0,0,0,0,0,0,0,0,0,0,0,0,0,0,0,0,0,0,0,0,0,0,0,0,0,0,0,0,0,0,0,0,0,0,0,0,0,0,0,0,0,0,0,0,0,0,0,0,0,0,0,0],"split_type":[0,0,0,0,0,0,0,0,0,0,0,0,0,0,0,0,0,0,0,0,0,0,0,0,0,0,0,0,0,0,0,0,0,0,0,0,0,0,0,0,0,0,0,0,0,0,0,0,0,0,0,0,0,0,0,0,0,0,0,0,0,0,0,0,0,0,0,0,0,0,0,0,0,0,0,0,0,0,0,0,0,0,0,0,0,0,0,0,0,0,0,0,0,0,0,0,0,0,0,0,0,0,0,0,0,0,0,0,0,0,0],"sum_hessian":[4.987E3,2.853E3,2.134E3,2.728E3,1.25E2,1.5E3,6.34E2,1.403E3,1.325E3,6.9E1,5.6E1,6.85E2,8.15E2,4.85E2,1.49E2,9.38E2,4.65E2,9.55E2,3.7E2,7E0,6.2E1,7E0,4.9E1,2.26E2,4.59E2,2.2E2,5.95E2,2.2E1,4.63E2,1.16E2,3.3E1,6.2E1,8.76E2,2.5E2,2.15E2,8.21E2,1.34E2,3.19E2,5.1E1,5.6E1,6E0,3.2E1,1.7E1,1.2E2,1.06E2,3.56E2,1.03E2,1E1,2.1E2,4.36E2,1.59E2,1.1E1,1.1E1,2.23E2,2.4E2,5.6E1,6E1,1.4E1,1.9E1,5E1,1.2E1,1.3E1,8.63E2,2.2E1,2.28E2,4.6E1,1.69E2,1.03E2,7.18E2,3.6E1,9.8E1,1.17E2,2.02E2,3.4E1,1.7E1,1.4E1,1.8E1,1.2E1,5E0,4.9E1,7.1E1,7.1E1,3.5E1,3.51E2,5E0,3.1E1,7.2E1,5E0,5E0,8.8E1,1.22E2,1.53E2,2.83E2,7.5E1,8.4E1,5E0,6E0,6E0,5E0,3.5E1,1.88E2,4.8E1,1.92E2,2E1,3.6E1,8E0,5.2E1,7E0,7E0,7E0,1.2E1],"tree_param":{"num_deleted":"0","num_feature":"37","num_nodes":"111","size_leaf_vector":"1"}},{"base_weights":[9.14402E-2,-1.2667728E1,1.7324638E1,-9.860219E0,-6.97847E1,2.520641E1,-1.900779E0,-1.9686287E1,4.7109106E-1,-8.850847E1,-4.8868813E1,1.3939511E1,3.4688187E1,3.7978156E0,-1.9857676E1,-2.4957207E1,-8.746441E0,-5.202189E0,1.4953218E1,-9.533069E1,-4.759019E1,-4.0558353E-1,-5.435063E1,1.5062091E1,-6.997128E0,2.6541746E1,3.7658134E1,-2.9036764E1,5.463886E0,-3.0325066E1,1.674651E1,3.9800327E0,-2.7225515E1,-1.4809607E1,9.4244933E-1,-2.6440244E0,-3.8382935E1,1.9010794E1,-4.8780446E0,-2.4604805E0,-4.9344935E0,-3.024624E0,-1.2302911E0,-3.552616E1,-6.753505E1,-1.6331899E0,1.6143583E1,5.858975E0,-1.3669304E1,-2.4487431E-1,2.7932772E1,3.9972378E1,2.9841042E1,-2.525456E0,-1.1625314E1,-3.1486878E0,1.3116665E1,-2.3106194E1,-4.1361794E1,-7.7040635E-2,2.3391579E1,1.2925402E0,3.7052467E-2,-4.4354043E0,-1.3065833E0,-1.2662947E0,-5.342373E-1,2.478843E-1,-4.3104944E-1,-1.0172849E0,7.118895E-3,-4.237222E0,-1.3261156E-1,4.6001244E-1,1.1843783E0,9.372955E-2,-1.0082601E0,-2.2610984E0,-6.093599E-1,-4.197351E0,-2.4597342E0,-6.48516E-1,3.4688538E-1,7.0642626E-1,1.2334318E0,-2.892296E-1,8.332772E-1,-1.2551643E0,-3.191679E-1,-5.8566946E-1,6.587936E-1,2.1113002E-1,1.4730229E0,1.6877337E0,2.1700528E0,9.2725915E-1,2.0054584E0,2.7340446E-2,-9.2241806E-1,-8.458037E-1,-3.12677E-3,-6.5765935E-1,7.3429817E-1,-2.3478642E0,-9.287476E-1,-2.494E0,-1.2198846E0,7.28228E-1,1.4152645E0],"categories":[],"categories_nodes":[],"categories_segments":[],"categories_sizes":[],"default_left":[0,0,0,0,0,0,0,0,0,0,0,0,0,0,0,0,0,0,0,0,0,0,0,0,0,0,0,0,0,0,0,0,0,0,0,0,0,0,0,0,0,0,0,0,0,0,0,0,0,0,0,0,0,0,0,0,0,0,0,0,0,0,0,0,0,0,0,0,0,0,0,0,0,0,0,0,0,0,0,0,0,0,0,0,0,0,0,0,0,0,0,0,0,0,0,0,0,0,0,0,0,0,0,0,0,0,0,0,0],"id":1,"left_children":[1,3,5,7,9,11,13,15,17,19,21,23,25,27,29,31,33,35,37,39,41,-1,43,45,47,49,51,53,55,57,59,61,63,65,67,69,71,73,75,-1,-1,-1,-1,77,79,81,83,85,87,89,91,93,95,-1,97,99,101,103,105,-1,107,-1,-1,-1,-1,-1,-1,-1,-1,-1,-1,-1,-1,-1,-1,-1,-1,-1,-1,-1,-1,-1,-1,-1,-1,-1,-1,-1,-1,-1,-1,-1,-1,-1,-1,-1,-1,-1,-1,-1,-1,-1,-1,-1,-1,-1,-1,-1,-1],"loss_changes":[1.1040235E6,4.619403E5,3.237167E5,2.7928022E5,4.8543875E4,1.6136419E5,6.3724105E4,8.1086625E4,1.1033806E5,1.5004E4,1.43050625E4,1.6416484E4,1.8888375E4,2.603398E4,5.7980383E4,6.253075E4,2.703682E4,8.180946E4,3.0509203E4,4.2843125E3,2.0701465E3,0E0,1.1995734E4,1.1925156E4,3.1681025E3,8.316016E3,9.661625E3,8.011707E3,2.9766768E4,8.365984E3,4.16774E3,4.9395776E3,5.6998938E4,1.200543E4,6.877845E3,4.4246508E4,1.1407576E5,1.4188922E4,6.7476606E3,0E0,0E0,0E0,0E0,5.33241E3,5.803297E3,4.073929E3,1.0284969E4,1.7321545E3,1.8391333E3,2.0013265E3,7.5545938E3,8.3414375E3,1.5610375E4,0E0,1.1728011E3,9.048939E3,1.0045992E4,7.017254E3,5.285711E3,0E0,6.7208203E2,0E0,0E0,0E0,0E0,0E0,0E0,0E0,0E0,0E0,0E0,0E0,0E0,0E0,0E0,0E0,0E0,0E0,0E0,0E0,0E0,0E0,0E0,0E0,0E0,0E0,0E0,0E0,0E0,0E0,0E0,0E0,0E0,0E0,0E0,0E0,0E0,0E0,0E0,0E0,0E0,0E0,0E0,0E0,0E0,0E0,0E0,0E0,0E0],"parents":[2147483647,0,0,1,1,2,2,3,3,4,4,5,5,6,6,7,7,8,8,9,9,10,10,11,11,12,12,13,13,14,14,15,15,16,16,17,17,18,18,19,19,20,20,22,22,23,23,24,24,25,25,26,26,27,27,28,28,29,29,30,30,31,31,32,32,33,33,34,34,35,35,36,36,37,37,38,38,43,43,44,44,45,45,46,46,47,47,48,48,49,49,50,50,51,51,52,52,54,54,55,55,56,56,57,57,58,58,60,60],"right_children":[2,4,6,8,10,12,14,16,18,20,22,24,26,28,30,32,34,36,38,40,42,-1,44,46,48,50,52,54,56,58,60,62,64,66,68,70,72,74,76,-1,-1,-1,-1,78,80,82,84,86,88,90,92,94,96,-1,98,100,102,104,106,-1,108,-1,-1,-1,-1,-1,-1,-1,-1,-1,-1,-1,-1,-1,-1,-1,-1,-1,-1,-1,-1,-1,-1,-1,-1,-1,-1,-1,-1,-1,-1,-1,-1,-1,-1,-1,-1,-1,-1,-1,-1,-1,-1,-1,-1,-1,-1,-1,-1],"split_conditions":[1.015E5,2.2898362E3,3.0251965E2,2.014E3,9.3235296E-1,2.015E3,1.9049984E0,6.4E4,2.4160196E2,1.686283E2,3.482176E3,3.4961194E3,6.537167E-1,5.8637743E0,6.8943745E-1,2.6025802E-1,9.726444E-1,1E0,2.6554688E2,3.6579475E3,6.403478E-2,-4.0558353E-1,7.666467E2,1.085E5,1.343309E2,2.5403503E3,1.565E1,1.4769427E-1,1.47E5,2.7136467E0,9.2753625E-1,2.2521445E3,1.0152106E-1,8.116129E-1,1.5216024E0,1.02E4,2.4069183E-1,6.16E4,9.0229965E1,-2.4604805E0,-4.9344935E0,-3.024624E0,-1.2302911E0,7.46E4,2.4453894E2,9.478261E-1,7.573625E2,9.42045E-1,1.7651335E2,1.1954741E2,2.2079176E-1,1.43E5,5.177E1,-2.525456E0,1.168729E3,3.3088708E-3,7.5188005E-1,2.32E0,9.717833E-1,-7.7040635E-2,8.6440676E-1,1.2925402E0,3.7052467E-2,-4.4354043E0,-1.3065833E0,-1.2662947E0,-5.342373E-1,2.478843E-1,-4.3104944E-1,-1.0172849E0,7.118895E-3,-4.237222E0,-1.3261156E-1,4.6001244E-1,1.1843783E0,9.372955E-2,-1.0082601E0,-2.2610984E0,-6.093599E-1,-4.197351E0,-2.4597342E0,-6.48516E-1,3.4688538E-1,7.0642626E-1,1.2334318E0,-2.892296E-1,8.332772E-1,-1.2551643E0,-3.191679E-1,-5.8566946E-1,6.587936E-1,2.1113002E-1,1.4730229E0,1.6877337E0,2.1700528E0,9.2725915E-1,2.0054584E0,2.7340446E-2,-9.2241806E-1,-8.458037E-1,-3.12677E-3,-6.5765935E-1,7.3429817E-1,-2.3478642E0,-9.287476E-1,-2.494E0,-1.2198846E0,7.28228E-1,1.4152645E0],"split_indices":[30,2,2,31,29,31,3,30,23,18,20,0,17,26,27,17,29,32,2,0,24,0,8,30,2,0,13,16,30,4,29,20,16,29,4,30,24,30,25,0,0,0,0,30,19,29,8,9,18,22,16,30,12,0,7,24,9,14,29,0,27,0,0,0,0,0,0,0,0,0,0,0,0,0,0,0,0,0,0,0,0,0,0,0,0,0,0,0,0,0,0,0,0,0,0,0,0,0,0,0,0,0,0,0,0,0,0,0,0],"split_type":[0,0,0,0,0,0,0,0,0,0,0,0,0,0,0,0,0,0,0,0,0,0,0,0,0,0,0,0,0,0,0,0,0,0,0,0,0,0,0,0,0,0,0,0,0,0,0,0,0,0,0,0,0,0,0,0,0,0,0,0,0,0,0,0,0,0,0,0,0,0,0,0,0,0,0,0,0,0,0,0,0,0,0,0,0,0,0,0,0,0,0,0,0,0,0,0,0,0,0,0,0,0,0,0,0,0,0,0,0],"sum_hessian":[5.019E3,2.884E3,2.135E3,2.75E3,1.34E2,1.514E3,6.21E2,1.409E3,1.341E3,6.9E1,6.5E1,6.93E2,8.21E2,4.72E2,1.49E2,9.5E2,4.59E2,9.64E2,3.77E2,5.8E1,1.1E1,8E0,5.7E1,6.58E2,3.5E1,2.22E2,5.99E2,2.2E1,4.5E2,1.16E2,3.3E1,6.9E1,8.81E2,2.82E2,1.77E2,8.96E2,6.8E1,3.13E2,6.4E1,5E0,5.3E1,6E0,5E0,2.5E1,3.2E1,4E1,6.18E2,1.2E1,2.3E1,1.1E1,2.11E2,4.59E2,1.4E2,9E0,1.3E1,2.12E2,2.38E2,7.2E1,4.4E1,9E0,2.4E1,8E0,6.1E1,1.4E1,8.67E2,7.8E1,2.04E2,1.25E2,5.2E1,1.21E2,7.75E2,2.9E1,3.9E1,1.02E2,2.11E2,4.5E1,1.9E1,1.7E1,8E0,1.5E1,1.7E1,1.7E1,2.3E1,5.02E2,1.16E2,6E0,6E0,8E0,1.5E1,6E0,5E0,1.3E1,1.98E2,1.67E2,2.92E2,6.8E1,7.2E1,5E0,8E0,3.8E1,1.74E2,1.3E1,2.25E2,1E1,6.2E1,2.8E1,1.6E1,1E1,1.4E1],"tree_param":{"num_deleted":"0","num_feature":"37","num_nodes":"109","size_leaf_vector":"1"}},{"base_weights":[2.8792475E-3,-1.1688705E1,1.679007E1,-9.395559E0,-7.001863E1,2.4566751E1,-1.9298189E0,-1.87963E1,7.1570116E-1,-7.859012E1,-3.1381176E1,1.3944803E1,3.3544144E1,4.2810354E0,-2.0714127E1,-2.40034E1,-8.885391E0,-6.2120967E0,1.1131289E1,-8.5118744E1,-3.2870747E1,-6.277729E-1,-3.6179596E1,1.6246155E1,5.349991E0,2.7824873E1,3.6612347E1,-3.2106185E0,1.0281099E1,-3.1009258E1,1.562527E1,4.1660037E0,-2.6134018E1,-2.3179785E1,-4.8148346E0,-3.784921E1,-3.553736E0,3.4775128E0,1.8340054E1,-8.906928E1,-1.9462054E0,-7.37385E-1,-2.1177094E0,-4.2868378E1,-1.0250071E0,1.7587944E1,3.3516119E0,-2.8804147E0,1.5554403E1,1.6459915E1,3.0467564E1,2.2552812E-1,3.7113945E1,-1.3874095E1,-2.7643475E-1,-2.5188358E1,1.29316025E1,-3.9512867E1,-2.088896E1,-2.4800654E-1,2.2150013E1,1.235094E0,5.3391274E-2,-1.2233946E0,-2.7616355E0,-1.878032E0,-7.392669E-1,7.761705E-2,-5.393867E-1,-3.5519905E0,-1.2166308E0,-4.7251874E-1,2.0128457E-1,4.129621E-1,-4.3556595E-1,3.0811557E-1,1.0794472E0,-2.4053335E0,-4.5704093E0,-2.5713942E0,-1.3582071E0,7.615111E-1,1.1320981E0,4.6986395E-1,-2.2084539E-1,6.203111E-2,-9.112736E-1,4.8567834E-1,1.3131784E0,3.1762058E-1,1.3744673E0,1.1673709E0,1.7067604E0,1.9454697E0,1.5249249E0,1.6356233E-1,-9.188181E-1,8.314818E-2,-9.632055E-1,-1.81225E0,-8.319812E-1,-5.756969E-1,7.200859E-1,-1.680805E-1,-2.2737913E0,-7.6866543E-1,-1.3801304E0,6.759491E-1,1.3789086E0],"categories":[],"categories_nodes":[],"categories_segments":[],"categories_sizes":[],"default_left":[0,0,0,0,0,0,0,0,0,0,0,0,0,0,0,0,0,0,0,0,0,0,0,0,0,0,0,0,0,0,0,0,0,0,0,0,0,0,0,0,0,0,0,0,0,0,0,0,0,0,0,0,0,0,0,0,0,0,0,0,0,0,0,0,0,0,0,0,0,0,0,0,0,0,0,0,0,0,0,0,0,0,0,0,0,0,0,0,0,0,0,0,0,0,0,0,0,0,0,0,0,0,0,0,0,0,0,0,0],"id":2,"left_children":[1,3,5,7,9,11,13,15,17,19,21,23,25,27,29,31,33,35,37,39,41,-1,43,45,47,49,51,53,55,57,59,61,63,65,67,69,71,73,75,77,-1,-1,-1,79,-1,81,83,85,87,89,91,-1,93,95,97,99,101,103,105,-1,107,-1,-1,-1,-1,-1,-1,-1,-1,-1,-1,-1,-1,-1,-1,-1,-1,-1,-1,-1,-1,-1,-1,-1,-1,-1,-1,-1,-1,-1,-1,-1,-1,-1,-1,-1,-1,-1,-1,-1,-1,-1,-1,-1,-1,-1,-1,-1,-1],"loss_changes":[9.872323E5,3.9593778E5,3.0066725E5,2.7129575E5,3.4625938E4,1.3865875E5,7.09053E4,7.6113625E4,9.935728E4,2.4364188E4,1.5330898E3,1.3165469E4,1.2844125E4,2.0575344E4,5.6976473E4,5.82665E4,2.9621508E4,6.9418555E4,3.0282078E4,1.09500625E4,1.609669E3,0E0,9.040918E2,9.076375E3,1.2054867E4,7.908047E3,8.06075E3,6.379038E3,2.4204744E4,9.329594E3,4.6765586E3,4.363664E3,4.2331E4,1.3085934E4,1.5190915E4,2.6983344E4,3.4183605E4,1.569198E4,1.1063609E4,2.50075E3,0E0,0E0,0E0,8.163086E1,0E0,5.351E3,2.4367668E3,5.0816143E3,3.7481172E3,5.9567744E3,5.1048438E3,0E0,4.787875E3,3.4566006E3,5.9608066E3,1.0982627E3,8.683078E3,1.34279375E4,1.6493418E3,0E0,8.4528613E2,0E0,0E0,0E0,0E0,0E0,0E0,0E0,0E0,0E0,0E0,0E0,0E0,0E0,0E0,0E0,0E0,0E0,0E0,0E0,0E0,0E0,0E0,0E0,0E0,0E0,0E0,0E0,0E0,0E0,0E0,0E0,0E0,0E0,0E0,0E0,0E0,0E0,0E0,0E0,0E0,0E0,0E0,0E0,0E0,0E0,0E0,0E0,0E0],"parents":[2147483647,0,0,1,1,2,2,3,3,4,4,5,5,6,6,7,7,8,8,9,9,10,10,11,11,12,12,13,13,14,14,15,15,16,16,17,17,18,18,19,19,20,20,22,22,23,23,24,24,25,25,26,26,27,27,28,28,29,29,30,30,31,31,32,32,33,33,34,34,35,35,36,36,37,37,38,38,39,39,43,43,45,45,46,46,47,47,48,48,49,49,50,50,52,52,53,53,54,54,55,55,56,56,57,57,58,58,60,60],"right_children":[2,4,6,8,10,12,14,16,18,20,22,24,26,28,30,32,34,36,38,40,42,-1,44,46,48,50,52,54,56,58,60,62,64,66,68,70,72,74,76,78,-1,-1,-1,80,-1,82,84,86,88,90,92,-1,94,96,98,100,102,104,106,-1,108,-1,-1,-1,-1,-1,-1,-1,-1,-1,-1,-1,-1,-1,-1,-1,-1,-1,-1,-1,-1,-1,-1,-1,-1,-1,-1,-1,-1,-1,-1,-1,-1,-1,-1,-1,-1,-1,-1,-1,-1,-1,-1,-1,-1,-1,-1,-1,-1],"split_conditions":[1.05E5,4.047893E3,3.0251965E2,2.014E3,7.05E4,2.015E3,1.9049984E0,6.4E4,1.4593135E2,9.673913E-1,2.1808734E0,3.24621E3,1.42E5,1.47E5,6.8943745E-1,2.6025802E-1,8.347826E-1,1.2392794E1,9.649123E-1,7.114148E-1,1.6015889E2,-6.277729E-1,7.9006885E2,1E0,7.4111066E2,3.3924875E-3,2.2079176E-1,6.9316956E-3,3.4883595E0,1E0,9.2753625E-1,2.2521445E3,1.824845E0,5.0610596E2,9.0337756E2,2.8166113E3,1.5512053E2,1.3906703E0,1.0009226E0,4.181988E3,-1.9462054E0,-7.37385E-1,-2.1177094E0,4.8551483E1,-1.0250071E0,1.8387228E2,1.035786E3,1.2752929E0,7.5922906E2,1.8252167E2,6.299347E-1,2.2552812E-1,1.748E1,1.0623892E3,1.1840033E3,9.441624E-1,7.5188005E-1,3.1120774E-1,2.6230545E0,-2.4800654E-1,8.6440676E-1,1.235094E0,5.3391274E-2,-1.2233946E0,-2.7616355E0,-1.878032E0,-7.392669E-1,7.761705E-2,-5.393867E-1,-3.5519905E0,-1.2166308E0,-4.7251874E-1,2.0128457E-1,4.129621E-1,-4.3556595E-1,3.0811557E-1,1.0794472E0,-2.4053335E0,-4.5704093E0,-2.5713942E0,-1.3582071E0,7.615111E-1,1.1320981E0,4.6986395E-1,-2.2084539E-1,6.203111E-2,-9.112736E-1,4.8567834E-1,1.3131784E0,3.1762058E-1,1.3744673E0,1.1673709E0,1.7067604E0,1.9454697E0,1.5249249E0,1.6356233E-1,-9.188181E-1,8.314818E-2,-9.632055E-1,-1.81225E0,-8.319812E-1,-5.756969E-1,7.200859E-1,-1.680805E-1,-2.2737913E0,-7.6866543E-1,-1.3801304E0,6.759491E-1,1.3789086E0],"split_indices":[30,1,2,31,30,31,3,30,22,29,3,0,30,30,27,17,29,26,29,17,18,0,8,36,8,24,16,24,26,33,29,20,3,5,1,20,18,4,3,1,0,0,0,26,0,18,7,4,8,18,16,0,13,7,7,29,9,17,4,0,27,0,0,0,0,0,0,0,0,0,0,0,0,0,0,0,0,0,0,0,0,0,0,0,0,0,0,0,0,0,0,0,0,0,0,0,0,0,0,0,0,0,0,0,0,0,0,0,0],"split_type":[0,0,0,0,0,0,0,0,0,0,0,0,0,0,0,0,0,0,0,0,0,0,0,0,0,0,0,0,0,0,0,0,0,0,0,0,0,0,0,0,0,0,0,0,0,0,0,0,0,0,0,0,0,0,0,0,0,0,0,0,0,0,0,0,0,0,0,0,0,0,0,0,0,0,0,0,0,0,0,0,0,0,0,0,0,0,0,0,0,0,0,0,0,0,0,0,0,0,0,0,0,0,0,0,0,0,0,0,0],"sum_hessian":[5.028E3,2.964E3,2.064E3,2.853E3,1.11E2,1.458E3,6.06E2,1.478E3,1.375E3,9E1,2.1E1,6.69E2,7.89E2,4.56E2,1.5E2,9.68E2,5.1E2,8.26E2,5.49E2,7.8E1,1.2E1,5E0,1.6E1,5.27E2,1.42E2,2.79E2,5.1E2,2.03E2,2.53E2,1.17E2,3.3E1,6.8E1,9E2,1.12E2,3.98E2,6.3E1,7.63E2,2.67E2,2.82E2,7.1E1,7E0,5E0,7E0,1E1,6E0,4.77E2,5E1,7.9E1,6.3E1,5.4E1,2.25E2,8E0,5.02E2,4.3E1,1.6E2,1.7E1,2.36E2,6.2E1,5.5E1,8E0,2.5E1,8E0,6E1,8.53E2,4.7E1,4E1,7.2E1,1.93E2,2.05E2,1.7E1,4.6E1,4.29E2,3.34E2,1.92E2,7.5E1,6E1,2.22E2,5E0,6.6E1,5E0,5E0,3.28E2,1.49E2,2.8E1,2.2E1,6.3E1,1.6E1,4.2E1,2.1E1,2.9E1,2.5E1,7.9E1,1.46E2,3.91E2,1.11E2,9E0,3.4E1,1.46E2,1.4E1,6E0,1.1E1,1.3E1,2.23E2,9E0,5.3E1,3.2E1,2.3E1,1.1E1,1.4E1],"tree_param":{"num_deleted":"0","num_feature":"37","num_nodes":"109","size_leaf_vector":"1"}},{"base_weights":[-3.006978E-1,-1.1890616E1,1.5426289E1,-6.992696E0,-4.1284924E1,2.2560375E1,-1.8115183E0,-1.5829534E1,1.5280801E0,-3.1754608E1,-7.242404E1,1.21848955E1,3.1367765E1,3.8138645E0,-1.8184124E1,-2.0689434E1,-5.6893096E0,-5.690515E0,9.784053E0,-4.397165E1,-1.7060759E1,-8.50671E1,-4.7958515E1,1.0046835E1,2.2431435E1,2.5806469E1,3.4695324E1,-2.7549988E1,5.429979E0,-2.8281157E1,1.6146042E1,6.597845E0,-2.242545E1,-2.1743E1,-2.054715E0,5.0593704E-1,-1.8168667E1,1.187349E1,-1.6413824E1,-7.9829506E1,-3.3286995E1,-5.9590163E0,-4.845626E1,-2.0987246E0,-4.405538E0,-5.549951E1,-4.933014E-1,1.2616878E1,3.794871E-1,1.2774973E1,2.6465864E1,1.6249031E1,2.890851E1,3.870743E-2,3.5306805E1,-4.521396E1,-1.048432E1,-2.4724457E0,1.292733E1,-2.8503177E0,-2.4980417E1,5.606759E0,1.3479677E0,-2.4991906E-1,8.330619E-1,-6.711558E-1,-1.3309644E0,-7.049514E-1,-1.9411128E0,-4.2689204E-2,-1.6603884E0,-1.0889367E0,2.0855044E-1,-2.2974832E0,-7.97748E-1,-8.546534E-3,7.5400776E-1,-1.5611896E-1,-2.3934312E0,-3.3433454E0,-4.8055935E0,-2.1194456E0,-8.7322265E-1,3.117309E-1,-7.154543E-1,-4.6292955E-1,-2.7057369E0,-2.9982586E0,-1.8140754E0,7.376335E-1,-3.309956E-2,-2.4969403E-1,5.366688E-1,8.285169E-1,2.246751E-1,6.526606E-1,1.473703E0,-6.9583133E-3,9.9180615E-1,9.191637E-1,1.5311515E0,1.6823822E0,2.1085184E0,-1.3705451E0,-2.7740679E0,1.5827179E-3,-8.53038E-1,-6.161251E-1,2.7523026E-2,1.2804239E0,4.834539E-1,-9.097185E-1,-1.9791883E0,-4.3885764E-1,5.49327E-1],"categories":[],"categories_nodes":[],"categories_segments":[],"categories_sizes":[],"default_left":[0,0,0,0,0,0,0,0,0,0,0,0,0,0,0,0,0,0,0,0,0,0,0,0,0,0,0,0,0,0,0,0,0,0,0,0,0,0,0,0,0,0,0,0,0,0,0,0,0,0,0,0,0,0,0,0,0,0,0,0,0,0,0,0,0,0,0,0,0,0,0,0,0,0,0,0,0,0,0,0,0,0,0,0,0,0,0,0,0,0,0,0,0,0,0,0,0,0,0,0,0,0,0,0,0,0,0,0,0,0,0,0,0,0,0],"id":3,"left_children":[1,3,5,7,9,11,13,15,17,19,21,23,25,27,29,31,33,35,37,39,41,43,45,47,49,51,53,55,57,59,61,63,65,67,69,71,73,75,77,79,81,83,85,-1,-1,87,-1,89,91,93,95,97,99,-1,101,103,105,107,109,-1,111,113,-1,-1,-1,-1,-1,-1,-1,-1,-1,-1,-1,-1,-1,-1,-1,-1,-1,-1,-1,-1,-1,-1,-1,-1,-1,-1,-1,-1,-1,-1,-1,-1,-1,-1,-1,-1,-1,-1,-1,-1,-1,-1,-1,-1,-1,-1,-1,-1,-1,-1,-1,-1,-1],"loss_changes":[9.1593044E5,4.1621934E5,2.6222572E5,1.8683531E5,1.202645E5,1.3742019E5,5.7633207E4,5.9905906E4,7.538568E4,5.6335656E4,2.5614938E4,1.4978594E4,1.41866875E4,2.3770002E4,5.5917875E4,3.9134375E4,2.3061395E4,5.220037E4,3.24908E4,6.3624E4,5.059878E4,4.4335E3,9.506375E3,1.4306219E4,4.2979414E3,8.691359E3,1.04889375E4,6.459254E3,2.6337746E4,1.0332945E4,4.0655342E3,5.9181475E3,2.8864531E4,8.983035E3,1.209335E4,3.70079E4,1.3042648E4,2.1129047E4,1.8246043E4,1.8047188E3,1.8701766E4,1.118734E4,7.9273438E3,0E0,0E0,3.131875E2,0E0,1.2913977E4,6.8411016E3,1.0884956E3,2.9641445E3,4.5880664E3,3.6236406E3,0E0,4.252125E3,4.899082E2,8.9958997E2,6.4681313E3,9.172973E3,0E0,1.0477992E4,1.6440764E3,0E0,0E0,0E0,0E0,0E0,0E0,0E0,0E0,0E0,0E0,0E0,0E0,0E0,0E0,0E0,0E0,0E0,0E0,0E0,0E0,0E0,0E0,0E0,0E0,0E0,0E0,0E0,0E0,0E0,0E0,0E0,0E0,0E0,0E0,0E0,0E0,0E0,0E0,0E0,0E0,0E0,0E0,0E0,0E0,0E0,0E0,0E0,0E0,0E0,0E0,0E0,0E0,0E0],"parents":[2147483647,0,0,1,1,2,2,3,3,4,4,5,5,6,6,7,7,8,8,9,9,10,10,11,11,12,12,13,13,14,14,15,15,16,16,17,17,18,18,19,19,20,20,21,21,22,22,23,23,24,24,25,25,26,26,27,27,28,28,29,29,30,30,31,31,32,32,33,33,34,34,35,35,36,36,37,37,38,38,39,39,40,40,41,41,42,42,45,45,47,47,48,48,49,49,50,50,51,51,52,52,54,54,55,55,56,56,57,57,58,58,60,60,61,61],"right_children":[2,4,6,8,10,12,14,16,18,20,22,24,26,28,30,32,34,36,38,40,42,44,46,48,50,52,54,56,58,60,62,64,66,68,70,72,74,76,78,80,82,84,86,-1,-1,88,-1,90,92,94,96,98,100,-1,102,104,106,108,110,-1,112,114,-1,-1,-1,-1,-1,-1,-1,-1,-1,-1,-1,-1,-1,-1,-1,-1,-1,-1,-1,-1,-1,-1,-1,-1,-1,-1,-1,-1,-1,-1,-1,-1,-1,-1,-1,-1,-1,-1,-1,-1,-1,-1,-1,-1,-1,-1,-1,-1,-1,-1,-1,-1,-1],"split_conditions":[1.015E5,1.8896953E0,3.0251965E2,2.014E3,4.3266875E3,2.015E3,1.9049984E0,6.4E4,9.4580644E-1,2.4069183E-1,9.433962E-1,7.573625E2,1.42E5,5.8637743E0,6.8943745E-1,9.6966034E1,8.072289E-1,3.2570283E3,1.6702383E0,1.3108462E-1,2.2005552E-1,1.1173778E3,4.1505835E3,3.24621E3,2.6001694E2,5.980889E-1,5.8637743E0,1.4769427E-1,1.47E5,5.8637743E0,8.6440676E-1,8.5758954E-1,5.81E0,2.3E1,9.555482E2,2.3230137E3,6.3584906E-1,9.862236E-1,1.1553013E3,2.32E0,7.4E4,1.0885539E-1,2.6466763E-1,-2.0987246E0,-4.405538E0,1.744344E2,-4.933014E-1,1E0,1.53E5,1.6734586E2,1.0697453E0,8.4120605E1,3.3924875E-3,3.870743E-2,2.021E3,7.1E0,1.1703282E3,2.007E3,1.2237071E1,-2.8503177E0,4.047893E3,8.9162564E-1,1.3479677E0,-2.4991906E-1,8.330619E-1,-6.711558E-1,-1.3309644E0,-7.049514E-1,-1.9411128E0,-4.2689204E-2,-1.6603884E0,-1.0889367E0,2.0855044E-1,-2.2974832E0,-7.97748E-1,-8.546534E-3,7.5400776E-1,-1.5611896E-1,-2.3934312E0,-3.3433454E0,-4.8055935E0,-2.1194456E0,-8.7322265E-1,3.117309E-1,-7.154543E-1,-4.6292955E-1,-2.7057369E0,-2.9982586E0,-1.8140754E0,7.376335E-1,-3.309956E-2,-2.4969403E-1,5.366688E-1,8.285169E-1,2.246751E-1,6.526606E-1,1.473703E0,-6.9583133E-3,9.9180615E-1,9.191637E-1,1.5311515E0,1.6823822E0,2.1085184E0,-1.3705451E0,-2.7740679E0,1.5827179E-3,-8.53038E-1,-6.161251E-1,2.7523026E-2,1.2804239E0,4.834539E-1,-9.097185E-1,-1.9791883E0,-4.3885764E-1,5.49327E-1],"split_indices":[30,4,2,31,1,31,3,30,29,24,29,8,30,26,27,18,29,0,4,16,16,7,0,0,19,16,26,16,30,26,27,24,12,6,5,0,29,3,7,14,30,16,24,0,0,18,0,36,30,2,4,25,24,0,31,13,7,31,26,0,1,29,0,0,0,0,0,0,0,0,0,0,0,0,0,0,0,0,0,0,0,0,0,0,0,0,0,0,0,0,0,0,0,0,0,0,0,0,0,0,0,0,0,0,0,0,0,0,0,0,0,0,0,0,0],"split_type":[0,0,0,0,0,0,0,0,0,0,0,0,0,0,0,0,0,0,0,0,0,0,0,0,0,0,0,0,0,0,0,0,0,0,0,0,0,0,0,0,0,0,0,0,0,0,0,0,0,0,0,0,0,0,0,0,0,0,0,0,0,0,0,0,0,0,0,0,0,0,0,0,0,0,0,0,0,0,0,0,0,0,0,0,0,0,0,0,0,0,0,0,0,0,0,0,0,0,0,0,0,0,0,0,0,0,0,0,0,0,0,0,0,0,0],"sum_hessian":[5.023E3,2.892E3,2.131E3,2.48E3,4.12E2,1.507E3,6.24E2,1.217E3,1.263E3,3.17E2,9.5E1,6.93E2,8.14E2,4.65E2,1.59E2,8.22E2,3.95E2,6.74E2,5.89E2,1.72E2,1.45E2,6.1E1,3.4E1,5.75E2,1.18E2,3.08E2,5.06E2,2.2E1,4.43E2,1.23E2,3.6E1,4.9E1,7.73E2,7.2E1,3.23E2,4.51E2,2.23E2,5.46E2,4.3E1,3.8E1,1.34E2,1.08E2,3.7E1,5E0,5.6E1,2.8E1,6E0,4.54E2,1.21E2,3.6E1,8.2E1,7.7E1,2.31E2,9E0,4.97E2,1E1,1.2E1,2.16E2,2.27E2,1.1E1,1.12E2,1.9E1,1.7E1,2.3E1,2.6E1,2.47E2,5.26E2,5.1E1,2.1E1,3.12E2,1.1E1,6.3E1,3.88E2,1.5E1,2.08E2,1.15E2,4.31E2,3.1E1,1.2E1,2.4E1,1.4E1,8.4E1,5E1,4.4E1,6.4E1,5E0,3.2E1,2.1E1,7E0,3.91E2,6.3E1,8E1,4.1E1,2.4E1,1.2E1,1.6E1,6.6E1,1.4E1,6.3E1,3.4E1,1.97E2,4.05E2,9.2E1,5E0,5E0,5E0,7E0,5E1,1.66E2,4.5E1,1.82E2,7.8E1,3.4E1,5E0,1.4E1],"tree_param":{"num_deleted":"0","num_feature":"37","num_nodes":"115","size_leaf_vector":"1"}},{"base_weights":[6.9257595E-2,-1.0563983E1,1.4982319E1,-8.3801155E0,-6.4244286E1,2.1980824E1,-1.5560578E0,-3.9061441E0,-1.9757824E1,-7.6475945E1,-4.304674E1,1.6901697E1,2.488217E1,3.8814747E0,-1.8470522E1,-8.074657E0,1.0172193E1,7.2074075E0,-2.309567E1,-4.2680945E0,-3.7610947E1,-5.607678E1,-2.7467756E1,1.1668718E1,2.1416885E1,1.2679522E1,2.6240696E1,-2.8424734E1,5.6073527E0,-2.7782177E1,1.3184737E1,-2.0306055E1,-5.784439E0,1.2043542E1,-1.4463591E1,9.685611E0,-1.4137821E0,-4.2491293E0,-2.0789845E1,-1.1448454E0,-2.381181E0,-3.1047559E0,-1.4337823E0,-3.1782244E1,-5.332709E-1,-1.9645085E0,1.4590205E1,1.5691973E1,2.6575415E1,1.6712927E1,9.572097E0,-1.0048146E0,2.6600307E1,-4.542608E1,-1.0544669E1,-1.3228022E0,1.1698635E1,4.5997307E-1,-3.0219185E1,-8.116221E-1,2.255429E1,-1.5386254E0,-6.849895E-1,-1.4685701E-1,-8.280102E-1,6.8273705E-1,-5.1491518E-2,1.08998716E-1,-1.5128177E0,9.6824044E-1,2.5898337E-1,-1.1716627E0,1.8922915E-1,-1.8454243E0,-8.116357E-1,-4.242874E-1,3.305664E-1,-3.25551E-1,8.022634E-1,1.0998713E0,4.6262142E-1,1.432716E0,4.9268475E-1,9.902754E-1,5.418107E-1,3.3323106E-1,7.050264E-1,1.4441631E0,1.0074697E0,-2.8358107E0,-1.462969E0,-5.4715987E-2,-8.157174E-1,-6.495928E-1,4.630923E-2,-6.260113E-1,6.6341037E-1,-2.0503557E0,-9.5421356E-1,-3.7249085E-1,3.919573E-1,6.1971027E-1,1.3374518E0],"categories":[],"categories_nodes":[],"categories_segments":[],"categories_sizes":[],"default_left":[0,0,0,0,0,0,0,0,0,0,0,0,0,0,0,0,0,0,0,0,0,0,0,0,0,0,0,0,0,0,0,0,0,0,0,0,0,0,0,0,0,0,0,0,0,0,0,0,0,0,0,0,0,0,0,0,0,0,0,0,0,0,0,0,0,0,0,0,0,0,0,0,0,0,0,0,0,0,0,0,0,0,0,0,0,0,0,0,0,0,0,0,0,0,0,0,0,0,0,0,0,0,0],"id":4,"left_children":[1,3,5,7,9,11,13,15,17,19,21,23,25,27,29,31,33,35,37,-1,39,41,43,45,47,49,51,53,55,57,59,61,63,65,67,69,-1,-1,71,-1,-1,-1,-1,73,-1,75,77,79,81,83,85,-1,87,89,91,93,95,-1,97,99,101,-1,-1,-1,-1,-1,-1,-1,-1,-1,-1,-1,-1,-1,-1,-1,-1,-1,-1,-1,-1,-1,-1,-1,-1,-1,-1,-1,-1,-1,-1,-1,-1,-1,-1,-1,-1,-1,-1,-1,-1,-1,-1],"loss_changes":[7.9318775E5,3.4177534E5,2.4101294E5,1.4280906E5,2.6266E4,2.1138688E4,5.7094926E4,1.1839259E5,7.145106E4,2.1309469E4,7.3914688E3,1.2391E4,1.5067875E4,2.6364982E4,4.487549E4,4.3470117E4,2.1427281E4,8.0120776E3,9.8837125E4,0E0,1.1194707E3,2.0122969E3,1.2558867E3,9.985988E3,8.0291562E3,1.0307041E3,1.44485E4,6.8166387E3,1.8884926E4,1.082257E4,4.6081934E3,1.6518742E4,4.0205906E4,9.050445E3,8.739941E3,3.5196519E3,0E0,0E0,4.4326625E4,0E0,0E0,0E0,0E0,7.5595703E2,0E0,2.5727307E3,6.429414E3,5.3998516E3,4.8973203E3,5.1235254E2,6.433384E2,0E0,1.162675E4,5.3081055E2,6.909783E2,5.5231787E3,9.213275E3,0E0,1.2430898E4,9.197825E2,5.6346484E2,0E0,0E0,0E0,0E0,0E0,0E0,0E0,0E0,0E0,0E0,0E0,0E0,0E0,0E0,0E0,0E0,0E0,0E0,0E0,0E0,0E0,0E0,0E0,0E0,0E0,0E0,0E0,0E0,0E0,0E0,0E0,0E0,0E0,0E0,0E0,0E0,0E0,0E0,0E0,0E0,0E0,0E0],"parents":[2147483647,0,0,1,1,2,2,3,3,4,4,5,5,6,6,7,7,8,8,9,9,10,10,11,11,12,12,13,13,14,14,15,15,16,16,17,17,18,18,20,20,21,21,22,22,23,23,24,24,25,25,26,26,27,27,28,28,29,29,30,30,31,31,32,32,33,33,34,34,35,35,38,38,43,43,45,45,46,46,47,47,48,48,49,49,50,50,52,52,53,53,54,54,55,55,56,56,58,58,59,59,60,60],"right_children":[2,4,6,8,10,12,14,16,18,20,22,24,26,28,30,32,34,36,38,-1,40,42,44,46,48,50,52,54,56,58,60,62,64,66,68,70,-1,-1,72,-1,-1,-1,-1,74,-1,76,78,80,82,84,86,-1,88,90,92,94,96,-1,98,100,102,-1,-1,-1,-1,-1,-1,-1,-1,-1,-1,-1,-1,-1,-1,-1,-1,-1,-1,-1,-1,-1,-1,-1,-1,-1,-1,-1,-1,-1,-1,-1,-1,-1,-1,-1,-1,-1,-1,-1,-1,-1,-1],"split_conditions":[1.05E5,4.047893E3,3.0251965E2,3.4876663E2,9.433962E-1,1.42E5,1.9442087E0,2.470453E2,2.6025802E-1,2.4628003E2,4.6054572E2,1E0,4.404283E0,5.8637743E0,6.425993E-1,2.4464016E3,9.3238354E2,8.950792E1,1.0152106E-1,-4.2680945E0,1.4659511E2,1.6664854E0,4.0930405E3,3.3924875E-3,7.93E0,7.8986055E3,3.4883595E0,1.4769427E-1,1.47E5,2.960889E-1,8.4276414E-1,2.83E4,8.735689E2,2.6554688E2,8.283247E2,5.19667E2,-1.4137821E0,-4.2491293E0,1.4992052E2,-1.1448454E0,-2.381181E0,-3.1047559E0,-1.4337823E0,6.913288E-1,-5.332709E-1,1.33E5,2.5403503E3,8.0038257E2,1.7005083E2,1.0370646E3,2.3E1,-1.0048146E0,2.8E1,1.6460905E-2,1.1703282E3,3.3088708E-3,7.5188005E-1,4.5997307E-1,1E0,9.2753625E-1,5.199478E-1,-1.5386254E0,-6.849895E-1,-1.4685701E-1,-8.280102E-1,6.8273705E-1,-5.1491518E-2,1.08998716E-1,-1.5128177E0,9.6824044E-1,2.5898337E-1,-1.1716627E0,1.8922915E-1,-1.8454243E0,-8.116357E-1,-4.242874E-1,3.305664E-1,-3.25551E-1,8.022634E-1,1.0998713E0,4.6262142E-1,1.432716E0,4.9268475E-1,9.902754E-1,5.418107E-1,3.3323106E-1,7.050264E-1,1.4441631E0,1.0074697E0,-2.8358107E0,-1.462969E0,-5.4715987E-2,-8.157174E-1,-6.495928E-1,4.630923E-2,-6.260113E-1,6.6341037E-1,-2.0503557E0,-9.5421356E-1,-3.7249085E-1,3.919573E-1,6.1971027E-1,1.3374518E0],"split_indices":[30,1,2,2,29,30,3,23,17,23,5,33,2,26,27,0,5,25,16,0,22,9,0,24,11,20,26,16,30,17,27,30,5,2,10,2,0,0,22,0,0,0,0,16,0,30,0,10,2,7,6,0,6,27,7,24,9,0,33,29,17,0,0,0,0,0,0,0,0,0,0,0,0,0,0,0,0,0,0,0,0,0,0,0,0,0,0,0,0,0,0,0,0,0,0,0,0,0,0,0,0,0,0],"split_type":[0,0,0,0,0,0,0,0,0,0,0,0,0,0,0,0,0,0,0,0,0,0,0,0,0,0,0,0,0,0,0,0,0,0,0,0,0,0,0,0,0,0,0,0,0,0,0,0,0,0,0,0,0,0,0,0,0,0,0,0,0,0,0,0,0,0,0,0,0,0,0,0,0,0,0,0,0,0,0,0,0,0,0,0,0,0,0,0,0,0,0,0,0,0,0,0,0,0,0,0,0,0,0],"sum_hessian":[5E3,2.919E3,2.081E3,2.806E3,1.13E2,1.462E3,6.19E2,2.015E3,7.91E2,7E1,4.3E1,5.34E2,9.28E2,4.69E2,1.5E2,1.555E3,4.6E2,8.7E1,7.04E2,5.6E1,1.4E1,2.2E1,2.1E1,2.49E2,2.85E2,9.4E1,8.34E2,2.3E1,4.46E2,1.16E2,3.4E1,2.44E2,1.311E3,4.28E2,3.2E1,8.2E1,5E0,2.4E1,6.8E2,7E0,7E0,1.7E1,5E0,1.6E1,5E0,4.4E1,2.05E2,1.37E2,1.48E2,3.9E1,5.5E1,6E0,8.28E2,1.1E1,1.2E1,2.09E2,2.37E2,7E0,1.09E2,1.4E1,2E1,9.3E1,1.51E2,1.038E3,2.73E2,3.81E2,4.7E1,1.6E1,1.6E1,2.5E1,5.7E1,6.14E2,6.6E1,1.1E1,5E0,2.5E1,1.9E1,1.3E1,1.92E2,6.8E1,6.9E1,1.31E2,1.7E1,2.4E1,1.5E1,3.5E1,2E1,6.09E2,2.19E2,5E0,6E0,5E0,7E0,3.3E1,1.76E2,1.4E1,2.23E2,5.4E1,5.5E1,8E0,6E0,7E0,1.3E1],"tree_param":{"num_deleted":"0","num_feature":"37","num_nodes":"103","size_leaf_vector":"1"}},{"base_weights":[1.523603E-1,-1.0634369E1,1.0704998E1,-8.70927E0,-6.612537E1,-8.716184E-2,2.2429884E1,-1.6303862E1,-9.7321784E-1,-7.088505E1,-2.161171E-1,3.5829968E0,-1.6888998E1,-1.6847406E1,2.3540712E1,-1.9183292E1,8.620618E0,1.7320434E0,-2.726154E1,-7.444864E1,-1.2306831E0,-2.4490599E1,5.2212353E0,-2.469968E1,9.406348E0,-2.608958E1,-1.7807617E0,2.5432575E1,-5.629866E-1,-2.1310396E1,7.4453864E0,5.7402124E0,1.4244756E1,-4.7706237E-1,2.9701447E1,-6.0895557E1,2.3423033E0,-7.728587E1,-1.8733672E0,-3.5163498E1,-4.4572496E0,9.641345E0,-3.0888329E0,-1.7263134E1,-3.7317238E1,2.3979995E0,1.9052832E1,-1.489362E0,-5.940446E-1,-4.472675E-1,2.355424E-1,2.6046936E1,1.9301063E0,6.1349444E0,-1.4170399E1,-5.571119E-1,-1.2572392E0,6.5467095E-1,-5.8370805E-1,1.0740017E0,1.6775845E-1,7.89E-1,1.20164625E-1,1.676563E-1,-4.894279E-1,3.8403627E-1,1.6390771E0,-3.7237413E0,-1.4278685E0,4.550302E-1,-9.269654E-1,-4.037198E0,-2.1277015E0,-1.3977736E0,-2.9800084E0,-5.399521E-1,2.1164024E-1,5.024846E-1,-1.0733063E0,-3.4076074E-1,6.5710014E-1,-1.399136E0,-6.449158E-1,-2.1677043E0,-1.2347401E0,-1.9041616E-2,3.646346E-1,6.559966E-1,1.2166184E0,1.2064568E0,1.7228047E0,-7.0946723E-1,4.3732664E-1,-2.689609E-1,5.6605715E-1,1.1271826E0,-1.2364068E0],"categories":[],"categories_nodes":[],"categories_segments":[],"categories_sizes":[],"default_left":[0,0,0,0,0,0,0,0,0,0,0,0,0,0,0,0,0,0,0,0,0,0,0,0,0,0,0,0,0,0,0,0,0,0,0,0,0,0,0,0,0,0,0,0,0,0,0,0,0,0,0,0,0,0,0,0,0,0,0,0,0,0,0,0,0,0,0,0,0,0,0,0,0,0,0,0,0,0,0,0,0,0,0,0,0,0,0,0,0,0,0,0,0,0,0,0,0],"id":5,"left_children":[1,3,5,7,9,11,13,15,17,19,-1,21,23,25,27,29,31,33,35,37,-1,39,41,43,45,47,49,51,53,55,57,59,61,63,65,67,69,71,-1,73,75,77,79,81,83,85,87,-1,-1,-1,-1,89,91,93,95,-1,-1,-1,-1,-1,-1,-1,-1,-1,-1,-1,-1,-1,-1,-1,-1,-1,-1,-1,-1,-1,-1,-1,-1,-1,-1,-1,-1,-1,-1,-1,-1,-1,-1,-1,-1,-1,-1,-1,-1,-1,-1],"loss_changes":[5.708497E5,2.6435166E5,3.207729E5,1.408718E5,2.4109156E4,8.152051E4,5.3407375E4,8.7005E4,8.4605055E4,1.0864219E4,0E0,5.0028375E4,4.8908492E4,4.68799E3,5.3914562E4,6.1615188E4,1.9594062E3,6.668274E4,1.1066492E5,4.554E3,0E0,1.2672102E4,3.7716203E4,1.6526867E4,3.6726382E3,7.4941797E2,6.9327606E2,1.5774875E4,8.016245E3,3.890347E4,8.899867E3,3.118844E3,7.256172E2,3.573327E4,5.106461E3,2.070789E4,8.636172E3,4.3708438E3,0E0,5.2033164E3,1.2581416E3,8.7265E3,2.1681742E4,5.1133867E3,4.0347656E3,4.5162766E2,4.0118848E2,0E0,0E0,0E0,0E0,1.6392375E4,3.3105422E3,3.584068E3,1.1798363E4,0E0,0E0,0E0,0E0,0E0,0E0,0E0,0E0,0E0,0E0,0E0,0E0,0E0,0E0,0E0,0E0,0E0,0E0,0E0,0E0,0E0,0E0,0E0,0E0,0E0,0E0,0E0,0E0,0E0,0E0,0E0,0E0,0E0,0E0,0E0,0E0,0E0,0E0,0E0,0E0,0E0,0E0],"parents":[2147483647,0,0,1,1,2,2,3,3,4,4,5,5,6,6,7,7,8,8,9,9,11,11,12,12,13,13,14,14,15,15,16,16,17,17,18,18,19,19,21,21,22,22,23,23,24,24,25,25,26,26,27,27,28,28,29,29,30,30,31,31,32,32,33,33,34,34,35,35,36,36,37,37,39,39,40,40,41,41,42,42,43,43,44,44,45,45,46,46,51,51,52,52,53,53,54,54],"right_children":[2,4,6,8,10,12,14,16,18,20,-1,22,24,26,28,30,32,34,36,38,-1,40,42,44,46,48,50,52,54,56,58,60,62,64,66,68,70,72,-1,74,76,78,80,82,84,86,88,-1,-1,-1,-1,90,92,94,96,-1,-1,-1,-1,-1,-1,-1,-1,-1,-1,-1,-1,-1,-1,-1,-1,-1,-1,-1,-1,-1,-1,-1,-1,-1,-1,-1,-1,-1,-1,-1,-1,-1,-1,-1,-1,-1,-1,-1,-1,-1,-1],"split_conditions":[1.6734116E2,4.181988E3,2.014E3,2.014E3,8.0597205E2,8.735E1,2.461286E3,7.885615E-1,1E0,9.694657E-1,-2.161171E-1,7.9646015E-1,6.2072766E-1,2.3230137E3,1.08607E3,7.076068E-1,2.1815157E-1,7.076068E-1,2.4069183E-1,8.7609515E-2,-1.2306831E0,4.7166649E-1,3.3144868E3,7.6343665E2,8.606557E-1,7.6126953E2,7.16231E2,3.7204233E3,1.9758769E2,5.91E0,8.2353E2,8.404176E1,6.613713E2,3.6953772E3,1.0244905E3,1.3108462E-1,3.230412E3,2.470453E2,-1.8733672E0,7.154055E2,2.8420205E3,1.158376E3,4.9609375E-1,9.5108694E-1,9.69697E-1,2.8213522E2,8.961382E2,-1.489362E0,-5.940446E-1,-4.472675E-1,2.355424E-1,2.021E3,1.0473665E3,1.1159958E3,8.6219185E1,-5.571119E-1,-1.2572392E0,6.5467095E-1,-5.8370805E-1,1.0740017E0,1.6775845E-1,7.89E-1,1.20164625E-1,1.676563E-1,-4.894279E-1,3.8403627E-1,1.6390771E0,-3.7237413E0,-1.4278685E0,4.550302E-1,-9.269654E-1,-4.037198E0,-2.1277015E0,-1.3977736E0,-2.9800084E0,-5.399521E-1,2.1164024E-1,5.024846E-1,-1.0733063E0,-3.4076074E-1,6.5710014E-1,-1.399136E0,-6.449158E-1,-2.1677043E0,-1.2347401E0,-1.9041616E-2,3.646346E-1,6.559966E-1,1.2166184E0,1.2064568E0,1.7228047E0,-7.0946723E-1,4.3732664E-1,-2.689609E-1,5.6605715E-1,1.1271826E0,-1.2364068E0],"split_indices":[18,1,31,31,8,11,0,27,32,29,0,29,27,0,1,16,16,16,24,27,0,16,0,8,27,10,8,0,18,12,10,25,5,0,7,16,20,23,0,8,0,7,27,29,29,23,10,0,0,0,0,31,7,7,25,0,0,0,0,0,0,0,0,0,0,0,0,0,0,0,0,0,0,0,0,0,0,0,0,0,0,0,0,0,0,0,0,0,0,0,0,0,0,0,0,0,0],"split_type":[0,0,0,0,0,0,0,0,0,0,0,0,0,0,0,0,0,0,0,0,0,0,0,0,0,0,0,0,0,0,0,0,0,0,0,0,0,0,0,0,0,0,0,0,0,0,0,0,0,0,0,0,0,0,0,0,0,0,0,0,0,0,0,0,0,0,0,0,0,0,0,0,0,0,0,0,0,0,0,0,0,0,0,0,0,0,0,0,0,0,0,0,0,0,0,0,0],"sum_hessian":[5.013E3,2.479E3,2.534E3,2.397E3,8.2E1,1.32E3,1.214E3,1.209E3,1.188E3,7.6E1,6E0,1.084E3,2.36E2,3.3E1,1.181E3,1.084E3,1.25E2,1.078E3,1.1E2,7E1,6E0,5.9E1,1.025E3,1.82E2,5.4E1,2E1,1.3E1,1.095E3,8.6E1,1.004E3,8E1,8.4E1,4.1E1,1E3,7.8E1,5.1E1,5.9E1,6.4E1,6E0,3.8E1,2.1E1,6.69E2,3.56E2,1.16E2,6.6E1,3.2E1,2.2E1,1.5E1,5E0,6E0,7E0,1.067E3,2.8E1,5.8E1,2.8E1,2.76E2,7.28E2,6.2E1,1.8E1,1E1,7.4E1,3.6E1,5E0,7.09E2,2.91E2,1E1,6.8E1,3.5E1,1.6E1,4.5E1,1.4E1,5.7E1,7E0,3.1E1,7E0,1.2E1,9E0,6.61E2,8E0,2.9E2,6.6E1,3.2E1,8.4E1,4.3E1,2.3E1,2.1E1,1.1E1,1.2E1,1E1,8.72E2,1.95E2,8E0,2E1,1.8E1,4E1,6E0,2.2E1],"tree_param":{"num_deleted":"0","num_feature":"37","num_nodes":"97","size_leaf_vector":"1"}},{"base_weights":[-1.5191093E-1,-1.3778797E1,9.44806E0,-9.377698E0,-4.092961E1,1.6147703E1,-4.2027063E0,-1.7268297E1,-1.9147835E0,1.2851797E1,-4.5409172E1,6.566451E0,2.453075E1,6.555682E-1,-1.9926012E1,4.8511753E0,-1.865501E1,-1.612352E1,1.5786533E-1,2.4978249E1,-2.7052078E-1,-5.6875854E1,-1.5296124E1,-1.7323341E1,8.761294E0,1.6110802E1,2.8717773E1,-4.699321E0,7.3188877E0,-2.8700123E1,-6.304831E0,-3.4130564E0,1.7213282E1,-1.0820076E1,-2.2588623E1,-2.6326923E1,-8.643951E0,-3.1124937E1,1.0789237E0,1.6694958E0,4.098854E-1,-4.0869736E1,-6.8332E1,-1.9524559E1,8.9408934E-1,-2.7302769E1,-7.1603165E0,9.714148E0,-1.42808E1,4.046488E0,2.0684103E1,-2.0418668E-1,2.9101774E1,-3.9749703E0,-1.8346236E0,-1.214798E1,8.411514E0,-4.487302E0,-3.2496426E1,-2.080435E0,-3.3232794E0,4.3320786E-2,-9.41033E-1,1.1936486E0,5.6393147E-1,-4.005343E-1,-1.6337143E0,-1.5094594E0,-9.1385835E-1,-8.2372683E-1,-1.989458E0,-7.644246E-1,1.4665586E-1,-1.7729118E-1,-2.6033442E0,1.1428639E0,-1.1048834E-2,-1.5428694E0,-2.4126167E0,-2.0345647E0,-3.6448982E0,1.7801313E-1,-1.2573974E0,-2.3626344E0,-8.888853E-1,6.451158E-1,-5.197522E-1,6.8275493E-1,2.6049143E-1,-1.5074961E-1,-1.5079727E0,-1.3753866E-1,5.313437E-1,3.90455E-1,1.1183032E0,1.3755678E0,1.7895056E0,-3.179762E-1,1.7178097E-1,9.828739E-1,-1.294648E0,-4.3319544E-1,4.83246E-1,3.6816117E-1,-6.5006274E-1,-3.5499043E0,-1.4556197E0,5.8670646E-1,-5.6652015E-1],"categories":[],"categories_nodes":[],"categories_segments":[],"categories_sizes":[],"default_left":[0,0,0,0,0,0,0,0,0,0,0,0,0,0,0,0,0,0,0,0,0,0,0,0,0,0,0,0,0,0,0,0,0,0,0,0,0,0,0,0,0,0,0,0,0,0,0,0,0,0,0,0,0,0,0,0,0,0,0,0,0,0,0,0,0,0,0,0,0,0,0,0,0,0,0,0,0,0,0,0,0,0,0,0,0,0,0,0,0,0,0,0,0,0,0,0,0,0,0,0,0,0,0,0,0,0,0,0,0],"id":6,"left_children":[1,3,5,7,9,11,13,15,17,19,21,23,25,27,29,31,33,35,37,39,-1,41,43,45,47,49,51,53,55,57,59,61,63,65,67,69,71,73,75,-1,-1,77,79,81,-1,83,85,87,89,91,93,-1,95,97,-1,99,101,103,105,-1,107,-1,-1,-1,-1,-1,-1,-1,-1,-1,-1,-1,-1,-1,-1,-1,-1,-1,-1,-1,-1,-1,-1,-1,-1,-1,-1,-1,-1,-1,-1,-1,-1,-1,-1,-1,-1,-1,-1,-1,-1,-1,-1,-1,-1,-1,-1,-1,-1],"loss_changes":[6.564427E5,2.4744556E5,2.693122E5,1.05138875E5,7.020859E4,1.5847106E5,7.4109555E4,2.6714984E4,2.7066838E4,5.228626E3,9.132431E4,4.854868E4,3.6660375E4,2.6509943E4,2.7187688E4,5.371242E3,2.4935188E4,8.701529E3,2.3170652E4,1.7024121E3,0E0,3.2597312E4,1.087093E4,7.7153574E3,1.8713281E4,1.933746E4,8.9610625E3,9.401942E3,7.1425586E3,1.2630945E4,9.440411E3,2.1262712E3,5.6072754E2,1.6622438E4,1.7242062E4,5.8436133E3,5.352621E3,1.3099266E4,2.2114916E4,0E0,0E0,4.646172E3,1.1042625E4,8.787135E3,0E0,6.5708965E3,2.7300063E3,1.4360664E4,5.991188E3,4.4126353E3,5.3474297E3,0E0,6.397625E3,7.1609116E3,0E0,8.377969E3,6.8040977E3,2.1136272E3,1.3567969E4,0E0,1.0381108E4,0E0,0E0,0E0,0E0,0E0,0E0,0E0,0E0,0E0,0E0,0E0,0E0,0E0,0E0,0E0,0E0,0E0,0E0,0E0,0E0,0E0,0E0,0E0,0E0,0E0,0E0,0E0,0E0,0E0,0E0,0E0,0E0,0E0,0E0,0E0,0E0,0E0,0E0,0E0,0E0,0E0,0E0,0E0,0E0,0E0,0E0,0E0,0E0],"parents":[2147483647,0,0,1,1,2,2,3,3,4,4,5,5,6,6,7,7,8,8,9,9,10,10,11,11,12,12,13,13,14,14,15,15,16,16,17,17,18,18,19,19,21,21,22,22,23,23,24,24,25,25,26,26,27,27,28,28,29,29,30,30,31,31,32,32,33,33,34,34,35,35,36,36,37,37,38,38,41,41,42,42,43,43,45,45,46,46,47,47,48,48,49,49,50,50,52,52,53,53,55,55,56,56,57,57,58,58,60,60],"right_children":[2,4,6,8,10,12,14,16,18,20,22,24,26,28,30,32,34,36,38,40,-1,42,44,46,48,50,52,54,56,58,60,62,64,66,68,70,72,74,76,-1,-1,78,80,82,-1,84,86,88,90,92,94,-1,96,98,-1,100,102,104,106,-1,108,-1,-1,-1,-1,-1,-1,-1,-1,-1,-1,-1,-1,-1,-1,-1,-1,-1,-1,-1,-1,-1,-1,-1,-1,-1,-1,-1,-1,-1,-1,-1,-1,-1,-1,-1,-1,-1,-1,-1,-1,-1,-1,-1,-1,-1,-1,-1,-1],"split_conditions":[6.98E4,1.8896953E0,2.7128876E2,2.014E3,7.22446E-2,2.015E3,1.9049984E0,9.6966034E1,9.3E3,2.2521445E3,1E0,8.116129E-1,1.133E5,1.32E5,1.525E5,8.7104934E-1,5.81E0,8.391039E-1,3.4347217E2,2.2916091E3,-2.7052078E-1,1.120809E3,8.1209165E-1,2.009E3,9.239609E2,1.6224017E2,2.2079176E-1,9.4086755E2,8.294973E1,1.2105439E-1,8.235294E-1,8.936136E2,1E0,9.9527594E2,2.65E4,1.0801906E3,1.65819E2,1.7053869E0,9.6966034E1,1.6694958E0,4.098854E-1,7.588514E2,6.049E1,1.0885539E-1,8.9408934E-1,6.066152E-1,5.140085E3,6.38E0,3.4225632E3,8.688773E1,1.0402118E3,-2.0418668E-1,2.021E3,2.015E3,-1.8346236E0,1.0497744E3,7.5188005E-1,8.7E4,1.3108462E-1,-2.080435E0,5.6684834E-1,4.3320786E-2,-9.41033E-1,1.1936486E0,5.6393147E-1,-4.005343E-1,-1.6337143E0,-1.5094594E0,-9.1385835E-1,-8.2372683E-1,-1.989458E0,-7.644246E-1,1.4665586E-1,-1.7729118E-1,-2.6033442E0,1.1428639E0,-1.1048834E-2,-1.5428694E0,-2.4126167E0,-2.0345647E0,-3.6448982E0,1.7801313E-1,-1.2573974E0,-2.3626344E0,-8.888853E-1,6.451158E-1,-5.197522E-1,6.8275493E-1,2.6049143E-1,-1.5074961E-1,-1.5079727E0,-1.3753866E-1,5.313437E-1,3.90455E-1,1.1183032E0,1.3755678E0,1.7895056E0,-3.179762E-1,1.7178097E-1,9.828739E-1,-1.294648E0,-4.3319544E-1,4.83246E-1,3.6816117E-1,-6.5006274E-1,-3.5499043E0,-1.4556197E0,5.8670646E-1,-5.6652015E-1],"split_indices":[30,4,2,31,16,31,3,18,30,20,35,29,30,30,30,24,12,29,5,1,0,7,24,31,5,18,16,10,25,16,29,10,28,5,30,7,19,3,18,0,0,8,11,16,0,9,20,11,0,25,7,0,31,31,0,7,9,30,16,0,16,0,0,0,0,0,0,0,0,0,0,0,0,0,0,0,0,0,0,0,0,0,0,0,0,0,0,0,0,0,0,0,0,0,0,0,0,0,0,0,0,0,0,0,0,0,0,0,0],"split_type":[0,0,0,0,0,0,0,0,0,0,0,0,0,0,0,0,0,0,0,0,0,0,0,0,0,0,0,0,0,0,0,0,0,0,0,0,0,0,0,0,0,0,0,0,0,0,0,0,0,0,0,0,0,0,0,0,0,0,0,0,0,0,0,0,0,0,0,0,0,0,0,0,0,0,0,0,0,0,0,0,0,0,0,0,0,0,0,0,0,0,0,0,0,0,0,0,0,0,0,0,0,0,0,0,0,0,0,0,0],"sum_hessian":[5.016E3,2.073E3,2.943E3,1.785E3,2.88E2,1.974E3,9.69E2,8.67E2,9.18E2,2.2E1,2.66E2,9.22E2,1.052E3,7.41E2,2.28E2,5.1E1,8.16E2,1.16E2,8.02E2,1.3E1,9E0,1.92E2,7.4E1,7.7E1,8.45E2,3.51E2,7.01E2,4.11E2,3.3E2,1.38E2,9E1,3.1E1,2E1,2.74E2,5.42E2,4.8E1,6.8E1,2.2E1,7.8E2,8E0,5E0,8.2E1,1.1E2,6.6E1,8E0,3.8E1,3.9E1,8.12E2,3.3E1,9.7E1,2.54E2,8E0,6.93E2,4.03E2,8E0,1.7E1,3.13E2,1.9E1,1.19E2,6E0,8.4E1,2.5E1,6E0,8E0,1.2E1,2.44E2,3E1,1.94E2,3.48E2,2.9E1,1.9E1,4.3E1,2.5E1,1E1,1.2E1,4.3E1,7.37E2,3.7E1,4.5E1,1.7E1,9.3E1,1.3E1,5.3E1,1.1E1,2.7E1,5E0,3.4E1,4.32E2,3.8E2,2E1,1.3E1,4.8E1,4.9E1,3E1,2.24E2,5.64E2,1.29E2,3.05E2,9.8E1,5E0,1.2E1,2.1E1,2.92E2,8E0,1.1E1,8E0,1.11E2,2.9E1,5.5E1],"tree_param":{"num_deleted":"0","num_feature":"37","num_nodes":"109","size_leaf_vector":"1"}},{"base_weights":[-3.386981E-2,-9.589347E0,1.2683297E1,-6.606426E0,-4.355093E1,1.890364E1,-1.9560032E0,-1.4074497E1,1.3125354E0,4.9939976E0,-5.3036575E1,1.01991625E1,2.6216963E1,2.9829462E0,-1.666995E1,-1.5971793E1,4.576039E0,-4.979219E0,8.53383E0,1.6413702E1,-3.6637843E0,-6.2002678E1,-3.28028E1,4.647414E0,1.3067722E1,2.0008785E1,2.8461931E1,-2.2448513E1,4.294765E0,-2.5068819E1,1.36557455E1,-7.187457E0,-2.0218765E1,1.1625551E1,1.5487336E0,6.8203086E-1,-1.5943265E1,1.0590166E1,-1.2927722E1,-1.2296257E-1,1.2241186E0,3.527848E0,-1.0550101E1,-6.614901E1,-3.3424953E1,-3.6628315E1,1.243721E-1,9.106055E0,-2.8352919E0,1.068107E1,1.979697E1,5.892473E0,2.2005524E1,3.09085E1,2.2224117E1,-1.9435549E0,-1.0003556E1,-1.5957383E0,9.918602E0,-4.9467915E1,-2.1880505E1,4.886393E0,1.1584677E0,-2.1976903E-1,-1.7456986E0,-1.6794983E0,-8.550928E-1,1.1071793E0,4.4807163E-1,-6.714096E-2,4.5602417E-1,-9.570408E-1,2.1632175E-1,-6.410895E-1,-1.767222E0,9.6126E-3,6.924191E-1,-1.3228302E0,2.2610186E-1,4.4795066E-1,-1.6982429E-1,-9.523278E-2,-8.226663E-1,-1.7275219E0,-3.4900868E0,-4.1556308E-1,-2.0900235E0,-2.201378E0,-7.689239E-1,6.32015E-1,-1.6618648E-1,-2.748676E-1,1.0867032E0,6.0862887E-1,1.0788237E-1,4.786051E-1,1.1723909E0,7.4322623E-1,-2.081265E-2,1.2682603E-1,1.1577824E0,1.1783957E0,1.6440119E0,5.5046356E-1,1.6050147E0,-6.370672E-3,-7.4644434E-1,-5.835058E-1,6.2155392E-2,-7.6158303E-1,5.6638235E-1,-2.8878002E0,-1.6464484E0,-7.4472183E-1,-1.6017907E0,-3.909055E-1,4.8212177E-1],"categories":[],"categories_nodes":[],"categories_segments":[],"categories_sizes":[],"default_left":[0,0,0,0,0,0,0,0,0,0,0,0,0,0,0,0,0,0,0,0,0,0,0,0,0,0,0,0,0,0,0,0,0,0,0,0,0,0,0,0,0,0,0,0,0,0,0,0,0,0,0,0,0,0,0,0,0,0,0,0,0,0,0,0,0,0,0,0,0,0,0,0,0,0,0,0,0,0,0,0,0,0,0,0,0,0,0,0,0,0,0,0,0,0,0,0,0,0,0,0,0,0,0,0,0,0,0,0,0,0,0,0,0,0,0,0,0],"id":7,"left_children":[1,3,5,7,9,11,13,15,17,19,21,23,25,27,29,31,33,35,37,39,41,43,45,47,49,51,53,55,57,59,61,63,65,67,69,71,73,75,77,-1,-1,79,81,83,85,87,-1,89,91,93,95,97,99,101,103,-1,105,107,109,111,113,115,-1,-1,-1,-1,-1,-1,-1,-1,-1,-1,-1,-1,-1,-1,-1,-1,-1,-1,-1,-1,-1,-1,-1,-1,-1,-1,-1,-1,-1,-1,-1,-1,-1,-1,-1,-1,-1,-1,-1,-1,-1,-1,-1,-1,-1,-1,-1,-1,-1,-1,-1,-1,-1,-1,-1],"loss_changes":[6.146412E5,2.922803E5,1.9764034E5,1.5709262E5,1.0755675E5,9.668475E4,4.714082E4,4.8445188E4,5.8653137E4,3.9160398E3,3.3342688E4,1.1039359E4,1.09565625E4,1.6310084E4,4.1858676E4,4.6152438E4,2.6923052E3,4.2839312E4,2.666034E4,2.648962E3,1.176268E3,1.3666969E4,8.46132E3,7.999504E3,7.160258E3,6.1559453E3,8.546156E3,4.5162314E3,1.5353735E4,8.874992E3,2.8902002E3,3.1276852E4,3.4267375E4,8.663706E2,1.9827175E3,3.302537E4,1.3778488E4,1.859671E4,1.2631652E4,0E0,0E0,4.817155E2,5.81094E2,1.0977125E4,3.6490469E3,8.127961E3,0E0,6.631497E3,6.0059385E3,4.3087812E3,4.217758E3,1.6476516E3,4.307664E3,5.4776875E3,1.8918805E4,0E0,7.277467E2,6.506618E3,8.571303E3,1.7222656E1,7.6815938E3,1.2838485E3,0E0,0E0,0E0,0E0,0E0,0E0,0E0,0E0,0E0,0E0,0E0,0E0,0E0,0E0,0E0,0E0,0E0,0E0,0E0,0E0,0E0,0E0,0E0,0E0,0E0,0E0,0E0,0E0,0E0,0E0,0E0,0E0,0E0,0E0,0E0,0E0,0E0,0E0,0E0,0E0,0E0,0E0,0E0,0E0,0E0,0E0,0E0,0E0,0E0,0E0,0E0,0E0,0E0,0E0,0E0],"parents":[2147483647,0,0,1,1,2,2,3,3,4,4,5,5,6,6,7,7,8,8,9,9,10,10,11,11,12,12,13,13,14,14,15,15,16,16,17,17,18,18,19,19,20,20,21,21,22,22,23,23,24,24,25,25,26,26,27,27,28,28,29,29,30,30,31,31,32,32,33,33,34,34,35,35,36,36,37,37,38,38,41,41,42,42,43,43,44,44,45,45,47,47,48,48,49,49,50,50,51,51,52,52,53,53,54,54,56,56,57,57,58,58,59,59,60,60,61,61],"right_children":[2,4,6,8,10,12,14,16,18,20,22,24,26,28,30,32,34,36,38,40,42,44,46,48,50,52,54,56,58,60,62,64,66,68,70,72,74,76,78,-1,-1,80,82,84,86,88,-1,90,92,94,96,98,100,102,104,-1,106,108,110,112,114,116,-1,-1,-1,-1,-1,-1,-1,-1,-1,-1,-1,-1,-1,-1,-1,-1,-1,-1,-1,-1,-1,-1,-1,-1,-1,-1,-1,-1,-1,-1,-1,-1,-1,-1,-1,-1,-1,-1,-1,-1,-1,-1,-1,-1,-1,-1,-1,-1,-1,-1,-1,-1,-1,-1,-1],"split_conditions":[1.015E5,1.9442087E0,3.0251965E2,2.014E3,2.6025802E-1,2.015E3,1.9049984E0,6.645299E-1,9.4580644E-1,1.16846176E2,6.61E4,1.365E5,6.537167E-1,5.8637743E0,6.8943745E-1,5.81E0,1.4197773E0,3.1167832E3,1.6702383E0,8.0091745E-1,1.0047113E2,1E0,6.839959E-1,3.1626895E3,7.494182E2,1.0522993E3,4.352E1,1.4769427E-1,1.47E5,5.8637743E0,8.6440676E-1,9.9527594E2,1.69E4,8.229038E-1,9.364575E-1,2.3230137E3,1.3601848E3,1.0096052E0,2.021E3,-1.2296257E-1,1.2241186E0,8.004152E2,1.6937251E0,7.507329E2,3.0700862E-1,4.6807834E2,1.243721E-1,1E0,7.5987146E2,4.8201376E2,1.7448071E2,5.1754087E3,2.2079176E-1,1.0473665E3,6.719E1,-1.9435549E0,1.168729E3,2.007E3,7.5188005E-1,1.6816546E-1,2.7136467E0,8.9162564E-1,1.1584677E0,-2.1976903E-1,-1.7456986E0,-1.6794983E0,-8.550928E-1,1.1071793E0,4.4807163E-1,-6.714096E-2,4.5602417E-1,-9.570408E-1,2.1632175E-1,-6.410895E-1,-1.767222E0,9.6126E-3,6.924191E-1,-1.3228302E0,2.2610186E-1,4.4795066E-1,-1.6982429E-1,-9.523278E-2,-8.226663E-1,-1.7275219E0,-3.4900868E0,-4.1556308E-1,-2.0900235E0,-2.201378E0,-7.689239E-1,6.32015E-1,-1.6618648E-1,-2.748676E-1,1.0867032E0,6.0862887E-1,1.0788237E-1,4.786051E-1,1.1723909E0,7.4322623E-1,-2.081265E-2,1.2682603E-1,1.1577824E0,1.1783957E0,1.6440119E0,5.5046356E-1,1.6050147E0,-6.370672E-3,-7.4644434E-1,-5.835058E-1,6.2155392E-2,-7.6158303E-1,5.6638235E-1,-2.8878002E0,-1.6464484E0,-7.4472183E-1,-1.6017907E0,-3.909055E-1,4.8212177E-1],"split_indices":[30,3,2,31,17,31,3,27,29,22,30,30,17,26,27,12,4,0,4,29,18,35,27,0,8,7,11,16,30,26,27,5,30,9,27,0,1,3,31,0,0,8,9,8,17,5,0,36,8,1,18,20,16,7,11,0,7,31,9,27,4,29,0,0,0,0,0,0,0,0,0,0,0,0,0,0,0,0,0,0,0,0,0,0,0,0,0,0,0,0,0,0,0,0,0,0,0,0,0,0,0,0,0,0,0,0,0,0,0,0,0,0,0,0,0,0,0],"split_type":[0,0,0,0,0,0,0,0,0,0,0,0,0,0,0,0,0,0,0,0,0,0,0,0,0,0,0,0,0,0,0,0,0,0,0,0,0,0,0,0,0,0,0,0,0,0,0,0,0,0,0,0,0,0,0,0,0,0,0,0,0,0,0,0,0,0,0,0,0,0,0,0,0,0,0,0,0,0,0,0,0,0,0,0,0,0,0,0,0,0,0,0,0,0,0,0,0,0,0,0,0,0,0,0,0,0,0,0,0,0,0,0,0,0,0,0,0],"sum_hessian":[5.056E3,2.887E3,2.169E3,2.655E3,2.32E2,1.522E3,6.47E2,1.366E3,1.289E3,3.8E1,1.94E2,6.96E2,8.26E2,4.85E2,1.62E2,1.24E3,1.26E2,6.89E2,6E2,1.6E1,2.2E1,1.33E2,6.1E1,2.38E2,4.58E2,2.22E2,6.04E2,2.3E1,4.62E2,1.27E2,3.5E1,4.05E2,8.35E2,3.7E1,8.9E1,4.55E2,2.34E2,5.48E2,5.2E1,5E0,1.1E1,1.1E1,1.1E1,1.15E2,1.8E1,5.5E1,6E0,1.49E2,8.9E1,3.4E2,1.18E2,2.8E1,1.94E2,4.31E2,1.73E2,9E0,1.4E1,2.26E2,2.36E2,1.3E1,1.14E2,1.9E1,1.6E1,3.69E2,3.6E1,1.56E2,6.79E2,6E0,3.1E1,6.5E1,2.4E1,7E1,3.85E2,2.03E2,3.1E1,1.31E2,4.17E2,2.9E1,2.3E1,6E0,5E0,5E0,6E0,1.3E1,1.02E2,5E0,1.3E1,4E1,1.5E1,1.16E2,3.3E1,8.1E1,8E0,2.89E2,5.1E1,3.2E1,8.6E1,1.1E1,1.7E1,1.1E1,1.83E2,9.4E1,3.37E2,8.2E1,9.1E1,5E0,9E0,4.9E1,1.77E2,1.2E1,2.24E2,7E0,6E0,6.9E1,4.5E1,5E0,1.4E1],"tree_param":{"num_deleted":"0","num_feature":"37","num_nodes":"117","size_leaf_vector":"1"}},{"base_weights":[-4.7490425E-2,-1.24366865E1,8.698578E0,-1.0323576E1,-5.672557E1,1.4794669E1,-4.389423E0,-1.7343653E1,-2.917715E0,-6.177359E1,-2.0132404E1,6.2469816E0,2.2251272E1,-7.607826E0,1.0591837E1,4.758284E0,-1.9018467E1,-8.206209E-1,-2.3483421E1,-1.0983992E0,-6.5726616E1,-4.2685863E-1,-1.442579E0,9.136941E0,-8.8523245E0,7.662439E0,2.4085913E1,-4.669527E0,-3.1758226E1,3.9437351E0,1.6659704E1,1.1008588E0,1.6741516E1,-5.0737404E1,-1.775387E1,-6.1076565E0,6.4725776E0,5.4974265E0,-3.956764E1,-1.3998317E0,-6.802166E1,1.0075485E1,-1.3468354E1,-1.801865E1,-1.0150341E0,1.4015071E1,-4.3346076E0,2.0255194E1,2.7642994E1,6.3885975E0,-8.503963E0,-3.7310165E1,-2.0521063E1,7.1077547E0,-9.354328E0,3.7477698E0,1.9973719E1,1.0814154E0,-1.1027751E-1,1.0498142E0,4.665184E-1,-1.478404E0,-3.1432393E0,-5.1476187E-1,-1.0513968E0,-5.111887E-2,-7.7148515E-1,4.592758E-1,-1.3281651E-1,5.883313E-1,-2.52631E-1,-3.3379743E0,-1.3809664E0,-3.5135486E0,-1.6158612E0,6.1527884E-1,8.768469E-2,-1.3172503E0,-9.947847E-2,-1.1823442E0,-3.1229588E-1,3.1398126E-1,-2.322119E-1,2.312402E-1,1.0254918E0,-6.070313E-1,1.403904E-2,8.876624E-1,1.4548167E0,1.477047E0,1.0528691E0,-4.3535313E-1,4.6825695E-1,-1.1089085E0,-2.3890917E-1,-2.032504E0,-6.303445E-1,-1.3053209E0,-4.2501625E-1,7.2797316E-1,2.3152979E-1,1.3897094E-2,-1.088919E0,5.245333E-1,-5.2990407E-2,7.3458785E-1,1.1948031E0],"categories":[],"categories_nodes":[],"categories_segments":[],"categories_sizes":[],"default_left":[0,0,0,0,0,0,0,0,0,0,0,0,0,0,0,0,0,0,0,0,0,0,0,0,0,0,0,0,0,0,0,0,0,0,0,0,0,0,0,0,0,0,0,0,0,0,0,0,0,0,0,0,0,0,0,0,0,0,0,0,0,0,0,0,0,0,0,0,0,0,0,0,0,0,0,0,0,0,0,0,0,0,0,0,0,0,0,0,0,0,0,0,0,0,0,0,0,0,0,0,0,0,0,0,0,0,0],"id":8,"left_children":[1,3,5,7,9,11,13,15,17,19,21,23,25,27,29,31,33,35,37,-1,39,-1,-1,41,43,45,47,49,51,53,55,57,59,61,63,65,67,69,71,-1,73,75,77,79,81,83,85,87,89,91,93,95,97,99,101,103,105,-1,-1,-1,-1,-1,-1,-1,-1,-1,-1,-1,-1,-1,-1,-1,-1,-1,-1,-1,-1,-1,-1,-1,-1,-1,-1,-1,-1,-1,-1,-1,-1,-1,-1,-1,-1,-1,-1,-1,-1,-1,-1,-1,-1,-1,-1,-1,-1,-1,-1],"loss_changes":[5.4752656E5,1.951054E5,2.3638997E5,1.03772875E5,1.63050625E4,1.2867291E5,4.5499805E4,3.803253E4,4.1944484E4,1.1616406E4,1.068E3,4.1229984E4,2.8695188E4,5.4917523E4,6.671047E3,3.1809976E3,3.7325656E4,3.4126043E4,4.2169598E4,0E0,4.59E3,0E0,0E0,1.6938836E4,1.0901264E4,9.358713E3,1.24939375E4,2.9438691E4,4.474953E3,3.4745898E3,3.6479004E3,3.9164146E3,3.4015332E2,7.3834375E3,2.2201125E4,2.4303096E4,9.237417E3,2.2420835E3,1.7000156E4,0E0,3.3507812E3,1.4101328E4,4.6774507E3,4.4904785E3,2.22649E3,4.7841533E3,1.5526042E3,9.769266E3,5.5525312E3,8.1245234E3,2.6131781E4,4.0254062E3,1.7922891E3,1.1508794E3,1.9208026E3,6.27041E2,1.0784453E3,0E0,0E0,0E0,0E0,0E0,0E0,0E0,0E0,0E0,0E0,0E0,0E0,0E0,0E0,0E0,0E0,0E0,0E0,0E0,0E0,0E0,0E0,0E0,0E0,0E0,0E0,0E0,0E0,0E0,0E0,0E0,0E0,0E0,0E0,0E0,0E0,0E0,0E0,0E0,0E0,0E0,0E0,0E0,0E0,0E0,0E0,0E0,0E0,0E0,0E0],"parents":[2147483647,0,0,1,1,2,2,3,3,4,4,5,5,6,6,7,7,8,8,9,9,10,10,11,11,12,12,13,13,14,14,15,15,16,16,17,17,18,18,20,20,23,23,24,24,25,25,26,26,27,27,28,28,29,29,30,30,31,31,32,32,33,33,34,34,35,35,36,36,37,37,38,38,40,40,41,41,42,42,43,43,44,44,45,45,46,46,47,47,48,48,49,49,50,50,51,51,52,52,53,53,54,54,55,55,56,56],"right_children":[2,4,6,8,10,12,14,16,18,20,22,24,26,28,30,32,34,36,38,-1,40,-1,-1,42,44,46,48,50,52,54,56,58,60,62,64,66,68,70,72,-1,74,76,78,80,82,84,86,88,90,92,94,96,98,100,102,104,106,-1,-1,-1,-1,-1,-1,-1,-1,-1,-1,-1,-1,-1,-1,-1,-1,-1,-1,-1,-1,-1,-1,-1,-1,-1,-1,-1,-1,-1,-1,-1,-1,-1,-1,-1,-1,-1,-1,-1,-1,-1,-1,-1,-1,-1,-1,-1,-1,-1,-1],"split_conditions":[6.98E4,2.2898362E3,2.960245E2,2.014E3,9.673913E-1,2.015E3,6.645299E-1,2.6025802E-1,1.6702383E0,3.6042337E2,1.6015889E2,1E0,2.0932532E2,2.672974E0,8.356661E-1,8.1209165E-1,1.3108462E-1,9.4580644E-1,2.6025802E-1,-1.0983992E0,7.5296515E2,-4.2685863E-1,-1.442579E0,9.177639E2,7.9646015E-1,5.5730854E3,1.42E5,1.0600354E3,9.658385E-1,1.181764E3,1.34E5,2.2521445E3,1.35923E0,1.24648445E2,5.91E0,1E0,8.4535004E2,4.156E1,1.0152106E-1,-1.3998317E0,7.9901306E2,5.504982E2,9.721254E-1,2.0932532E2,6.38E0,3.7956274E-1,1.1954741E2,2.021E3,3.189E1,5.901102E-1,9.2753625E-1,8.752246E1,1.613279E0,1.5083764E0,1.900782E3,1.7443156E0,8.869361E-1,1.0814154E0,-1.1027751E-1,1.0498142E0,4.665184E-1,-1.478404E0,-3.1432393E0,-5.1476187E-1,-1.0513968E0,-5.111887E-2,-7.7148515E-1,4.592758E-1,-1.3281651E-1,5.883313E-1,-2.52631E-1,-3.3379743E0,-1.3809664E0,-3.5135486E0,-1.6158612E0,6.1527884E-1,8.768469E-2,-1.3172503E0,-9.947847E-2,-1.1823442E0,-3.1229588E-1,3.1398126E-1,-2.322119E-1,2.312402E-1,1.0254918E0,-6.070313E-1,1.403904E-2,8.876624E-1,1.4548167E0,1.477047E0,1.0528691E0,-4.3535313E-1,4.6825695E-1,-1.1089085E0,-2.3890917E-1,-2.032504E0,-6.303445E-1,-1.3053209E0,-4.2501625E-1,7.2797316E-1,2.3152979E-1,1.3897094E-2,-1.088919E0,5.245333E-1,-5.2990407E-2,7.3458785E-1,1.1948031E0],"split_indices":[30,2,2,31,29,31,27,17,4,5,18,36,19,4,27,24,16,29,17,0,8,0,0,5,29,20,30,7,29,7,30,20,9,18,12,34,5,13,16,0,8,1,29,19,11,24,22,31,12,16,29,26,9,4,1,4,27,0,0,0,0,0,0,0,0,0,0,0,0,0,0,0,0,0,0,0,0,0,0,0,0,0,0,0,0,0,0,0,0,0,0,0,0,0,0,0,0,0,0,0,0,0,0,0,0,0,0],"split_type":[0,0,0,0,0,0,0,0,0,0,0,0,0,0,0,0,0,0,0,0,0,0,0,0,0,0,0,0,0,0,0,0,0,0,0,0,0,0,0,0,0,0,0,0,0,0,0,0,0,0,0,0,0,0,0,0,0,0,0,0,0,0,0,0,0,0,0,0,0,0,0,0,0,0,0,0,0,0,0,0,0,0,0,0,0,0,0,0,0,0,0,0,0,0,0,0,0,0,0,0,0,0,0,0,0,0,0],"sum_hessian":[5.051E3,2.09E3,2.961E3,1.996E3,9.4E1,2.02E3,9.41E2,1.024E3,9.72E2,8.2E1,1.2E1,9.42E2,1.078E3,7.75E2,1.66E2,7.2E1,9.52E2,8.83E2,8.9E1,8E0,7.4E1,6E0,6E0,7.91E2,1.51E2,1.21E2,9.57E2,6.92E2,8.3E1,8E1,8.6E1,5.6E1,1.6E1,3.5E1,9.17E2,5.12E2,3.71E2,3.2E1,5.7E1,5E0,6.9E1,7.6E2,3.1E1,6.9E1,8.2E1,7.9E1,4.2E1,4.64E2,4.93E2,1.78E2,5.14E2,5.4E1,2.9E1,6.5E1,1.5E1,1.8E1,6.8E1,7E0,4.9E1,9E0,7E0,1.4E1,2.1E1,2.81E2,6.36E2,3.32E2,1.8E2,2.86E2,8.5E1,2E1,1.2E1,1.6E1,4.1E1,6.4E1,5E0,5.99E2,1.61E2,1.4E1,1.7E1,4.6E1,2.3E1,2.7E1,5.5E1,3.3E1,4.6E1,1.5E1,2.7E1,3.64E2,1E2,3.8E2,1.13E2,2.9E1,1.49E2,1.09E2,4.05E2,4.7E1,7E0,1.9E1,1E1,1.5E1,5E1,9E0,6E0,7E0,1.1E1,3.1E1,3.7E1],"tree_param":{"num_deleted":"0","num_feature":"37","num_nodes":"107","size_leaf_vector":"1"}},{"base_weights":[-6.3650325E-2,-8.640751E0,1.1773592E1,-6.216637E0,-3.784355E1,1.7222868E1,-1.2903099E0,-1.3116265E1,9.9704444E-1,4.1312947E0,-4.62156E1,9.26017E0,2.4087702E1,3.243945E0,-1.407845E1,-1.5107955E1,2.2107954E0,-3.093091E0,1.1268806E1,1.1867858E0,-1.0611784E0,-5.4561893E1,-2.4803144E1,1.007933E1,-9.124652E0,1.8129787E1,2.6222353E1,-2.2040092E1,4.4433107E0,-2.1408247E1,1.3339327E1,-2.6945444E1,-1.2366485E1,9.637527E0,-9.91829E-1,-1.9878088E1,-1.1870075E0,1.3493517E1,-4.1681495E0,-8.1426924E-1,3.2440467E0,-8.073679E-1,-5.656788E1,-2.8652132E1,2.5666112E-1,9.746374E-1,1.1085934E1,-1.2448701E1,3.1231627E-1,2.0395508E1,7.764013E0,2.8370283E1,2.0616926E1,-1.8697073E0,-7.4083734E0,-1.2189208E0,9.618474E0,8.378254E0,-2.398172E1,1.1008072E-1,1.9398146E1,-1.7220656E0,-9.6402264E-1,-5.03253E-1,-1.1097624E0,1.0166577E0,3.6577573E-1,-9.118425E-1,7.817502E-3,6.019635E-1,-1.4217902E0,-9.475566E-2,1.7854338E0,3.0909666E-1,8.679792E-1,-8.005474E-1,5.896039E-2,7.022127E-1,-7.910881E-3,-5.5526036E-1,-2.9177363E0,-1.8124508E0,-6.9884145E-1,-1.10048E0,2.0114791E-1,4.8197985E-1,8.69424E-1,-8.7814057E-1,3.0706692E-2,2.3909349E-3,1.0946602E0,-1.5689172E-2,6.8741006E-1,1.0138713E0,1.5301542E0,5.139555E-1,1.4942994E0,-4.7114816E-2,-5.9461933E-1,-6.13333E-1,7.996274E-2,-5.1698816E-1,5.4308885E-1,-3.3476537E-1,1.1027721E0,-2.1943488E0,-8.8314646E-1,-4.2174324E-1,3.7092972E-1,6.126923E-1,1.225036E0],"categories":[],"categories_nodes":[],"categories_segments":[],"categories_sizes":[],"default_left":[0,0,0,0,0,0,0,0,0,0,0,0,0,0,0,0,0,0,0,0,0,0,0,0,0,0,0,0,0,0,0,0,0,0,0,0,0,0,0,0,0,0,0,0,0,0,0,0,0,0,0,0,0,0,0,0,0,0,0,0,0,0,0,0,0,0,0,0,0,0,0,0,0,0,0,0,0,0,0,0,0,0,0,0,0,0,0,0,0,0,0,0,0,0,0,0,0,0,0,0,0,0,0,0,0,0,0,0,0,0,0],"id":9,"left_children":[1,3,5,7,9,11,13,15,17,19,21,23,25,27,29,31,33,35,37,-1,39,41,43,45,47,49,51,53,55,57,59,61,63,65,67,69,71,73,75,-1,77,-1,79,81,-1,83,85,87,-1,89,91,93,95,-1,97,99,101,103,105,107,109,-1,-1,-1,-1,-1,-1,-1,-1,-1,-1,-1,-1,-1,-1,-1,-1,-1,-1,-1,-1,-1,-1,-1,-1,-1,-1,-1,-1,-1,-1,-1,-1,-1,-1,-1,-1,-1,-1,-1,-1,-1,-1,-1,-1,-1,-1,-1,-1,-1,-1],"loss_changes":[5.098799E5,2.0590786E5,1.502306E5,1.3389903E5,7.855653E4,8.116956E4,3.611215E4,4.200767E4,5.532382E4,3.8934143E3,3.1887656E4,1.0498523E4,9.6863125E3,1.4047342E4,3.304315E4,3.9161E4,3.7913796E3,3.011438E4,1.2934781E4,0E0,2.084683E3,9.3354375E3,6.369215E3,6.056297E3,1.6105747E3,4.8676406E3,6.4705625E3,4.44075E3,1.2905031E4,1.0089391E4,2.8032407E3,1.2435859E4,2.2170562E4,1.0433511E3,2.220493E3,2.6563758E4,2.2196428E4,9.164285E3,3.058609E3,0E0,9.2085095E2,0E0,9.5875625E3,4.844707E3,0E0,4.782786E3,5.2652734E3,1.6809055E3,0E0,5.3320234E3,1.9378765E3,6.9867812E3,1.5599234E4,0E0,3.367215E2,6.58899E3,5.8195605E3,2.415471E3,1.4192305E4,8.119851E2,5.746748E2,0E0,0E0,0E0,0E0,0E0,0E0,0E0,0E0,0E0,0E0,0E0,0E0,0E0,0E0,0E0,0E0,0E0,0E0,0E0,0E0,0E0,0E0,0E0,0E0,0E0,0E0,0E0,0E0,0E0,0E0,0E0,0E0,0E0,0E0,0E0,0E0,0E0,0E0,0E0,0E0,0E0,0E0,0E0,0E0,0E0,0E0,0E0,0E0,0E0,0E0],"parents":[2147483647,0,0,1,1,2,2,3,3,4,4,5,5,6,6,7,7,8,8,9,9,10,10,11,11,12,12,13,13,14,14,15,15,16,16,17,17,18,18,20,20,21,21,22,22,23,23,24,24,25,25,26,26,27,27,28,28,29,29,30,30,31,31,32,32,33,33,34,34,35,35,36,36,37,37,38,38,40,40,42,42,43,43,45,45,46,46,47,47,49,49,50,50,51,51,52,52,54,54,55,55,56,56,57,57,58,58,59,59,60,60],"right_children":[2,4,6,8,10,12,14,16,18,20,22,24,26,28,30,32,34,36,38,-1,40,42,44,46,48,50,52,54,56,58,60,62,64,66,68,70,72,74,76,-1,78,-1,80,82,-1,84,86,88,-1,90,92,94,96,-1,98,100,102,104,106,108,110,-1,-1,-1,-1,-1,-1,-1,-1,-1,-1,-1,-1,-1,-1,-1,-1,-1,-1,-1,-1,-1,-1,-1,-1,-1,-1,-1,-1,-1,-1,-1,-1,-1,-1,-1,-1,-1,-1,-1,-1,-1,-1,-1,-1,-1,-1,-1,-1,-1,-1],"split_conditions":[1.04E5,1.9442087E0,3.0251965E2,2.014E3,2.6025802E-1,2.015E3,1.8810147E0,5.718504E-1,2.4160196E2,4.5247246E3,7.4E4,3.5200657E3,6.537167E-1,5.8637743E0,6.8943745E-1,1.82E4,1.43177E0,1.5701571E1,1.0127718E3,1.1867858E0,9.3E3,7.1405695E2,6.645299E-1,1.15E5,5.1209104E-1,3.418026E3,4.352E1,1.4769427E-1,1.47E5,3.0980355E-1,9.3235296E-1,8.9453125E-1,1.6394941E0,8.229038E-1,1.0643981E2,2.5666898E-1,8.9932495E-1,9.649123E-1,5.622753E-2,-8.1426924E-1,1.16846176E2,-8.073679E-1,1.1009845E2,7.6686295E1,2.5666112E-1,1.7897806E2,2.798895E2,4.9131435E1,3.1231627E-1,2.2079176E-1,1.6817424E2,1.0473665E3,6.719E1,-1.8697073E0,9.004138E2,6.9316956E-3,7.627989E-1,1.2105439E-1,8.9162564E-1,8.2945734E-1,8.695652E-1,-1.7220656E0,-9.6402264E-1,-5.03253E-1,-1.1097624E0,1.0166577E0,3.6577573E-1,-9.118425E-1,7.817502E-3,6.019635E-1,-1.4217902E0,-9.475566E-2,1.7854338E0,3.0909666E-1,8.679792E-1,-8.005474E-1,5.896039E-2,7.022127E-1,-7.910881E-3,-5.5526036E-1,-2.9177363E0,-1.8124508E0,-6.9884145E-1,-1.10048E0,2.0114791E-1,4.8197985E-1,8.69424E-1,-8.7814057E-1,3.0706692E-2,2.3909349E-3,1.0946602E0,-1.5689172E-2,6.8741006E-1,1.0138713E0,1.5301542E0,5.139555E-1,1.4942994E0,-4.7114816E-2,-5.9461933E-1,-6.13333E-1,7.996274E-2,-5.1698816E-1,5.4308885E-1,-3.3476537E-1,1.1027721E0,-2.1943488E0,-8.8314646E-1,-4.2174324E-1,3.7092972E-1,6.126923E-1,1.225036E0],"split_indices":[30,3,2,31,17,31,3,27,23,21,30,0,17,26,27,30,4,26,1,0,30,8,27,30,27,0,11,16,30,17,29,29,4,9,22,17,24,29,24,0,22,0,18,26,0,23,19,26,0,16,18,7,11,0,10,24,9,16,29,27,27,0,0,0,0,0,0,0,0,0,0,0,0,0,0,0,0,0,0,0,0,0,0,0,0,0,0,0,0,0,0,0,0,0,0,0,0,0,0,0,0,0,0,0,0,0,0,0,0,0,0],"split_type":[0,0,0,0,0,0,0,0,0,0,0,0,0,0,0,0,0,0,0,0,0,0,0,0,0,0,0,0,0,0,0,0,0,0,0,0,0,0,0,0,0,0,0,0,0,0,0,0,0,0,0,0,0,0,0,0,0,0,0,0,0,0,0,0,0,0,0,0,0,0,0,0,0,0,0,0,0,0,0,0,0,0,0,0,0,0,0,0,0,0,0,0,0,0,0,0,0,0,0,0,0,0,0,0,0,0,0,0,0,0,0],"sum_hessian":[5.02E3,2.911E3,2.109E3,2.689E3,2.22E2,1.488E3,6.21E2,1.374E3,1.315E3,3.7E1,1.85E2,6.9E2,7.98E2,4.59E2,1.62E2,1.216E3,1.58E2,9.41E2,3.74E2,7E0,3E1,1.32E2,5.3E1,6.61E2,2.9E1,2.13E2,5.85E2,2E1,4.39E2,1.28E2,3.4E1,2.27E2,9.89E2,4.7E1,1.11E2,9.5E1,8.46E2,3.27E2,4.7E1,6E0,2.4E1,7E0,1.25E2,4.7E1,6E0,6.6E1,5.95E2,2.4E1,5E0,1.74E2,3.9E1,4.2E2,1.65E2,9E0,1.1E1,2.1E2,2.29E2,1E1,1.18E2,1.1E1,2.3E1,1.13E2,1.14E2,8.03E2,1.86E2,7E0,4E1,6E0,1.05E2,2E1,7.5E1,8.31E2,1.5E1,1.14E2,2.13E2,1.4E1,3.3E1,5E0,1.9E1,5E0,1.2E2,3E1,1.7E1,7E0,5.9E1,4.86E2,1.09E2,1.7E1,7E0,1.2E1,1.62E2,1.7E1,2.2E1,9.3E1,3.27E2,7.9E1,8.6E1,5E0,6E0,4.2E1,1.68E2,1.3E1,2.16E2,5E0,5E0,2.7E1,9.1E1,5E0,6E0,1.1E1,1.2E1],"tree_param":{"num_deleted":"0","num_feature":"37","num_nodes":"111","size_leaf_vector":"1"}},{"base_weights":[-1.5812312E-1,-1.1680043E1,8.036349E0,-7.8157606E0,-3.4891552E1,1.8166287E-1,1.6026615E1,-1.4339173E1,-1.7905897E0,5.922128E0,-4.2814854E1,3.2423968E0,-1.3104356E1,1.8777588E1,-4.4749403E0,1.040867E1,-1.5251711E1,-1.5380395E1,2.8808942E-1,1.435306E0,2.075383E0,-4.620738E1,-1.8297195E0,-4.171617E0,7.7082763E0,-2.0160381E1,5.7294E0,-1.6430122E0,1.9982157E1,-3.69472E1,5.339725E-1,-8.100486E-1,1.7443024E1,-2.6650019E1,-1.3552444E1,-3.1543741E1,-1.1143385E1,8.19101E-1,-2.100462E0,-6.2047906E0,6.7327895E0,-5.8186253E1,-3.38267E1,-8.8193893E-1,4.6158853E0,-1.634715E1,-1.5021026E0,-2.2650661E1,8.234035E0,-1.5470822E1,-3.296385E1,2.903446E-1,1.2439693E1,-1.7808834E1,2.5661318E0,-1.718783E1,2.033899E1,-2.2956195E-1,-5.389763E1,-5.879154E0,1.471336E1,1.1776261E0,5.899927E-1,-1.7173136E0,-5.9869623E-1,-6.3616014E-1,-2.0274236E0,-8.11061E-1,-2.1212103E0,-6.696897E-1,5.1123196E-1,-9.064364E-1,9.492969E-2,2.7473193E-1,-7.957431E-1,-2.0158337E-1,5.6200784E-1,-1.233889E0,-3.0399253E0,-1.4160373E0,-2.6761703E0,5.403974E-1,-3.5651993E-2,-6.712162E-1,-2.0669954E0,1.9439751E-1,-2.1786535E-1,-1.3600191E0,-6.404629E-1,4.6630841E-1,-1.7903781E-1,-1.0440192E0,-4.079384E-1,-1.9008831E0,-8.8131696E-1,1.1285553E-1,-4.298198E-1,1.1208496E-1,8.0106515E-1,-5.0924486E-1,-1.2533461E0,4.6882516E-1,-2.2837834E-1,-3.4787604E-1,-1.1750631E0,8.4521484E-1,1.1919142E0,-3.2487123E0,-1.5978302E0,4.4419494E-1,-4.6418238E-1,-1.5641968E-1,9.8100036E-1],"categories":[],"categories_nodes":[],"categories_segments":[],"categories_sizes":[],"default_left":[0,0,0,0,0,0,0,0,0,0,0,0,0,0,0,0,0,0,0,0,0,0,0,0,0,0,0,0,0,0,0,0,0,0,0,0,0,0,0,0,0,0,0,0,0,0,0,0,0,0,0,0,0,0,0,0,0,0,0,0,0,0,0,0,0,0,0,0,0,0,0,0,0,0,0,0,0,0,0,0,0,0,0,0,0,0,0,0,0,0,0,0,0,0,0,0,0,0,0,0,0,0,0,0,0,0,0,0,0,0,0,0,0],"id":10,"left_children":[1,3,5,7,9,11,13,15,17,19,21,23,25,27,29,31,33,35,37,-1,39,41,43,45,47,49,51,53,55,57,59,-1,61,63,65,67,69,71,-1,73,75,77,79,-1,81,83,85,87,89,91,93,95,97,99,101,103,105,-1,107,109,111,-1,-1,-1,-1,-1,-1,-1,-1,-1,-1,-1,-1,-1,-1,-1,-1,-1,-1,-1,-1,-1,-1,-1,-1,-1,-1,-1,-1,-1,-1,-1,-1,-1,-1,-1,-1,-1,-1,-1,-1,-1,-1,-1,-1,-1,-1,-1,-1,-1,-1,-1,-1],"loss_changes":[4.716076E5,1.8593588E5,1.8319656E5,6.9975945E4,9.597375E4,5.994199E4,8.169372E4,1.9467516E4,2.619111E4,4.23499E3,3.4398125E4,3.9698047E4,3.6793547E4,3.1419906E4,2.7995648E4,6.0852236E3,1.56180625E4,8.0720586E3,1.8115008E4,0E0,1.7000334E3,3.1993969E4,2.1193977E3,1.4634189E4,1.2125676E4,1.1558594E4,2.7702102E3,4.9448877E3,1.6332031E4,1.2366836E4,1.3726634E4,0E0,5.840073E2,1.1561531E4,1.5602156E4,3.4797324E3,4.89754E3,1.6315837E4,0E0,1.9050829E3,1.4038583E3,8.565875E3,1.09558125E4,0E0,5.0266208E2,5.362051E3,5.7265205E3,2.336665E2,9.530246E3,5.72334E3,3.4380742E3,7.70963E2,1.2059429E3,5.747241E2,2.8606497E3,6.1155005E2,1.3947719E4,0E0,1.5691289E3,5.30959E3,4.175909E3,0E0,0E0,0E0,0E0,0E0,0E0,0E0,0E0,0E0,0E0,0E0,0E0,0E0,0E0,0E0,0E0,0E0,0E0,0E0,0E0,0E0,0E0,0E0,0E0,0E0,0E0,0E0,0E0,0E0,0E0,0E0,0E0,0E0,0E0,0E0,0E0,0E0,0E0,0E0,0E0,0E0,0E0,0E0,0E0,0E0,0E0,0E0,0E0,0E0,0E0,0E0,0E0],"parents":[2147483647,0,0,1,1,2,2,3,3,4,4,5,5,6,6,7,7,8,8,9,9,10,10,11,11,12,12,13,13,14,14,15,15,16,16,17,17,18,18,20,20,21,21,22,22,23,23,24,24,25,25,26,26,27,27,28,28,29,29,30,30,32,32,33,33,34,34,35,35,36,36,37,37,39,39,40,40,41,41,42,42,44,44,45,45,46,46,47,47,48,48,49,49,50,50,51,51,52,52,53,53,54,54,55,55,56,56,58,58,59,59,60,60],"right_children":[2,4,6,8,10,12,14,16,18,20,22,24,26,28,30,32,34,36,38,-1,40,42,44,46,48,50,52,54,56,58,60,-1,62,64,66,68,70,72,-1,74,76,78,80,-1,82,84,86,88,90,92,94,96,98,100,102,104,106,-1,108,110,112,-1,-1,-1,-1,-1,-1,-1,-1,-1,-1,-1,-1,-1,-1,-1,-1,-1,-1,-1,-1,-1,-1,-1,-1,-1,-1,-1,-1,-1,-1,-1,-1,-1,-1,-1,-1,-1,-1,-1,-1,-1,-1,-1,-1,-1,-1,-1,-1,-1,-1,-1,-1],"split_conditions":[6.98E4,1.8896953E0,2.014E3,2.014E3,2.6025802E-1,8.735E1,3.3910892E2,1.1519865E2,9.3E3,2.217282E3,6.2910795E-1,1.15E5,6.425993E-1,2.5859119E3,8.392362E1,1.39E4,6.8487805E-1,6.3584906E-1,1.6809247E0,1.435306E0,8.0091745E-1,9.137931E-1,3.9883127E2,8.235294E-1,3.4883595E0,2.7792578E0,8.5910654E-1,2.2995276E3,5.103264E0,3.239724E-1,1.483E5,-8.100486E-1,7.7410835E-1,4.42E4,1.0487744E3,3.7527708E3,5.541246E-1,2.3230137E3,-2.100462E0,1.9442087E0,2.013564E0,7.154055E2,2.5018055E0,-8.8193893E-1,3.380249E-1,3.7E1,8.21303E2,2.9E1,3.5200657E3,1.5497437E0,3.4700486E-1,9.107246E1,1.34E5,7.2328633E-1,7.502132E-1,8.7701184E2,1.42E5,-2.2956195E-1,3.333014E2,1.4630562E0,1.3544005E2,1.1776261E0,5.899927E-1,-1.7173136E0,-5.9869623E-1,-6.3616014E-1,-2.0274236E0,-8.11061E-1,-2.1212103E0,-6.696897E-1,5.1123196E-1,-9.064364E-1,9.492969E-2,2.7473193E-1,-7.957431E-1,-2.0158337E-1,5.6200784E-1,-1.233889E0,-3.0399253E0,-1.4160373E0,-2.6761703E0,5.403974E-1,-3.5651993E-2,-6.712162E-1,-2.0669954E0,1.9439751E-1,-2.1786535E-1,-1.3600191E0,-6.404629E-1,4.6630841E-1,-1.7903781E-1,-1.0440192E0,-4.079384E-1,-1.9008831E0,-8.8131696E-1,1.1285553E-1,-4.298198E-1,1.1208496E-1,8.0106515E-1,-5.0924486E-1,-1.2533461E0,4.6882516E-1,-2.2837834E-1,-3.4787604E-1,-1.1750631E0,8.4521484E-1,1.1919142E0,-3.2487123E0,-1.5978302E0,4.4419494E-1,-4.6418238E-1,-1.5641968E-1,9.8100036E-1],"split_indices":[30,4,31,31,17,11,2,19,30,20,27,30,27,0,25,30,29,29,9,0,29,29,2,29,26,4,27,0,26,17,30,0,27,30,5,0,16,0,0,3,4,8,3,0,17,6,10,6,0,9,27,25,30,3,4,10,30,0,5,4,22,0,0,0,0,0,0,0,0,0,0,0,0,0,0,0,0,0,0,0,0,0,0,0,0,0,0,0,0,0,0,0,0,0,0,0,0,0,0,0,0,0,0,0,0,0,0,0,0,0,0,0,0],"split_type":[0,0,0,0,0,0,0,0,0,0,0,0,0,0,0,0,0,0,0,0,0,0,0,0,0,0,0,0,0,0,0,0,0,0,0,0,0,0,0,0,0,0,0,0,0,0,0,0,0,0,0,0,0,0,0,0,0,0,0,0,0,0,0,0,0,0,0,0,0,0,0,0,0,0,0,0,0,0,0,0,0,0,0,0,0,0,0,0,0,0,0,0,0,0,0,0,0,0,0,0,0,0,0,0,0,0,0,0,0,0,0,0,0],"sum_hessian":[4.993E3,2.075E3,2.918E3,1.78E3,2.95E2,1.472E3,1.446E3,8.54E2,9.26E2,4.8E1,2.47E2,1.197E3,2.75E2,1.275E3,1.71E2,3E1,8.24E2,1.22E2,8.04E2,6E0,4.2E1,2.28E2,1.9E1,4.5E2,7.47E2,2E2,7.5E1,7.1E1,1.204E3,2.2E1,1.49E2,6E0,2.4E1,1.05E2,7.19E2,2.4E1,9.8E1,7.95E2,9E0,1.5E1,2.7E1,1.14E2,1.14E2,5E0,1.4E1,8E1,3.7E2,1.2E1,7.35E2,1.48E2,5.2E1,4.2E1,3.3E1,1.4E1,5.7E1,1.1E1,1.193E3,8E0,1.4E1,1.03E2,4.6E1,1E1,1.4E1,6.8E1,3.7E1,6.99E2,2E1,1.1E1,1.3E1,8.9E1,9E0,4.2E1,7.53E2,7E0,8E0,8E0,1.9E1,9E0,1.05E2,9.1E1,2.3E1,6E0,8E0,7.3E1,7E0,1.28E2,2.42E2,7E0,5E0,6.73E2,6.2E1,8.4E1,6.4E1,3.8E1,1.4E1,3.5E1,7E0,9E0,2.4E1,8E0,6E0,2.9E1,2.8E1,5E0,6E0,6.05E2,5.88E2,8E0,6E0,1.9E1,8.4E1,1E1,3.6E1],"tree_param":{"num_deleted":"0","num_feature":"37","num_nodes":"113","size_leaf_vector":"1"}},{"base_weights":[-1.7429999E-1,-8.2787075E0,7.6755204E0,-6.625179E0,-5.0399124E1,-3.391213E-1,1.656694E1,-8.150838E0,1.4256979E1,-6.0858463E1,-2.7517267E1,1.2991091E0,-2.0235477E1,-3.0592418E0,1.7962818E1,-1.3366509E1,-2.8709173E0,5.875348E0,2.5188904E1,-3.1482913E0,-1.5172113E0,-2.7075183E-1,-3.4969563E1,-2.7851164E1,2.3199875E0,-2.7563269E1,4.7283177E0,7.1326184E0,-1.8888422E1,1.9253826E1,8.2607424E-1,-1.623925E1,5.6219773E0,4.6655223E-1,-1.4002032E1,8.4817915E0,-9.6969384E-1,7.445637E-1,1.3048358E0,-2.2485864E0,-9.9848855E-1,-3.256483E1,1.8464388E-2,6.131276E0,-3.0680299E0,-3.7156902E1,-1.6770906E1,-1.83673E0,9.044003E-1,-1.2326548E1,1.2937166E1,-1.4170799E0,-1.3303269E1,1.9788656E1,4.4568583E-1,6.0750012E0,-1.0964565E1,3.6659226E-1,-8.698818E-1,1.3623265E-2,4.7603846E-1,-1.5028976E0,6.3900314E-2,-1.5122683E0,-2.1350203E-1,3.063507E-1,9.1269153E-1,-3.963308E-1,-1.8614126E0,3.9649507E-1,-1.7072137E-1,-2.8521976E-1,5.9209883E-1,-2.061457E0,-9.0484124E-1,-5.0507206E-1,-1.1995381E0,-5.3481394E-1,1.3730526E-1,-8.724074E-1,-2.1484616E-1,2.4871759E-1,9.432072E-1,3.0015279E-2,-9.9158126E-1,9.188617E-1,1.306802E0,-5.870368E-1,2.705391E-1,4.6605927E-1,-4.0261123E-1,-1.2092577E0,-2.2398023E-1],"categories":[],"categories_nodes":[],"categories_segments":[],"categories_sizes":[],"default_left":[0,0,0,0,0,0,0,0,0,0,0,0,0,0,0,0,0,0,0,0,0,0,0,0,0,0,0,0,0,0,0,0,0,0,0,0,0,0,0,0,0,0,0,0,0,0,0,0,0,0,0,0,0,0,0,0,0,0,0,0,0,0,0,0,0,0,0,0,0,0,0,0,0,0,0,0,0,0,0,0,0,0,0,0,0,0,0,0,0,0,0,0,0],"id":11,"left_children":[1,3,5,7,9,11,13,15,17,19,21,23,25,27,29,31,33,35,37,-1,-1,-1,39,41,43,45,47,49,51,53,55,57,59,61,63,65,-1,-1,-1,-1,-1,67,-1,69,71,73,75,77,-1,79,81,-1,83,85,87,89,91,-1,-1,-1,-1,-1,-1,-1,-1,-1,-1,-1,-1,-1,-1,-1,-1,-1,-1,-1,-1,-1,-1,-1,-1,-1,-1,-1,-1,-1,-1,-1,-1,-1,-1,-1,-1],"loss_changes":[3.1885406E5,1.7141636E5,1.8143753E5,7.574962E4,2.0582953E4,4.370334E4,3.3121562E4,6.090397E4,1.4695637E4,2.1405469E3,4.9167207E3,3.6935867E4,1.878914E4,1.3202355E4,2.49175E4,6.0804344E4,4.0908414E4,6.2897354E3,2.6576953E2,0E0,0E0,0E0,2.552627E3,5.5989395E3,2.4620088E4,7.556336E3,2.1381904E3,5.807054E3,1.3124814E3,1.05331875E4,5.017666E3,2.6530922E4,3.063331E3,2.1042723E4,4.0023164E4,1.8440913E3,0E0,0E0,0E0,0E0,0E0,3.841254E3,0E0,1.20798125E4,1.9603734E4,2.4361875E3,1.6356094E3,7.196046E2,0E0,4.1852087E2,1.7467847E3,0E0,2.0087896E3,8.648719E3,1.8787292E3,2.6431926E3,2.0350349E3,0E0,0E0,0E0,0E0,0E0,0E0,0E0,0E0,0E0,0E0,0E0,0E0,0E0,0E0,0E0,0E0,0E0,0E0,0E0,0E0,0E0,0E0,0E0,0E0,0E0,0E0,0E0,0E0,0E0,0E0,0E0,0E0,0E0,0E0,0E0,0E0],"parents":[2147483647,0,0,1,1,2,2,3,3,4,4,5,5,6,6,7,7,8,8,9,9,10,10,11,11,12,12,13,13,14,14,15,15,16,16,17,17,18,18,22,22,23,23,24,24,25,25,26,26,27,27,28,28,29,29,30,30,31,31,32,32,33,33,34,34,35,35,41,41,43,43,44,44,45,45,46,46,47,47,49,49,50,50,52,52,53,53,54,54,55,55,56,56],"right_children":[2,4,6,8,10,12,14,16,18,20,22,24,26,28,30,32,34,36,38,-1,-1,-1,40,42,44,46,48,50,52,54,56,58,60,62,64,66,-1,-1,-1,-1,-1,68,-1,70,72,74,76,78,-1,80,82,-1,84,86,88,90,92,-1,-1,-1,-1,-1,-1,-1,-1,-1,-1,-1,-1,-1,-1,-1,-1,-1,-1,-1,-1,-1,-1,-1,-1,-1,-1,-1,-1,-1,-1,-1,-1,-1,-1,-1,-1],"split_conditions":[1.6734116E2,4.047893E3,2.014E3,7.076068E-1,9.433962E-1,2.2683165E0,5.179802E-1,2.014E3,2.015E3,7.9901306E2,3.9767463E3,7.113402E-1,5.155321E-1,1.7448071E2,1.08607E3,7.1758664E-1,9.679646E2,5.995E1,7.354984E-1,-3.1482913E0,-1.5172113E0,-2.7075183E-1,9.694657E-1,5.003667E-1,3.2747307E3,1E0,8.4276414E-1,2.4464016E3,2.3230137E3,3.7204233E3,1.7443156E0,2.6025802E-1,8.6206895E-1,9.977651E2,2.4069183E-1,2.008E1,-9.6969384E-1,7.445637E-1,1.3048358E0,-2.2485864E0,-9.9848855E-1,2.7E-1,1.8464388E-2,1E0,6.5591395E-1,3.9027596E-1,2.7136467E0,8.818182E-1,9.044003E-1,7.113402E-1,4.759393E-1,-1.4170799E0,7.295082E-1,2.021E3,1.0473665E3,9.041967E1,1.3114273E1,3.6659226E-1,-8.698818E-1,1.3623265E-2,4.7603846E-1,-1.5028976E0,6.3900314E-2,-1.5122683E0,-2.1350203E-1,3.063507E-1,9.1269153E-1,-3.963308E-1,-1.8614126E0,3.9649507E-1,-1.7072137E-1,-2.8521976E-1,5.9209883E-1,-2.061457E0,-9.0484124E-1,-5.0507206E-1,-1.1995381E0,-5.3481394E-1,1.3730526E-1,-8.724074E-1,-2.1484616E-1,2.4871759E-1,9.432072E-1,3.0015279E-2,-9.9158126E-1,9.188617E-1,1.306802E0,-5.870368E-1,2.705391E-1,4.6605927E-1,-4.0261123E-1,-1.2092577E0,-2.2398023E-1],"split_indices":[18,1,31,16,29,3,17,31,31,8,20,29,27,18,1,27,1,12,16,0,0,0,29,16,0,33,27,0,0,0,4,17,27,7,24,13,0,0,0,0,0,12,0,36,27,27,4,29,0,29,17,0,29,31,7,25,26,0,0,0,0,0,0,0,0,0,0,0,0,0,0,0,0,0,0,0,0,0,0,0,0,0,0,0,0,0,0,0,0,0,0,0,0],"split_type":[0,0,0,0,0,0,0,0,0,0,0,0,0,0,0,0,0,0,0,0,0,0,0,0,0,0,0,0,0,0,0,0,0,0,0,0,0,0,0,0,0,0,0,0,0,0,0,0,0,0,0,0,0,0,0,0,0,0,0,0,0,0,0,0,0,0,0,0,0,0,0,0,0,0,0,0,0,0,0,0,0,0,0,0,0,0,0,0,0,0,0,0,0],"sum_hessian":[5.01E3,2.465E3,2.545E3,2.373E3,9.2E1,1.339E3,1.206E3,2.212E3,1.61E2,6.2E1,3E1,1.238E3,1.01E2,8E1,1.126E3,1.112E3,1.1E3,9.2E1,6.9E1,5.7E1,5E0,8E0,2.2E1,4.1E1,1.197E3,7.8E1,2.3E1,4.9E1,3.1E1,1.047E3,7.9E1,9.66E2,1.46E2,8.47E2,2.53E2,8.4E1,8E0,7E0,6.2E1,1.2E1,1E1,3.5E1,6E0,7.01E2,4.96E2,4E1,3.8E1,1.6E1,7E0,1.1E1,3.8E1,1E1,2.1E1,1.018E3,2.9E1,5.5E1,2.4E1,4.5E1,9.21E2,6.2E1,8.4E1,2.1E1,8.26E2,9.4E1,1.59E2,6.9E1,1.5E1,6E0,2.9E1,5.9E2,1.11E2,4.22E2,7.4E1,3.2E1,8E0,2.1E1,1.7E1,5E0,1.1E1,6E0,5E0,1.7E1,2.1E1,7E0,1.4E1,8.36E2,1.82E2,8E0,2.1E1,4.5E1,1E1,7E0,1.7E1],"tree_param":{"num_deleted":"0","num_feature":"37","num_nodes":"93","size_leaf_vector":"1"}},{"base_weights":[-1.70328E-2,-1.0511345E1,7.091345E0,-7.2777047E0,-3.0262074E1,1.2150674E1,-3.0699906E0,-1.248596E1,-2.6314821E0,-2.25564E1,-4.81277E1,5.1527863E0,1.8221594E1,1.000696E0,-1.5896823E1,-1.39445095E1,4.1580644E0,-1.9602812E1,-1.0197074E0,1.9345825E0,-2.6206114E1,-2.7535906E1,-5.404001E1,7.505148E0,-6.2148614E0,1.1459983E1,2.1735182E1,-2.5640702E0,7.29393E0,-2.1458778E1,8.6818495E0,-6.890577E0,-1.7804272E1,3.5412014E-1,1.0534526E1,1.7668476E1,-2.7098263E1,-1.9151564E1,2.439277E-1,5.745408E0,-6.180438E-1,-2.9726246E1,8.258995E0,-2.334727E0,-1.2154092E1,-5.5820168E1,-1.3615878E0,8.290946E0,-2.2416107E1,-2.8319899E1,-4.3928795E0,4.110683E0,1.540956E1,-3.867781E-1,2.2042696E1,-1.3610829E1,-8.483477E-1,-1.7160347E1,8.776457E0,2.5250335E0,-2.4351265E1,-2.934073E0,1.4022397E1,-2.4863589E-1,-1.7513752E0,-1.4452823E0,-7.416161E-1,-8.292675E-2,6.520958E-1,6.230209E-1,2.8631136E-1,3.2817397E-1,1.2588395E0,-7.793922E-1,-2.422023E0,-5.136896E-1,-1.1965519E0,1.469625E0,-3.342354E-2,-9.604366E-2,1.1223782E0,-3.2110004E0,-1.3857608E0,7.606541E-1,-3.512839E-1,-9.838322E-1,-4.9170176E-3,-3.002753E0,-1.8807936E0,4.9134493E-1,8.11817E-2,-3.6441275E-1,-1.7065436E0,-7.2380877E-1,-1.9875463E0,-4.8493218E-1,6.318938E-2,-1.5519069E-1,4.116698E-1,6.577818E-1,1.2168587E0,1.0276188E0,1.4041789E0,-2.4493854E0,-4.2482954E-1,-3.7104353E-1,7.395333E-2,-1.0303634E0,-3.9904672E-1,-9.933133E-3,6.0835266E-1,-1.4016543E-1,7.171691E-1,-1.549922E0,-6.8452066E-1,-4.6889898E-1,1.9382964E-1,3.5054055E-1,1.0078793E0],"categories":[],"categories_nodes":[],"categories_segments":[],"categories_sizes":[],"default_left":[0,0,0,0,0,0,0,0,0,0,0,0,0,0,0,0,0,0,0,0,0,0,0,0,0,0,0,0,0,0,0,0,0,0,0,0,0,0,0,0,0,0,0,0,0,0,0,0,0,0,0,0,0,0,0,0,0,0,0,0,0,0,0,0,0,0,0,0,0,0,0,0,0,0,0,0,0,0,0,0,0,0,0,0,0,0,0,0,0,0,0,0,0,0,0,0,0,0,0,0,0,0,0,0,0,0,0,0,0,0,0,0,0,0,0,0,0,0,0],"id":12,"left_children":[1,3,5,7,9,11,13,15,17,19,21,23,25,27,29,31,33,35,37,39,41,43,45,47,49,51,53,55,57,59,61,63,65,67,69,71,73,75,77,79,-1,81,83,-1,85,87,-1,89,91,93,95,97,99,-1,101,103,105,107,109,111,113,115,117,-1,-1,-1,-1,-1,-1,-1,-1,-1,-1,-1,-1,-1,-1,-1,-1,-1,-1,-1,-1,-1,-1,-1,-1,-1,-1,-1,-1,-1,-1,-1,-1,-1,-1,-1,-1,-1,-1,-1,-1,-1,-1,-1,-1,-1,-1,-1,-1,-1,-1,-1,-1,-1,-1,-1,-1],"loss_changes":[3.7462878E5,1.2930153E5,1.5395748E5,4.2169703E4,3.8149438E4,8.4830875E4,5.2021062E4,2.0012969E4,2.5227717E4,1.8017102E4,8.860281E3,2.4915607E4,2.5171438E4,1.700117E4,3.299562E4,2.0460547E4,1.6214019E3,2.282799E4,1.9342441E4,1.5419108E3,2.1476812E4,5.6210547E3,1.5819062E3,1.8313645E4,6.319591E3,1.0618461E4,6.5415938E3,9.161789E3,1.0084238E4,1.36585625E4,2.8327354E3,1.4341774E4,1.5671719E4,1.1196852E3,1.6015552E2,1.0020698E3,1.570398E4,2.0878477E3,2.1029787E4,2.8600742E3,0E0,9.249625E3,1.9138281E3,0E0,1.1770352E3,2.3665781E3,0E0,7.685039E3,3.2956309E3,1.3235342E3,4.4841855E3,3.8921838E3,4.4890273E3,0E0,5.6888125E3,1.1343948E4,6.435709E3,3.4178613E2,7.884049E3,1.4255973E3,1.1976922E4,6.9466394E2,1.1922178E3,0E0,0E0,0E0,0E0,0E0,0E0,0E0,0E0,0E0,0E0,0E0,0E0,0E0,0E0,0E0,0E0,0E0,0E0,0E0,0E0,0E0,0E0,0E0,0E0,0E0,0E0,0E0,0E0,0E0,0E0,0E0,0E0,0E0,0E0,0E0,0E0,0E0,0E0,0E0,0E0,0E0,0E0,0E0,0E0,0E0,0E0,0E0,0E0,0E0,0E0,0E0,0E0,0E0,0E0,0E0,0E0],"parents":[2147483647,0,0,1,1,2,2,3,3,4,4,5,5,6,6,7,7,8,8,9,9,10,10,11,11,12,12,13,13,14,14,15,15,16,16,17,17,18,18,19,19,20,20,21,21,22,22,23,23,24,24,25,25,26,26,27,27,28,28,29,29,30,30,31,31,32,32,33,33,34,34,35,35,36,36,37,37,38,38,39,39,41,41,42,42,44,44,45,45,47,47,48,48,49,49,50,50,51,51,52,52,54,54,55,55,56,56,57,57,58,58,59,59,60,60,61,61,62,62],"right_children":[2,4,6,8,10,12,14,16,18,20,22,24,26,28,30,32,34,36,38,40,42,44,46,48,50,52,54,56,58,60,62,64,66,68,70,72,74,76,78,80,-1,82,84,-1,86,88,-1,90,92,94,96,98,100,-1,102,104,106,108,110,112,114,116,118,-1,-1,-1,-1,-1,-1,-1,-1,-1,-1,-1,-1,-1,-1,-1,-1,-1,-1,-1,-1,-1,-1,-1,-1,-1,-1,-1,-1,-1,-1,-1,-1,-1,-1,-1,-1,-1,-1,-1,-1,-1,-1,-1,-1,-1,-1,-1,-1,-1,-1,-1,-1,-1,-1,-1,-1],"split_conditions":[6.7E4,1.8242247E3,2.7128876E2,2.014E3,2.3549265E3,2.015E3,1.9049984E0,7.1758664E-1,1.5701571E1,2.6025802E-1,2.2683165E0,1E0,1.133E5,1.47E5,6.8943745E-1,5.91E0,1.4593135E2,2.5666898E-1,2.3230137E3,3.624759E3,4.2852534E3,1.403889E2,7.962195E2,9.493883E2,7.21754E2,1.6539362E2,2.2079176E-1,1.2392794E1,3.4883595E0,2.960889E-1,1.388E5,1.0254767E3,3E1,1.4450225E3,8.777033E2,2.018E3,1.347001E0,7.3683467E3,1.1519865E2,3.5200657E3,-6.180438E-1,1.0152106E-1,4.01E0,-2.334727E0,2.772712E3,2.4095805E2,-1.3615878E0,5.564678E2,3.4225632E3,2.1227144E2,2.009E3,2.5859119E3,2.021E3,-3.867781E-1,2.021E3,1.3108462E-1,2.007E3,5.304183E-1,1.1060795E0,2.2257037E0,1E0,4.795213E-1,8.6440676E-1,-2.4863589E-1,-1.7513752E0,-1.4452823E0,-7.416161E-1,-8.292675E-2,6.520958E-1,6.230209E-1,2.8631136E-1,3.2817397E-1,1.2588395E0,-7.793922E-1,-2.422023E0,-5.136896E-1,-1.1965519E0,1.469625E0,-3.342354E-2,-9.604366E-2,1.1223782E0,-3.2110004E0,-1.3857608E0,7.606541E-1,-3.512839E-1,-9.838322E-1,-4.9170176E-3,-3.002753E0,-1.8807936E0,4.9134493E-1,8.11817E-2,-3.6441275E-1,-1.7065436E0,-7.2380877E-1,-1.9875463E0,-4.8493218E-1,6.318938E-2,-1.5519069E-1,4.116698E-1,6.577818E-1,1.2168587E0,1.0276188E0,1.4041789E0,-2.4493854E0,-4.2482954E-1,-3.7104353E-1,7.395333E-2,-1.0303634E0,-3.9904672E-1,-9.933133E-3,6.0835266E-1,-1.4016543E-1,7.171691E-1,-1.549922E0,-6.8452066E-1,-4.6889898E-1,1.9382964E-1,3.5054055E-1,1.0078793E0],"split_indices":[30,1,2,31,2,31,3,27,26,17,3,36,30,30,27,12,22,17,0,0,0,22,8,5,10,18,16,26,26,17,30,5,11,1,10,31,3,20,19,0,0,16,14,0,2,23,0,1,0,1,31,0,31,0,31,16,31,27,3,3,33,17,27,0,0,0,0,0,0,0,0,0,0,0,0,0,0,0,0,0,0,0,0,0,0,0,0,0,0,0,0,0,0,0,0,0,0,0,0,0,0,0,0,0,0,0,0,0,0,0,0,0,0,0,0,0,0,0,0],"split_type":[0,0,0,0,0,0,0,0,0,0,0,0,0,0,0,0,0,0,0,0,0,0,0,0,0,0,0,0,0,0,0,0,0,0,0,0,0,0,0,0,0,0,0,0,0,0,0,0,0,0,0,0,0,0,0,0,0,0,0,0,0,0,0,0,0,0,0,0,0,0,0,0,0,0,0,0,0,0,0,0,0,0,0,0,0,0,0,0,0,0,0,0,0,0,0,0,0,0,0,0,0,0,0,0,0,0,0,0,0,0,0,0,0,0,0,0,0,0,0],"sum_hessian":[5.02E3,2.027E3,2.993E3,1.743E3,2.84E2,1.998E3,9.95E2,8.21E2,9.22E2,2E2,8.4E1,9.29E2,1.069E3,7.56E2,2.39E2,7.55E2,6.6E1,7.9E1,8.43E2,2.6E1,1.74E2,2E1,6.4E1,7.7E2,1.59E2,3.67E2,7.02E2,4.83E2,2.73E2,1.95E2,4.4E1,2.68E2,4.87E2,4.2E1,2.4E1,1.3E1,6.6E1,5.4E1,7.89E2,2.1E1,5E0,1.58E2,1.6E1,8E0,1.2E1,5.9E1,5E0,7.51E2,1.9E1,1.1E1,1.48E2,1.29E2,2.38E2,7E0,6.95E2,6.4E1,4.19E2,1.5E1,2.58E2,2.1E1,1.74E2,1.4E1,3E1,2.52E2,1.6E1,1.01E2,3.86E2,3.7E1,5E0,1.6E1,8E0,6E0,7E0,4.4E1,2.2E1,2E1,3.4E1,2.3E1,7.66E2,1.5E1,6E0,7E0,1.51E2,1.1E1,5E0,7E0,5E0,4.6E1,1.3E1,6.1E2,1.41E2,9E0,1E1,6E0,5E0,7.6E1,7.2E1,4.7E1,8.2E1,1.92E2,4.6E1,5.61E2,1.34E2,7E0,5.7E1,1.09E2,3.1E2,1E1,5E0,7.1E1,1.87E2,1.5E1,6E0,1.06E2,6.8E1,7E0,7E0,1.5E1,1.5E1],"tree_param":{"num_deleted":"0","num_feature":"37","num_nodes":"119","size_leaf_vector":"1"}},{"base_weights":[-1.146558E-1,-1.0384416E1,6.700213E0,-8.694171E0,-4.509544E1,1.1546882E1,-3.249051E0,-1.3931805E1,-3.1724486E0,-4.905684E1,-1.923776E1,4.9118714E0,1.7374783E1,5.689829E-1,-1.5019736E1,-1.5211205E1,3.5073311E0,-7.380009E-1,-2.016566E1,-8.497586E-1,-5.1898438E1,-4.3775707E-1,-1.2044324E0,-1.2333886E1,6.3990765E0,1.15407715E1,2.08702E1,-1.137879E0,1.3589527E1,-1.9988838E1,7.908444E0,-7.3591695E0,-1.8481623E1,-9.280189E-1,9.504113E0,-4.8687344E0,5.511047E0,6.9031243E0,-3.3788555E1,-5.5489796E1,-3.1054493E1,-2.1012815E1,-4.4125366E0,7.126684E0,-2.3633627E1,4.2938523E0,1.5108685E1,1.9350687E1,2.6871881E1,-9.208976E0,1.8827955E0,4.756111E0,1.7074677E1,3.6974988E0,-2.2641195E1,-2.8057067E0,1.30019045E1,-2.6920077E-1,-1.7410975E0,2.4803816E-1,-9.795746E-1,-3.07417E-1,1.5988992E-1,1.8942076E-1,5.4152256E-1,-5.273449E-2,-6.187794E-1,-2.2090979E-1,4.3790147E-1,1.4425997E-1,1.459525E0,-2.9402893E0,-1.0790396E0,-2.8787706E0,-1.3387872E0,-9.229461E-1,-1.8309681E0,-2.101195E0,-6.2263393E-1,5.7886827E-1,-3.477475E-1,5.030926E-1,1.8140869E-1,-4.860734E-1,-1.6628813E0,2.726545E-1,-1.0865908E0,8.8113946E-1,2.8455177E-1,1.1006364E0,7.2435415E-1,7.9921174E-1,1.4320891E0,-5.884312E-1,2.0626206E-2,1.3081296E-1,-1.494699E0,4.1637513E-1,1.0017615E-1,9.323546E-1,-3.5452653E-2,7.4436015E-1,-2.9676896E-1,-1.4587785E0,-5.1708865E-1,-4.483845E-1,1.8534946E-1,2.205369E-1,1.0121752E0],"categories":[],"categories_nodes":[],"categories_segments":[],"categories_sizes":[],"default_left":[0,0,0,0,0,0,0,0,0,0,0,0,0,0,0,0,0,0,0,0,0,0,0,0,0,0,0,0,0,0,0,0,0,0,0,0,0,0,0,0,0,0,0,0,0,0,0,0,0,0,0,0,0,0,0,0,0,0,0,0,0,0,0,0,0,0,0,0,0,0,0,0,0,0,0,0,0,0,0,0,0,0,0,0,0,0,0,0,0,0,0,0,0,0,0,0,0,0,0,0,0,0,0,0,0,0,0,0,0],"id":13,"left_children":[1,3,5,7,9,11,13,15,17,19,21,23,25,27,29,31,33,35,37,-1,39,-1,-1,41,43,45,47,49,51,53,55,57,59,61,63,65,67,69,71,73,75,77,79,81,83,85,87,89,91,93,95,97,99,101,103,105,107,-1,-1,-1,-1,-1,-1,-1,-1,-1,-1,-1,-1,-1,-1,-1,-1,-1,-1,-1,-1,-1,-1,-1,-1,-1,-1,-1,-1,-1,-1,-1,-1,-1,-1,-1,-1,-1,-1,-1,-1,-1,-1,-1,-1,-1,-1,-1,-1,-1,-1,-1,-1],"loss_changes":[3.5231453E5,1.1741758E5,1.459536E5,5.536797E4,8.582484E3,7.860441E4,4.45899E4,2.1985672E4,3.8623844E4,6.4064844E3,5.01E2,2.4521443E4,2.1844E4,1.6683666E4,2.7843664E4,2.338636E4,1.817472E3,2.1141988E4,4.3377605E4,0E0,3.7414219E3,0E0,0E0,5.1321904E3,1.9354516E4,1.0484523E4,5.6449062E3,1.6205764E4,2.5971523E3,1.2648633E4,2.437652E3,1.4512435E4,1.6904812E4,8.811848E2,1.7881738E2,1.4102265E4,1.0548958E4,3.4977393E3,2.2552469E4,2.1114531E3,2.3525098E2,5.9515713E3,1.7472903E3,8.774055E3,2.4883896E3,4.221617E3,6.3635156E3,6.711375E3,2.124375E3,4.462458E3,1.1358851E4,2.3891046E2,1.7469531E3,2.3519312E3,1.4164703E4,6.3520996E2,1.777125E3,0E0,0E0,0E0,0E0,0E0,0E0,0E0,0E0,0E0,0E0,0E0,0E0,0E0,0E0,0E0,0E0,0E0,0E0,0E0,0E0,0E0,0E0,0E0,0E0,0E0,0E0,0E0,0E0,0E0,0E0,0E0,0E0,0E0,0E0,0E0,0E0,0E0,0E0,0E0,0E0,0E0,0E0,0E0,0E0,0E0,0E0,0E0,0E0,0E0,0E0,0E0,0E0],"parents":[2147483647,0,0,1,1,2,2,3,3,4,4,5,5,6,6,7,7,8,8,9,9,10,10,11,11,12,12,13,13,14,14,15,15,16,16,17,17,18,18,20,20,23,23,24,24,25,25,26,26,27,27,28,28,29,29,30,30,31,31,32,32,33,33,34,34,35,35,36,36,37,37,38,38,39,39,40,40,41,41,42,42,43,43,44,44,45,45,46,46,47,47,48,48,49,49,50,50,51,51,52,52,53,53,54,54,55,55,56,56],"right_children":[2,4,6,8,10,12,14,16,18,20,22,24,26,28,30,32,34,36,38,-1,40,-1,-1,42,44,46,48,50,52,54,56,58,60,62,64,66,68,70,72,74,76,78,80,82,84,86,88,90,92,94,96,98,100,102,104,106,108,-1,-1,-1,-1,-1,-1,-1,-1,-1,-1,-1,-1,-1,-1,-1,-1,-1,-1,-1,-1,-1,-1,-1,-1,-1,-1,-1,-1,-1,-1,-1,-1,-1,-1,-1,-1,-1,-1,-1,-1,-1,-1,-1,-1,-1,-1,-1,-1,-1,-1,-1,-1],"split_conditions":[6.7E4,2.2898362E3,2.7128876E2,2.014E3,9.673913E-1,2.015E3,1.9049984E0,7.1758664E-1,1.5653325E0,3.6042337E2,1.6015889E2,8.116129E-1,1.19E5,7.8564256E-1,6.8943745E-1,5.91E0,8.0909866E-1,9.4710326E-1,2.6025802E-1,-8.497586E-1,2.4564621E2,-4.3775707E-1,-1.2044324E0,2.009E3,9.493883E2,8.6872005E-1,2.798895E2,2.011E3,1.4E5,2.960889E-1,1.388E5,1.0487744E3,2.6025802E-1,1.4582172E2,1.26E4,3.5287327E3,1.0096052E0,8.1209165E-1,1.2933333E-1,7.962195E2,2.5765743E0,6.066152E-1,5.140085E3,6.38E0,3.4225632E3,9.004196E-1,8.764044E2,8.2581825E1,4.081952E2,5.57971E-1,9.4086755E2,1.7067729E0,5.1409334E-1,1.5245428E2,9.658385E-1,4.795213E-1,8.6440676E-1,-2.6920077E-1,-1.7410975E0,2.4803816E-1,-9.795746E-1,-3.07417E-1,1.5988992E-1,1.8942076E-1,5.4152256E-1,-5.273449E-2,-6.187794E-1,-2.2090979E-1,4.3790147E-1,1.4425997E-1,1.459525E0,-2.9402893E0,-1.0790396E0,-2.8787706E0,-1.3387872E0,-9.229461E-1,-1.8309681E0,-2.101195E0,-6.2263393E-1,5.7886827E-1,-3.477475E-1,5.030926E-1,1.8140869E-1,-4.860734E-1,-1.6628813E0,2.726545E-1,-1.0865908E0,8.8113946E-1,2.8455177E-1,1.1006364E0,7.2435415E-1,7.9921174E-1,1.4320891E0,-5.884312E-1,2.0626206E-2,1.3081296E-1,-1.494699E0,4.1637513E-1,1.0017615E-1,9.323546E-1,-3.5452653E-2,7.4436015E-1,-2.9676896E-1,-1.4587785E0,-5.1708865E-1,-4.483845E-1,1.8534946E-1,2.205369E-1,1.0121752E0],"split_indices":[30,2,2,31,29,31,3,27,4,5,18,29,30,27,27,12,24,29,17,0,23,0,0,31,5,3,19,31,30,17,30,5,17,19,30,0,3,24,16,8,3,9,20,11,0,9,10,2,5,27,10,4,24,19,29,17,27,0,0,0,0,0,0,0,0,0,0,0,0,0,0,0,0,0,0,0,0,0,0,0,0,0,0,0,0,0,0,0,0,0,0,0,0,0,0,0,0,0,0,0,0,0,0,0,0,0,0,0,0],"split_type":[0,0,0,0,0,0,0,0,0,0,0,0,0,0,0,0,0,0,0,0,0,0,0,0,0,0,0,0,0,0,0,0,0,0,0,0,0,0,0,0,0,0,0,0,0,0,0,0,0,0,0,0,0,0,0,0,0,0,0,0,0,0,0,0,0,0,0,0,0,0,0,0,0,0,0,0,0,0,0,0,0,0,0,0,0,0,0,0,0,0,0,0,0,0,0,0,0,0,0,0,0,0,0,0,0,0,0,0,0],"sum_hessian":[5.032E3,2.007E3,3.025E3,1.915E3,9.2E1,2.034E3,9.91E2,9.82E2,9.33E2,7.9E1,1.3E1,9.52E2,1.082E3,7.49E2,2.42E2,9.15E2,6.7E1,8.17E2,1.16E2,7E0,7.2E1,5E0,8E0,7.5E1,8.77E2,4.07E2,6.75E2,6.63E2,8.6E1,1.99E2,4.3E1,2.7E2,6.45E2,3.9E1,2.8E1,4.92E2,3.25E2,3.9E1,7.7E1,6E1,1.2E1,3.5E1,4E1,8.57E2,2E1,1.35E2,2.72E2,5.42E2,1.33E2,1.8E2,4.83E2,2.5E1,6.1E1,2E1,1.79E2,1.4E1,2.9E1,2.53E2,1.7E1,2.9E1,6.16E2,1.7E1,2.2E1,6E0,2.2E1,3.27E2,1.65E2,8E1,2.45E2,3.4E1,5E0,2.4E1,5.3E1,5.5E1,5E0,5E0,7E0,9E0,2.6E1,5E0,3.5E1,4.65E2,3.92E2,9E0,1.1E1,1.3E2,5E0,2.14E2,5.8E1,3.48E2,1.94E2,2E1,1.13E2,1.42E2,3.8E1,4.73E2,1E1,1E1,1.5E1,5.6E1,5E0,9E0,1.1E1,1.16E2,6.3E1,7E0,7E0,1.4E1,1.5E1],"tree_param":{"num_deleted":"0","num_feature":"37","num_nodes":"109","size_leaf_vector":"1"}},{"base_weights":[-1.9348058E-1,-9.1933365E0,7.022631E0,-5.8342533E0,-2.9038582E1,1.147471E1,-2.8231182E0,-1.129384E1,-7.009757E-1,5.0339017E0,-3.52974E1,5.063933E0,1.714929E1,3.4645575E-1,-1.3691997E1,-7.471429E0,-1.6023685E1,-4.469425E0,6.0692735E0,1.3510178E0,2.056671E0,-3.799082E1,2.7088675E0,-1.3875678E1,6.6248074E0,1.314076E1,2.1139841E1,-3.7695408E0,4.8181844E0,-1.9065756E1,7.0884523E0,-1.9399188E0,-1.30821E1,-2.9788956E1,-1.3176031E1,-2.0183155E1,-2.2609146E0,2.2003035E1,1.9795568E0,-7.1302924E0,6.731985E0,-4.9156467E1,-2.7859436E1,-2.3466725E0,7.026825E-1,-2.8479565E1,-6.8931537E0,3.0911624E0,9.58999E0,-1.029875E0,1.4615263E1,-1.0969043E-1,2.1517567E1,-8.083699E0,8.713202E-1,2.763145E0,1.5983438E1,1.2213709E1,-2.1757195E1,-6.3496396E-2,1.3268022E1,-4.633102E-2,-1.6871494E0,-7.7380127E-1,5.3021353E-1,1.1117609E-1,-1.6412433E0,-5.7209927E-1,-1.901804E0,-6.7268616E-1,-2.1769273E0,3.2252304E-2,-5.587204E-1,2.0367835E-1,1.1785634E0,1.9147043E-1,-8.595047E-1,1.7131177E-1,-7.860809E-1,-7.709284E-2,4.604717E-1,-8.840256E-1,-2.547492E0,-1.1506823E0,-2.085997E0,-3.1624463E-1,2.005885E-1,-6.04422E-1,-2.1885872E0,-4.9977896E-1,2.2254828E-1,2.0736647E-1,-5.764856E-1,3.563331E-1,7.58058E-1,-5.9157765E-1,1.5996926E-1,6.3313955E-1,1.0734266E0,1.152367E0,7.7716035E-1,-3.382701E-1,-2.2813098E0,-1.5358044E-1,3.8945952E-1,-5.7248646E-1,2.7291986E-1,1.2084558E0,6.5274686E-1,3.5422627E-2,1.0987076E0,-1.922666E0,-8.5130847E-1,-2.1183887E-1,4.146068E-1,2.4560069E-1,8.0472624E-1],"categories":[],"categories_nodes":[],"categories_segments":[],"categories_sizes":[],"default_left":[0,0,0,0,0,0,0,0,0,0,0,0,0,0,0,0,0,0,0,0,0,0,0,0,0,0,0,0,0,0,0,0,0,0,0,0,0,0,0,0,0,0,0,0,0,0,0,0,0,0,0,0,0,0,0,0,0,0,0,0,0,0,0,0,0,0,0,0,0,0,0,0,0,0,0,0,0,0,0,0,0,0,0,0,0,0,0,0,0,0,0,0,0,0,0,0,0,0,0,0,0,0,0,0,0,0,0,0,0,0,0,0,0,0,0,0,0],"id":14,"left_children":[1,3,5,7,9,11,13,15,17,19,21,23,25,27,29,31,33,35,37,-1,39,41,43,45,47,49,51,53,55,57,59,61,63,65,67,69,71,73,75,77,79,81,83,85,-1,87,89,91,93,95,97,-1,99,101,103,105,107,109,111,113,115,-1,-1,-1,-1,-1,-1,-1,-1,-1,-1,-1,-1,-1,-1,-1,-1,-1,-1,-1,-1,-1,-1,-1,-1,-1,-1,-1,-1,-1,-1,-1,-1,-1,-1,-1,-1,-1,-1,-1,-1,-1,-1,-1,-1,-1,-1,-1,-1,-1,-1,-1,-1,-1,-1,-1,-1],"loss_changes":[3.2588844E5,1.4868644E5,1.22110234E5,5.3548957E4,6.905856E4,6.968708E4,2.9907094E4,1.662182E4,2.5183281E4,3.2828242E3,2.8049031E4,2.6757168E4,1.5990375E4,1.2405145E4,2.2022297E4,1.5926857E4,1.57965625E4,2.1956668E4,2.2959535E4,0E0,2.0237903E3,2.7477031E4,1.1227053E3,6.839752E3,8.708926E3,1.06713125E4,4.5245625E3,7.0345576E3,7.367082E3,1.3398879E4,1.8128765E3,8.347493E3,1.4623484E4,6.876082E3,1.4394117E4,1.1673389E4,1.4434768E4,1.9284453E3,1.0065833E4,1.504979E3,6.4963794E2,5.8729688E3,8.1743203E3,3.79508E2,0E0,4.985301E3,1.7338157E3,5.9466924E3,6.108746E3,2.2763257E3,5.9100938E3,0E0,4.2115E3,8.698899E3,4.6609595E3,1.0558692E4,8.830625E2,1.4442853E3,1.07198125E4,7.3254E2,4.4054565E2,0E0,0E0,0E0,0E0,0E0,0E0,0E0,0E0,0E0,0E0,0E0,0E0,0E0,0E0,0E0,0E0,0E0,0E0,0E0,0E0,0E0,0E0,0E0,0E0,0E0,0E0,0E0,0E0,0E0,0E0,0E0,0E0,0E0,0E0,0E0,0E0,0E0,0E0,0E0,0E0,0E0,0E0,0E0,0E0,0E0,0E0,0E0,0E0,0E0,0E0,0E0,0E0,0E0,0E0,0E0,0E0],"parents":[2147483647,0,0,1,1,2,2,3,3,4,4,5,5,6,6,7,7,8,8,9,9,10,10,11,11,12,12,13,13,14,14,15,15,16,16,17,17,18,18,20,20,21,21,22,22,23,23,24,24,25,25,26,26,27,27,28,28,29,29,30,30,31,31,32,32,33,33,34,34,35,35,36,36,37,37,38,38,39,39,40,40,41,41,42,42,43,43,45,45,46,46,47,47,48,48,49,49,50,50,52,52,53,53,54,54,55,55,56,56,57,57,58,58,59,59,60,60],"right_children":[2,4,6,8,10,12,14,16,18,20,22,24,26,28,30,32,34,36,38,-1,40,42,44,46,48,50,52,54,56,58,60,62,64,66,68,70,72,74,76,78,80,82,84,86,-1,88,90,92,94,96,98,-1,100,102,104,106,108,110,112,114,116,-1,-1,-1,-1,-1,-1,-1,-1,-1,-1,-1,-1,-1,-1,-1,-1,-1,-1,-1,-1,-1,-1,-1,-1,-1,-1,-1,-1,-1,-1,-1,-1,-1,-1,-1,-1,-1,-1,-1,-1,-1,-1,-1,-1,-1,-1,-1,-1,-1,-1,-1,-1,-1,-1,-1,-1],"split_conditions":[7.56E4,1.8896953E0,8.668428E2,2.014E3,2.6025802E-1,2.015E3,1.9442087E0,5.1870205E3,1.4593135E2,2.217282E3,7.1428573E-1,8.116129E-1,1.42E5,1.32E5,6.645299E-1,3.4657966E3,2.23E4,5.468396E3,3.2533076E3,1.3510178E0,7.9646015E-1,9.137931E-1,9.115404E-1,6.066152E-1,1.365E5,2.5859119E3,2.2079176E-1,5.106602E2,8.071979E-1,2.960889E-1,9.3612564E-1,1.181764E3,1.4999777E2,1.6011743E2,9.6565686E2,1.69E4,3.7757495E3,7.3395233E2,9.133671E2,1.9442087E0,2.013564E0,7.1405695E2,2.2683165E0,3.1222603E3,7.026825E-1,1.0951302E0,9.645016E-1,3.561388E3,7.435542E2,1.1954741E2,2.021E3,-1.0969043E-1,1.748E1,9.393411E2,8.253733E-2,2.011E3,1.4839602E0,3.0053728E3,8.5274726E-1,8.281893E-1,1.4754982E2,-4.633102E-2,-1.6871494E0,-7.7380127E-1,5.3021353E-1,1.1117609E-1,-1.6412433E0,-5.7209927E-1,-1.901804E0,-6.7268616E-1,-2.1769273E0,3.2252304E-2,-5.587204E-1,2.0367835E-1,1.1785634E0,1.9147043E-1,-8.595047E-1,1.7131177E-1,-7.860809E-1,-7.709284E-2,4.604717E-1,-8.840256E-1,-2.547492E0,-1.1506823E0,-2.085997E0,-3.1624463E-1,2.005885E-1,-6.04422E-1,-2.1885872E0,-4.9977896E-1,2.2254828E-1,2.0736647E-1,-5.764856E-1,3.563331E-1,7.58058E-1,-5.9157765E-1,1.5996926E-1,6.3313955E-1,1.0734266E0,1.152367E0,7.7716035E-1,-3.382701E-1,-2.2813098E0,-1.5358044E-1,3.8945952E-1,-5.7248646E-1,2.7291986E-1,1.2084558E0,6.5274686E-1,3.5422627E-2,1.0987076E0,-1.922666E0,-8.5130847E-1,-2.1183887E-1,4.146068E-1,2.4560069E-1,8.0472624E-1],"split_indices":[30,4,1,31,17,31,3,20,22,20,27,29,30,30,27,0,30,21,20,0,29,29,27,9,30,0,16,5,27,17,29,7,22,23,5,30,0,8,1,3,4,8,3,0,0,4,3,0,8,22,31,0,13,10,24,31,4,0,29,27,22,0,0,0,0,0,0,0,0,0,0,0,0,0,0,0,0,0,0,0,0,0,0,0,0,0,0,0,0,0,0,0,0,0,0,0,0,0,0,0,0,0,0,0,0,0,0,0,0,0,0,0,0,0,0,0,0],"split_type":[0,0,0,0,0,0,0,0,0,0,0,0,0,0,0,0,0,0,0,0,0,0,0,0,0,0,0,0,0,0,0,0,0,0,0,0,0,0,0,0,0,0,0,0,0,0,0,0,0,0,0,0,0,0,0,0,0,0,0,0,0,0,0,0,0,0,0,0,0,0,0,0,0,0,0,0,0,0,0,0,0,0,0,0,0,0,0,0,0,0,0,0,0,0,0,0,0,0,0,0,0,0,0,0,0,0,0,0,0,0,0,0,0,0,0,0,0],"sum_hessian":[5.016E3,2.232E3,2.784E3,1.91E3,3.22E2,1.917E3,8.67E2,9.25E2,9.85E2,5E1,2.72E2,9.01E2,1.016E3,6.72E2,1.95E2,5.13E2,4.12E2,6.33E2,3.52E2,5E0,4.5E1,2.54E2,1.8E1,6.8E1,8.33E2,5.09E2,5.07E2,3.5E2,3.22E2,1.55E2,4E1,2.59E2,2.54E2,6.9E1,3.43E2,7.7E1,5.56E2,7.1E1,2.81E2,1.5E1,3E1,1.19E2,1.35E2,1.3E1,5E0,2.1E1,4.7E1,3.81E2,4.52E2,4.8E1,4.61E2,8E0,4.99E2,1.81E2,1.69E2,2.73E2,4.9E1,1.2E1,1.43E2,1.9E1,2.1E1,2.52E2,7E0,2.31E2,2.3E1,6E0,6.3E1,3.22E2,2.1E1,6.1E1,1.6E1,4.2E2,1.36E2,6E0,6.5E1,2.57E2,2.4E1,7E0,8E0,7E0,2.3E1,7E0,1.12E2,1.02E2,3.3E1,8E0,5E0,1.1E1,1E1,3.7E1,1E1,3.56E2,2.5E1,3.15E2,1.37E2,1.3E1,3.5E1,3.61E2,1E2,3.95E2,1.04E2,1.76E2,5E0,1.08E2,6.1E1,4.3E1,2.3E2,1.1E1,3.8E1,6E0,6E0,3E1,1.13E2,1.3E1,6E0,6E0,1.5E1],"tree_param":{"num_deleted":"0","num_feature":"37","num_nodes":"117","size_leaf_vector":"1"}},{"base_weights":[-8.3396405E-2,-9.218805E0,6.121642E0,-6.30989E0,-2.6862495E1,2.6669228E-1,1.2268558E1,-1.1389574E1,-1.5107318E0,7.1195717E0,-3.3859318E1,2.5739775E0,-1.0010673E1,-5.864336E0,1.4344565E1,-1.2057254E1,1.5542032E1,-1.2023951E1,1.04481824E-1,1.4505924E0,2.2588558E0,-3.6611046E1,4.228576E0,-3.4366152E0,6.3721395E0,-1.563862E1,4.909071E0,-2.5761398E1,3.946619E0,1.5336851E1,8.510515E-1,-1.1377386E1,-3.5417076E1,1.1530516E0,7.981031E0,-1.8753664E1,-3.7296772E0,-1.6556742E1,1.1683038E0,-5.5726256E0,6.8160725E0,-4.6254124E1,-2.7638355E1,-1.1773541E-1,5.964555E-1,-1.2429675E1,-1.6383978E0,-1.9041937E1,6.7995944E0,-2.0157507E1,-7.191353E0,7.385986E-1,1.0011692E1,-4.259403E1,-1.2103494E1,1.0611272E1,-6.2278957E0,-1.7323861E0,1.626538E1,5.8175545E0,-1.053135E1,-2.4737406E-1,-7.166703E-1,-2.4995525E0,-7.486775E-1,5.286879E-1,2.3092727E-1,-1.243046E0,-2.7045566E-1,-7.6295674E-1,1.3895896E-1,-9.5967865E-1,2.3302677E-1,1.3255767E0,1.7514454E-2,1.865626E-1,-7.671455E-1,-2.3083067E-1,5.5241716E-1,-3.140771E0,-2.1192472E0,-9.2747563E-1,-1.6802857E0,-3.3344516E-1,-1.2179714E0,1.20293476E-1,-3.0455774E-1,-1.1707877E0,-5.0182635E-1,2.5638172E-1,6.4595526E-1,-1.2473898E0,-5.7182235E-1,-1.20756544E-1,-8.734719E-1,-9.857343E-2,1.9003235E-1,1.3087277E-1,6.4323443E-1,-1.2246503E0,-2.4704154E0,2.658609E-1,-7.97718E-1,1.8513736E-1,8.92847E-1,-1.11220114E-1,-8.472148E-1,-3.3909914E-1,4.857913E-1,4.7682562E-1,8.845636E-1,-4.649588E-3,7.229811E-1,-9.400608E-1,1.03095375E-1],"categories":[],"categories_nodes":[],"categories_segments":[],"categories_sizes":[],"default_left":[0,0,0,0,0,0,0,0,0,0,0,0,0,0,0,0,0,0,0,0,0,0,0,0,0,0,0,0,0,0,0,0,0,0,0,0,0,0,0,0,0,0,0,0,0,0,0,0,0,0,0,0,0,0,0,0,0,0,0,0,0,0,0,0,0,0,0,0,0,0,0,0,0,0,0,0,0,0,0,0,0,0,0,0,0,0,0,0,0,0,0,0,0,0,0,0,0,0,0,0,0,0,0,0,0,0,0,0,0,0,0,0,0,0,0],"id":15,"left_children":[1,3,5,7,9,11,13,15,17,19,21,23,25,27,29,31,33,35,37,-1,39,41,43,45,47,49,51,53,55,57,59,61,63,-1,65,67,69,71,73,75,77,79,81,-1,-1,83,85,87,89,91,93,95,97,99,101,103,105,107,109,111,113,-1,-1,-1,-1,-1,-1,-1,-1,-1,-1,-1,-1,-1,-1,-1,-1,-1,-1,-1,-1,-1,-1,-1,-1,-1,-1,-1,-1,-1,-1,-1,-1,-1,-1,-1,-1,-1,-1,-1,-1,-1,-1,-1,-1,-1,-1,-1,-1,-1,-1,-1,-1,-1,-1],"loss_changes":[2.8546825E5,1.04377484E5,1.0793037E5,4.2644664E4,6.871784E4,3.6472355E4,5.5157375E4,1.547182E4,1.5301225E4,5.2550737E3,2.5203781E4,2.8695379E4,2.3755615E4,2.9578254E4,1.756725E4,1.2778766E4,1.0098237E3,6.6282246E3,1.3879963E4,0E0,1.5369534E3,1.8016531E4,8.899012E2,7.8551436E3,8.494273E3,7.6803555E3,1.6524718E3,1.0979387E4,6.9826655E3,1.9411812E4,5.2055635E3,1.528668E4,6.1041562E3,0E0,5.57807E1,5.2444297E3,4.169804E3,2.7189326E3,1.5248829E4,1.5116726E3,1.3574337E3,4.1299062E3,5.7765234E3,0E0,0E0,5.404242E3,7.343967E3,2.7703076E2,7.689293E3,5.2709453E3,3.5414087E3,3.726205E2,7.0467773E2,1.5034375E3,2.0302925E3,3.0374072E3,1.7213336E3,3.7656592E3,1.0961094E4,3.2704224E3,2.9548142E3,0E0,0E0,0E0,0E0,0E0,0E0,0E0,0E0,0E0,0E0,0E0,0E0,0E0,0E0,0E0,0E0,0E0,0E0,0E0,0E0,0E0,0E0,0E0,0E0,0E0,